{"net_structure": [64, 32, 16, 10], "learning_rate": 0.01, "loss_name": "CROSS_ENTROPY", "layers": [{"activ_func_name": "SIGMOID", "is_last": false, "weights": [[0.062089269126404084, -0.017283037646398082, 0.08096106726258656, 0.19037873205100317, -0.029269171840416996, -0.02926711961864757, 0.19740160193842393, 0.0959293411441136, -0.058684298241869014, 0.06782000544824558, -0.05792721160155778, -0.05821621919628211, 0.030245283945754264, -0.23916003058222474, -0.2156147290641291, -0.07028594115512159, -0.12660389004180297, 0.039280916574409235, -0.11350300944015136, -0.17653796266691144, 0.18320609611519426, -0.028222037560816957, 0.00844102558599048, -0.1780935232766821, -0.06804784056564783, 0.01386532371373326, -0.14387419717778785, 0.046962252293208995, -0.07507983623985062, -0.0364617187241596, -0.07521332652867461, 0.23153477306361722, -0.0016871530922417401], [-0.1972816374856114, 0.011655187758677151, -0.13076672434922101, 0.18713524293356495, -0.33134401186049595, -0.19214351928354154, -0.13012898607670437, 0.20608704761197208, -0.07854992239241633, -0.04393010524096976, -0.1639999867337944, -0.1503882778067144, -0.23475347673375715, 0.15313517880629068, 0.104773449946044, 0.11481314380368915, -0.2102897505829859, 0.14732664156539843, -0.016811854899970727, 0.30679674880721686, 0.11358073986017243, 0.18617102696562016, -0.08084387782916641, -0.0017086522539810991, -0.33947608933653733, 0.2994117138406593, 0.19691266107973307, -0.26191117956083826, -0.07384848668635255, -0.43047324422218497, 0.07971978199634155, 0.053264119557223134, 0.21996588942079143], [-0.6195953580883388, -0.4008509327575182, 0.3411440033578952, 0.3584839199953776, -0.21064644835107466, 0.8268469595279831, -0.42006928098835866, -0.27486489632263456, 0.027045019039617143, 0.1255281186589223, -0.17875133243649233, 0.9400756239353762, -0.8234224797176777, -0.141946394856573, 0.3316886900908885, 0.9827128993882975, 0.4398534564409924, -0.7379154622532358, -0.47634086235856576, 0.7246605467013234, 0.7667857494864647, -0.20755304553073275, -0.1570742182416082, -0.19988870192966648, -0.6479848229361023, 0.6535014390334801, 0.7298154666908492, -0.29973663514835314, 0.13637812028827215, -0.4566425231470858, 1.3037908039651993, -0.10388965785003511, -0.47813280019990045], [-0.4866528008989385, -0.9138783486626205, -1.025308156859863, 0.5837690267058572, -0.5963104248875134, -0.05675865273748396, -0.5630914745732412, 0.14263829903916925, 0.7998190720551162, 0.00029951416651702084, -0.2725973468359326, -1.1344591388145804, 0.5796355810601251, -0.7296613382728414, 1.0339340958409118, 0.4783447834463814, 0.741876957261605, -0.24104281189000165, -0.40281790641176785, 0.5908088420814294, 0.8068680566962004, -0.4651129497836121, -0.12385650760046811, -0.4732101541202288, 0.058512443434150255, -0.09326368064379378, 0.9031280727016127, 0.035640248713228136, -0.09081584881151428, 0.39306406991408654, -0.2976401776542012, -0.3385961884616097, -0.41101843826305], [-0.06156690146338884, -1.7051145518996518, -1.5052361154521356, 1.09539426851297, -0.496671512970553, 0.6105293088084852, 0.10230716619132238, 0.8503783080906663, 0.9189666890299016, 0.27522430899223194, -0.08993730000705048, -1.1339896279967832, 0.4583008277009434, -0.42645275596891874, -0.7345525566191256, -0.438476592133903, -0.07849956797055772, 0.3846457443559616, -0.9453896790166937, 0.48126903259434156, -0.5532546124800434, 1.115117978545586, -0.720625617548614, -0.6239862190249941, 1.2167508352063197, 0.15508105396417646, 0.5763485463270118, 0.674804394458109, -0.5622165304079236, -1.176458695111732, -0.5549994397662765, 0.4946058522193747, 0.9194469284832524], [0.051821046972608927, 0.36800065314633923, -0.7175347138947668, -0.009310588434212374, -1.1542783961305885, 0.7174929476971318, -0.7975054690928562, 0.4426969317552975, -0.23940719444549702, 0.30436926526913816, 0.765614180844356, 0.7495385029851478, 0.7034676172264113, 1.0079280772194008, 1.0156098927029324, -0.08212338599639847, -1.2359157122630728, 0.1516814739551219, -0.32485643338632875, 1.0514659873776626, 1.4330334249743717, -0.22604599374782572, -0.03212996830292013, 0.3362899798436435, -1.028612988121975, -0.10264243366830728, 0.7147629615970638, -1.0488009185609983, -0.2338789959383835, -0.8527431515784896, 1.0715042173090772, 0.10338452717184017, -0.35499580934078107], [-0.7065434733027782, -0.1479003062616317, -0.5846212904631106, 0.4762254076258639, -0.16725729562947156, 0.8979253484294197, -0.6998798942761544, 0.2823299142173474, 0.8843424535741795, -0.6996673894165049, 0.021773186387884037, 1.4972051758006002, -0.09778416384489494, 0.5406036395787182, 0.6514632822268572, 0.9706366342162321, -0.1042328098414056, -0.40216926423280286, 0.08040338787280656, 1.0150442681089076, 0.7194701108378324, -0.14229287032952692, -0.27613214737296965, -0.3456211365044894, -0.540708616306992, 0.1996989901342646, 0.5236956155004164, -0.6000449676849652, -0.4828621634837059, -0.8125682103553404, 0.8687968105312858, -0.2045962575366923, -0.6625155943124824], [0.07095078846145363, 0.12246387827040875, 0.3844839556346578, 0.41927553244890015, -0.07932969763598971, -0.3201018998554734, 0.39882266995451643, 0.33432544826723665, 0.11754886900513228, -0.4815143714634295, 0.04048271312960784, 0.0696146741275716, 0.4400454772891835, -0.020110384369096027, 0.09779039642372839, -0.1423284154586181, -0.029564779458801996, 0.27623211028735867, 0.45491413087334026, -0.229526061774272, 0.12395633193249163, 0.2144788661028424, -0.5174086175819115, -0.15879212904684076, -0.09675600610142862, 0.11807844288604459, -0.3205464401191576, 0.09544893704379674, -0.2250311889901883, 0.10932296420844977, -0.24664110888912902, -0.411710599561079, -0.21704621606095093], [-0.023784209636821665, -0.1491130578892165, 0.20735682056522617, -0.20520178153076266, -0.04546260059833032, 0.008296218109704524, 0.24304280292170002, -0.20783722123344436, 0.16602674702567136, 0.0022205535548470373, -0.09513386266331844, 0.06835712121282762, 0.04957081157754002, -0.143030679775418, -0.011390353322718498, -0.05247678579481323, 0.0004076639486965116, 0.05818909030437674, 0.19124099624035146, -0.21764715716191235, 0.2611127617056804, -0.22465239182063054, 0.02551771442393743, 0.035599601532887847, 0.09150502636356087, -0.10589437832672906, -0.03391585691243633, 0.0031738173863923858, -0.0645249124447586, 0.1556245385348046, 0.02586487209695435, -0.07673708911535991, 0.10857616809972918], [0.08505005150678364, -0.4463666991584239, 0.11167427752183332, 0.3801867196993998, -0.1685646278908658, 0.41680351966331997, -0.10342541484278328, 0.5318445450482634, 0.250301152672459, -0.1296904486231718, -0.20856512986121323, -0.3490217300833841, 0.5372631707266255, -0.3167583664330655, 0.13793994987538583, 0.202905230436179, 0.2905163448392188, 0.1534245739300036, -0.05270218985648737, 0.20641787177745471, 0.3418310698411938, -0.04668836078345088, -0.8199744581744818, 0.22765942422100985, 0.25028945827196775, -0.1227237535145959, 0.24886308096442758, 0.14202318912324122, -0.4427171424807048, 0.14218508314753475, -0.2535853649458029, 0.2612357707679723, 0.30133288155763477], [-0.3518736319447979, -1.3667842217797619, -0.05448542085423054, 0.3727543099174818, -0.3897756433695694, 0.6502534128369066, 0.12735883021004546, 0.09640523133974677, 0.8784103181933252, -0.10005430412889021, -0.19599804637059765, 0.6708703124934963, 0.37419562054915073, -0.3068201919237698, 0.20639378831323754, 0.7470565981661988, 0.48564898405243223, -1.2639254490915244, -0.6926258269240653, 0.2085606215626457, 0.711361064644866, -0.013659907495677278, -1.2063425831806693, -0.9250497469896138, 0.9152160873089922, 0.15286424540661142, 0.25938901410777804, 0.037658254750709205, 0.2671557527864668, -0.4826939364183591, 0.7307649528061294, 0.41227095943218783, 0.44427328418998535], [-0.37367880944632087, 0.25276633600501547, -0.14863177186017976, 0.44840098423060765, 0.14574183381161102, 0.7506410284620232, -0.32520895487453866, -0.5310610887535135, 1.1213654465436234, 0.10988382494864149, 0.23864950239327765, 0.2744210162056659, 0.28715824609361795, -0.0189456987315331, 0.6976043292057521, 0.5402498274823199, 0.18517844948609904, -0.5295525037848285, -0.31980784893246217, -0.32772676965642933, -0.10844964350455603, -0.3851459944006645, 0.11030236202331171, -0.7416496257024306, 0.20260022371174485, -0.36652159667023254, 0.6242985524331921, -0.48680650877680304, -0.12280465313684531, 0.12126863368017517, 0.2952104967651579, -0.046690535286067494, -0.17859040605692203], [-1.0128861193993584, 0.21543525415981876, 1.098001864358297, 1.248149893636325, -0.6755509163977536, 1.5104133618906779, -0.8269294554513302, 0.6787269563248042, 0.3585648730585488, -1.1869619936042874, -0.9377352071490396, -0.3124399645452879, 0.454547728284067, 0.7215194538128968, 0.6881963904713053, 0.3380589450260596, 0.5883698554610595, 0.4723048263019762, 0.5877198715313146, 0.45857313120321863, -0.022972663705408885, -0.5225819299764809, -0.6786662701129217, 1.1186001306765188, -1.394976494388335, -0.8057558538686277, 0.5365169801754728, 0.08416121242948081, -1.250413815298493, -0.21009282061820822, -0.34905296388823287, -0.524850373134484, -0.348435243512588], [-0.2569329114884986, -0.25127206087450155, 0.15737394217099088, -0.5146126226216664, -1.147945834894997, 1.2109050879978274, 0.8289395912409496, 0.5652464414894911, -1.212153055848425, 0.3234856673271607, 0.2799548413426592, 0.573357721378847, 0.0804656370119106, -0.615993847112699, 0.08859390042580921, -0.28796570716882525, -0.22340893966515407, -0.1875244037699853, -0.5020904723021022, -0.8342027429160782, 0.8880403855126598, -0.8991354859933454, 0.7821027751656758, 0.7439864755917814, 0.504044527649807, -0.7984646781767898, -0.09429342559747418, 0.5157755240858658, 0.38824823133786973, -0.48990110022403127, 0.1646708466972852, 0.2508523047450495, 0.7981370114301064], [-0.021611518913651845, -0.17001710690683988, -0.33963954289283566, -0.05337966185065977, 0.16953125389099824, 0.7700392175916574, -0.05613990959024502, 0.4428685999846718, 0.575209872953381, -0.4229221777205475, 0.25977199397225115, 0.31606438548599247, 0.972246552699543, -0.702739813669161, 0.2914054399097219, -0.02122937731571797, 0.15765625989558887, -0.2791797638353044, -0.38655424539655653, -0.36324159927816996, 0.3464880041539239, -0.3565372583003989, -0.8295370251357579, -0.356436163144333, 0.7744639642644802, -0.48501357924064253, 0.3139693099420715, 0.35465640206831484, 0.039833390599218664, -0.1391058803197677, -0.34380851200196905, 0.30291573993995347, 0.6682105508182642], [0.14355781993994313, 0.037545860719513664, 0.3828419482648964, -0.06471739394277674, -0.28806211551764493, -0.08219055328798565, 0.5122847873705064, 0.05419331766051223, 0.06651353927550628, -0.2617354351905888, -0.03643824363429167, -0.019110066874076608, 0.05885267318495079, 0.14777859619207337, -0.02734165577938611, -0.07571946166667262, -0.00962012473218529, 0.030132620021002515, 0.19493323190738437, -0.11160133792095116, 0.07566566358586214, 0.013840033464335003, -0.4966005877172943, 0.04604663791104258, 0.029960459090388393, -0.15828701353251706, -0.17755109119044216, -0.06542662353192871, -0.12043605505293245, 0.03436556913432319, -0.35558408566261723, -0.22007578823003762, -0.051897567824655925], [0.03932773608042264, -0.10801970442212278, 0.09563764262102833, -0.22139983966829843, -0.00498247868989155, -0.1603263133774479, -0.052801280201943405, -0.0076631091068804225, -0.11184689334903586, -0.04463015754382746, 0.1311419011803793, -0.06802775654563237, 0.09975156946219553, -0.17063840066618802, 0.054495111534658476, 0.17223165832201737, -0.31352320551659657, -0.10918702539349939, 0.07028231622176842, -0.05324756870455644, 0.04357990789042009, -0.06753638404555401, 0.030607286817216122, -0.027553576385966196, 0.16974149514060863, 0.03080388844582586, 0.029518408356097137, -0.022943405432564033, -0.05137695150088055, -0.03299463420691709, 0.041373915477677124, -0.0487592852684853, 0.04273309601244071], [0.15302739426297476, 0.5368234022304843, -0.830977070292117, 0.09029632917977594, -0.030751161987720824, -0.2507330239063872, -0.3196210169692766, 0.00459598077009814, 0.37711083266684425, 0.5999889442126198, 0.18564043206901065, 0.19240401772166418, 0.5684384545074849, 0.046539783897351125, -0.17137604062940218, 0.2894126740010443, 0.08498326917675583, -0.2709416310579408, 0.0024832544008866046, -0.5084253598260764, -0.25555313425884624, 0.34281965658714103, 0.5133472893695882, 0.37506945698023975, 0.16794195930631706, -0.5714559483851714, -0.1060375509379727, 0.43815915557209184, -0.14552054644817958, 0.24808784322337707, -0.20905479145910935, -0.08664858627268521, -0.24677916062503935], [0.3111056543291599, 0.12174065817347705, -0.21295986223519425, -0.810942276403894, 0.24417342731736869, 0.7797569822260444, 0.184102235250515, -1.1219957224007766, -0.4323008781915279, 0.8554201316783221, -0.38991824757526955, 0.9277330694022443, -1.1503134753526747, -0.3425995151185015, -0.576697248415957, 0.4196175197721414, 0.37992396056944067, -0.7879882219449086, -0.7187566064643379, -0.6597737878286384, 0.35718276882786404, -0.20804515453033584, 0.9629749512352539, -0.23511220235761113, 0.8699227525973817, 0.347569790291298, -0.7890044142413948, -0.18819260195229423, 1.1832514243974113, 0.20903034435512516, 0.4102879527672005, -0.01597591261223196, 0.16489028796315094], [0.13934349670277538, 1.7045932843623168, 0.5454202551196445, -1.0094598216342616, 0.3200059356043188, 0.25454716948073464, -0.1942244226026037, -2.5841607867778515, -0.460554535917401, 0.6127105821406822, 0.1395412221942369, 0.05603577587011634, -1.452691473386806, 0.36590285891982893, 0.27938960788127853, -0.5169692724931747, -0.8603885738401849, 0.3494565820388366, 0.42605791748539085, -0.2877182383886535, -0.6871783314669072, -0.25544391977655184, 2.249861746549024, -0.08700838688229691, -1.1305810597379822, -0.28732587135283716, 0.07719007269111068, 0.15375891691957844, 0.3605946612994482, 0.5692296558472542, 0.3960762808981071, -0.4733691045002355, -0.8764660963447888], [0.6535624650400489, 0.8387005046309782, -0.7340440042064195, -0.12295697981055827, -0.48641463931125617, 0.4980542854383617, 0.029680234836924335, 0.4977556107129725, -0.4481687832945454, -0.19792106907408483, 0.23716776589159305, -1.3702857132647532, 1.251528628663097, -0.21960060531804637, 0.9061845822574952, -0.15477853765299543, -0.12055874191065549, 0.9527938787705976, 0.7876476653002431, -0.722574983440735, 0.2802946587500239, -1.5618184382029947, -0.24647194219884908, 0.6057098073333991, 0.04714362295518319, -1.5678736555085757, 0.06278370298167955, 0.19563976202345792, -0.6497322999586609, 1.0289440973527177, -1.4916011668140854, 0.2818843685920499, -0.8706547561921663], [-0.7081809349537351, 0.07555532645614088, -0.37302709741310214, -0.4106435297547189, -0.14374682128859964, 1.5446590258670159, -0.2522506853604954, 0.69000279479872, 0.18352910674178743, -0.5566911136232415, -0.37114674027795697, -0.33958539712895636, 0.733876807815793, -2.447137335022219, 0.7058697748646049, 0.3034014267113047, 0.6852792978118655, -0.44742557841447883, 0.20459739946784558, -1.675485179237604, 0.8601518919878207, -1.231908683477751, 0.6352469730032916, -0.11282398497661712, 0.6651241738994578, -1.255957959084535, 0.21349459388905387, 1.9385470718684372, -0.1748615021046498, 1.246457865394549, -1.111073129509121, -0.4485510022756716, 0.23346093098082507], [0.4073576939518314, 0.6323682959367948, -0.023421611295882133, -0.24969835003559607, 0.2611289954067784, -0.001045526170284339, 0.18844144717100642, 0.5970678677944209, -0.0004141478764319737, -0.2648281569956894, 0.19114423046160123, -0.4132427912557621, 1.2727262072940486, -0.4622593690634632, 0.0035198349414368654, -0.7228704165102471, -0.06495193415464294, 0.19012423984161303, 0.5579424135872981, -1.0832242001087093, 0.004328518560396122, -0.8744104067956723, -0.8628574192548096, 0.14861718940624255, 0.28371764278495726, -0.7290897495351213, -0.7475954934766158, 0.9379492355079139, -0.43939751024491225, 1.2245004515377054, -1.4902531582006888, 0.32623181590092215, 0.0029766336370975945], [0.15509525004696142, 0.061304819527401085, 0.24411296540407382, 0.28281599021759335, -0.053279195746656294, -0.06584429769947066, 0.06052113825314634, 0.02515592780964729, 0.19132505437821526, -0.09682646212679558, 0.2210459152735881, 0.10811212144453757, -0.05905583962207871, 0.19943332709116338, 0.10056058628737037, -0.021217262144698202, -0.2217923939409225, -0.029651834415985345, 0.13768629063558274, -0.035487780656274774, 0.02290384012387509, 0.03842609032426658, -0.22665089160382357, 0.07588185895937415, 0.019067860338228066, 0.13014955086004754, -0.02520901352607067, 0.11502828485967233, 0.001993428872669991, 0.04173446614578833, -0.25832222653043235, 0.03054087789218509, 0.008407232185564294], [0.023448810477181854, -0.16473097126850114, -0.1343991793176185, 0.12744656245971017, 0.006965857928706258, 0.08384088336132381, 0.03264355941940267, 0.0010111010162800781, 0.13891847392987433, -0.07502297976788205, 0.0048417367233032395, -0.03900935929793427, -0.057244646925567515, -0.0433710775112855, 0.005964149171306415, -0.049104128595148185, 0.1694886148183513, -0.13343792274997296, -0.01637368054637385, -0.08334841839472411, 0.152388450295881, 0.058721012796830764, 0.1342116871297289, -0.1928681784718827, 0.04390192524750597, 0.109210795224212, 0.005010707906485486, 0.15705897268796884, -0.07026385482421504, 0.18094278388869123, 0.2808021937550124, -0.05380999372659009, -0.05619750891575655], [0.3677225155757382, 0.3953590895644241, -0.4675400344698978, -0.29947046891121076, 0.5660937104096854, -0.3701078296505757, 0.3218594792155016, -0.6272568245857609, -0.2299717131128537, 0.39106508006102303, -0.2561651570046082, 0.3763330238957218, -0.6300800413946253, -0.019004184250003796, -0.505721846368525, -0.06199574243360739, 0.1908628387050709, -0.2768396830536636, 0.025439825739835567, -0.43455087931327707, -0.6858655262651513, 0.6480454053871014, 1.6667846081137645, 0.05755112249361082, 0.27830099762799354, 0.13229469565435095, -0.5171861435176435, 0.19439543083599242, 0.17401295994014448, -0.036393907175835793, -0.24602603172860435, -0.14396043545187764, 0.2157098824778871], [-0.542707520399084, 0.5198404502429353, 0.1268679435645974, -0.11803094672997941, 0.5328005795154421, -0.13864501569008938, -0.03997574201052871, -1.4674078514674485, 0.10246239801110642, -0.4847100091663668, 0.18256522920932755, 0.8106117142125961, -0.1203803809620563, -0.3272729067061825, -0.3989243957101335, 0.8584272159149559, -0.027948114354490225, -0.5606748475208726, 0.29927196543523216, -0.05022605976020169, 0.08714568444481513, 0.2514377673830158, 2.300119396170552, -0.7390130315183395, -0.5512033119784666, -0.02419242796110712, -0.07529250296962962, 0.3880067134670579, -0.0771164793536677, 0.8374716794501919, 0.41939493272760336, -0.1404318287470441, -0.7655656399717977], [0.9682967261397536, 0.6844406487256841, -0.33302841640835207, -0.8374877894419491, -0.3127932797886091, -0.9564321486805683, -0.014883268769217379, -1.975803966295669, -0.4009122128855753, 0.8215145536552073, 1.1679304788024814, -0.484903806537357, 0.2941470244207013, -0.9870477759178123, -0.24724572246581872, -0.5297614299108615, -0.9489534417221337, -0.10946920327862791, -0.6986918240533762, 0.4394424423539036, 0.9969279894228309, -0.4566039076647451, 1.4935254677590972, -1.3001652487165116, 0.557397484076126, -0.07771406354939218, 0.3340177143369942, 0.3725535929489498, 1.0654647588906283, 0.6607052876966804, -0.21135477037595032, 0.7286941233812728, -0.5466810467822928], [0.2548065091313931, 0.4021379392011211, -1.7228206979270952, -0.38085295116711565, -0.5975182194484743, -1.433950806023953, -0.7328576463639748, 0.15838995249253046, 0.14504525616429806, -0.4517625004499917, 0.7019622484296625, 0.45810829964613875, 0.9097291877043028, 0.8957962899229414, 0.7450828270158872, 0.6795415739766649, -1.0233376398604608, 0.7047581686013553, 0.41496970687621126, 0.5587354552491821, 1.759648801117658, -1.0393290734079967, 0.07901489365889974, -0.38559246532610036, -0.3291819359546859, 0.3323276410494307, 0.4687063611133421, -0.5256415043920072, -0.4682106521951956, -0.051182193560745784, 0.06503990870855461, -0.030708595482291365, -0.45702554063178585], [-0.35684686931414467, -0.4227734273004725, 0.44471148842237096, -0.019051843041212903, 0.9963432190412252, 0.961390384669577, -0.7411369554364614, 0.2736746809275114, 0.23301107160878912, -0.38742488729115576, -0.38855071085033294, -0.35226645724905853, -0.38120529922440405, -0.37198966999014216, -0.31067225438655677, 0.4379764962745937, 0.7548888510934755, -0.652605937115079, -0.09419175531548157, -0.8353815097945697, -0.14588040589424525, -0.7769802345535107, -0.27054235411085853, 0.056220348551361043, 0.2212137330180227, -0.015301366491291575, -0.5677796001125788, 0.616194623709228, -0.13453674097882765, 1.0528664957183365, -0.8501375826399655, -0.4848243291448631, 0.5199467036415184], [-0.5657741811154442, 0.2473775770789887, 0.20110452195382628, -0.20283300171464544, 0.794940375516394, -0.9360004363028522, 1.2949053562437696, 0.15628197708378358, 0.7170110276616614, -0.45818497289547905, -0.13405821970964385, 0.9707561422454393, -0.25976221936463717, -0.6677087425467673, -0.29108571381217124, 0.4496317880405485, 0.754486243969532, -0.5796910154593841, 1.5225446926602362, -1.0752959764954453, -0.9684972170605516, 0.7184971770164309, 0.1408073275453397, -0.6698668887038638, 0.24633355531280365, 0.13189086468413957, -0.5697528454382149, 1.198277687672048, -0.8201400484179416, 1.2456599456064819, -0.7116146933735709, -0.6898042332694562, -0.9403017702458155], [0.27440127407853604, 0.22953777679833676, 0.07241840672033624, -0.001345019088445932, 0.013583029477086577, 0.05468590032166078, -0.11684238163313465, -0.033808608418409436, -0.21181513325055526, 0.05184391153555621, 0.07941303842581117, -0.05800685890406487, 0.19442528330379827, -0.1417688262707857, -0.186870481296945, 0.017984313100446722, 0.12745715172514582, 0.21651613215529908, -0.04368838206022017, 0.133340040748768, -0.011044027309682104, -0.019143115273597404, 0.11179178021285295, 0.08415664036395691, -0.20278421394915994, 0.19144629201148974, 0.15784032827141511, -0.07791489954051296, 0.046476833486594565, 0.06462631220514888, 0.029976380006333795, -0.07163435620378392, -0.08552314582509737], [-0.0031942588739306598, 0.14659112740742059, 0.06795001932430404, -0.04632679151076324, 0.09646233883104309, -0.35606782757875943, 0.14359571254651293, -0.21746422234726245, -0.04530511767539152, -0.13995873682826798, -0.16183518446511322, 0.14510334842231493, -0.05846265016398642, 0.04331298521633947, -0.005865072359898009, 0.05963010340289018, 0.00960273638253192, -0.1603740280235712, 0.1245333524308925, -0.06171957289516406, -0.19457273733246888, -0.053514395120739064, 0.18759497382928886, 0.10627771776418661, -0.0435815168009824, -0.0436572130398036, -0.04020438140217283, 0.2595934979451051, 0.04774193152894417, 0.053755205898883704, 0.12878543175398027, 0.02984864487831419, -0.03238026822758789], [-0.2000094889411876, 0.006870111939353506, 0.4509260786972616, 0.09792079175515984, 0.6031333159692405, -0.6641869283195445, 0.6259240425879429, -0.23972337302188707, -0.0748708706525148, -0.2184472968327376, 0.08653153121900589, 0.4782282551682256, -0.9910900216329079, 0.9048794818705461, -0.5528596927740961, 0.11041533733716319, -0.19000563488178465, 0.04454710971520395, 0.20993061877735986, 0.1102705060797099, -0.8642283267418814, 0.8907148740684511, 0.22187719019009508, -0.23564515413264925, -0.25694863497724, 0.29373169001601945, -0.029379897757829867, 0.060318149747461094, -0.31167055227957785, -0.16101979487116952, 0.33569353899699456, -0.09969009984997372, 0.04507016526530758], [-0.23039828005690838, 0.1679978339215021, 1.1228785226892672, -0.28132544269847326, 1.1072493238637635, -1.7031603778937339, -0.010511290383531123, -1.0430540339726906, 0.11811301538288962, -0.3134284396931278, 0.4465266437742193, -0.021333583070709157, -0.7913835607918885, 0.19759042054920198, -0.05479282142582745, -0.3779789172476791, -0.5313202504866144, 0.27781257366068185, 0.15224351530151073, 1.0408716443627712, -1.0450994489663048, 0.9765114372053677, 0.6924381568172342, -1.4519295629897515, -0.9709538229709782, 0.0948610308233128, 0.6049683951885921, -0.13280540978213298, -0.18008010035934036, -0.04436197826267704, 0.160564731291143, -0.5693783134496048, -0.25845740090902836], [0.46534715191028997, -1.0455894133405599, 1.222431960465866, 0.5128307188520287, -0.23513030137468358, -0.7640379590384448, 0.6183373524359044, -0.6435501117592147, -0.2775741318423293, -0.3764910542721574, 0.7474740890607313, -0.7365764087406274, 0.41644241428579076, -1.6601009916948588, 0.5614197820453564, 0.05607580494226733, -0.21420152381707747, 0.1259656290662656, -0.7375827481575958, 0.20078146002893463, 0.7498228822719057, -0.8038370526889923, -0.8452746418970533, -1.1274522222904897, 0.5253199486902035, 0.3759305609542101, 0.7055044600583241, 1.0340949102837829, 0.6065675922506736, 0.022965971797570865, -0.5433103566841694, 0.45863850247608584, 0.16098020903453716], [0.7505463515988828, -0.2323219078307694, 0.5736155790656503, 0.14921382681493042, -1.54144660236132, -1.3602944765596192, 0.6728198444034035, 0.860045479440387, -0.6887226139831584, -0.61878750334891, 0.6447215259307215, 0.39761615791577526, 0.8472310336750731, 0.9896887312787431, 0.29029774961462984, -0.2320626641990018, -0.5640245358603274, 0.5348336715403584, 0.9590466697616294, -0.07247977980988574, 1.0925428090897404, -0.003541236942223104, -1.3011867608613248, 0.3411803105586237, 0.0034558608018681112, 0.8290018473212138, -0.881068796932575, 0.13140942677178752, -0.4439270294502309, -0.08612882113217242, -1.0405414618395645, 0.5961024686228713, -0.4473746841179442], [-0.28066510416997825, 0.20134242517148415, 0.17676537995673894, -0.44808413494877014, 0.5578944106500224, -0.3425429133736945, -0.34834687337037873, -0.06857926188765723, 0.509705851690177, -0.2671555295289902, -0.1489479810552159, 0.996765211794644, 0.823307914331184, 1.1978370914987189, -0.3537994040938057, 0.04689175062434661, -0.2854202920584816, -0.04797902315732557, 0.6837990749630315, -0.34473274202900056, -0.6284314277428857, 0.7047948338685186, 0.031728350088709535, 0.5423535698768415, -1.0177749230502975, -0.429745849773538, -0.7202375379432421, -0.38007123136525994, -0.8853926227867293, 0.12943507613652092, 0.291853780471364, -0.8757097946731808, -0.45475522899670484], [-0.8870798733455704, -0.5445642049593826, 0.08562272200686075, 0.5881148904541955, 0.4685463150932788, -0.4338599751084032, 0.36552503133466874, -0.3775883157864955, 1.137276753576332, -0.8590214247678994, -0.3859629261217342, 0.7980636740665042, -0.30825056369989323, 0.7494001536264726, -0.612678861808641, 1.1415975697361593, 0.6265669237923361, -0.23567528015703593, 0.49821031502119095, 0.07696832721998267, -1.008036032085166, 1.2332009359118867, 0.7701192114910734, -0.16764091138679996, -0.8870993441820659, -0.07498953853951097, 0.39942674983635357, -0.03266966044620409, -0.8166220897336226, -0.3887404526409843, 0.4964681484990299, -0.9928801000969968, -0.5547382911543542], [0.06349891586406796, -0.1379208257717342, -0.26911132411906036, 0.04857232556637051, 0.3116249396790988, -0.0007588639424866655, 0.10481134680645524, 0.010228669818445627, -0.012361206648892833, 0.11488456037347107, -0.03628431802358142, 0.03342403925898787, 0.0402122257745017, -0.0835113067053811, 0.12400529369206535, -0.02186996958692608, -0.09446814493660559, 0.06706373044630044, -0.11230849772387966, 0.003522644671141031, -0.001139874580525443, 0.13573694572894726, 0.0593372791099941, -0.0031283698431429897, 0.10222078740003589, 0.17377594362716417, 0.06972628829398278, 0.0012940774804225759, -0.16397952904376994, -0.13313920788442157, -0.038153088044333455, -0.0761890252699104, -0.02337141287318075], [0.0046521276409506465, 0.0699125577867937, -0.008319934255884207, 0.06049199209517074, 0.008241906802300886, -0.2492416752203235, -0.11514089701064234, -0.01903520473755997, -0.14711823389301656, 0.07233938823262338, 0.19269263826161342, 0.15544994642217136, -0.023013915785032518, 0.18607538800944648, 0.019455889082989553, -0.03998830274255102, -0.07693981967810334, -0.03900520256413626, -0.044782791108562335, 0.01910855426994939, 0.01842279698405143, 0.0015053674699798336, 0.05612419239734126, 0.14654483066796883, 0.11752197408395838, -0.18763043838475998, -0.3196112903328613, 0.1192483916713479, -0.17517651561670172, -0.023148454228941222, -0.14737272272571234, -0.22728206415475477, 0.06191276879964324], [-0.022400076662100803, 0.5011649181694903, 0.00931617006804638, -0.2264829594932627, 0.6441484156845471, -0.7334879000043935, 0.749499939057088, -0.024301638905730255, 0.7464079509639943, -0.28853839840158013, -0.011551170849593154, 0.6492421949247729, 0.09678345732400441, -0.08931674987300117, -0.39057013162103144, -0.35985138138485545, -0.18392611577542795, -0.04221931824010091, 1.001284473570934, -1.1431072923416328, -1.0072632047830825, 0.822382718368145, 0.08906416243775465, -0.500351960729178, 0.22065184534711116, -0.3028373776075574, 0.042504908121027356, 0.9068417367954608, -0.7780664993290554, 1.1908616590503431, -0.8000725894619592, -0.19965292592091627, -0.60340096288537], [0.5052765790934303, -0.2630763791218401, 1.5689547361458291, -0.6677614989499742, 1.1725350410351603, -0.6585687149836467, 0.8371874203048454, -0.6413342493199657, -0.9279484835731191, -0.1114694321757501, -0.521823972785303, -0.5937500570333865, -1.156621174166669, -0.4716967715521215, -0.830446958582274, -1.4280266716082048, -0.321343630307711, 0.8268432100887029, -0.3559241573548296, -0.1262272293266051, -1.3346305580161504, 0.9678554508289907, -0.1291113810365712, -1.1110313163462924, 0.23582207105843417, 0.8320207151818846, 0.19946433965976856, 0.5816930927453005, 0.3181712715440773, -0.324351163072927, -0.4584494343623798, -0.17029640304714186, 1.3340850558185438], [0.3682145499381284, 0.5710489114678573, 3.8335383863700088, -0.3561350514206007, -0.347488258945242, -1.7211675430008635, 0.9865027054452927, -0.048276300894816486, -0.9810488498659682, -1.2973450085571043, -0.5256708761994401, 0.22430303291359233, -1.2326431917333849, 0.9102736008894674, -0.8866338539372671, -1.0243567922991705, 0.18461020305572073, 0.2815465207766181, 1.739377071977087, -0.38089381228191993, -0.2685282403723259, 0.2059743977872314, -0.4481362786190915, 0.5122569416559641, -0.79731448751118, 1.2226558850001406, -1.2338733857576647, 0.4937466963485864, 0.026423890508550162, 0.834281092693036, -0.9884262623783269, -0.49704537229678064, -0.09933682174055952], [0.06996526356811544, 1.0108353364801268, 1.6068215226328841, -0.4377543827724055, -0.55142225137544, -0.6804946712803989, 1.195931646693511, 0.5234795874261614, 0.3490120411323032, -0.5569350636481001, 0.7357043986562634, 0.40742282773447297, -0.34343767783395485, 0.2752096250406224, -0.4441756007607776, -0.44285977320034475, -0.7269899973745944, -0.11604972044050905, 0.824708715595045, -0.5437246746799815, -0.5927041248198167, 1.16525067502729, -0.1859184754400398, -0.3838136774124263, 0.10097612402292888, -0.2218470686561611, -0.5740853850593839, 0.5971513764242733, -0.0032885625825708137, 0.5858328002996508, 0.10318424968218504, -0.2581620253193678, -0.8392689729958951], [-0.1559972086441862, -0.43601719710558445, -0.6527716537983591, -0.3793490438327882, 0.639853175434309, 0.7785731937717146, 0.5739750034924186, -0.07095459959482996, 0.9294803405387545, 0.12186815163052239, 1.1273301833624096, 0.9565829015290097, 1.1639031884701139, -0.24148927247968768, -0.2960382973447958, -0.012591651320867512, -0.7419403332758236, -0.28103249486801446, -0.3680863772458303, -0.5310132553992644, -0.46488424623814345, 0.8373845326756427, 0.1800637162690157, -0.6720210129539606, 0.6705418599552848, -1.5075057953487068, 0.4568482215348743, 0.05048661799256121, -0.7604516233938455, -0.13838808346551373, 0.44170625306446665, 0.2891203149426962, -0.2834276086291916], [-0.19567750262015213, -0.9070672103472521, -0.20721230837033683, 0.5327862087139256, 0.8468101739148892, -0.07653351137502509, 0.1263561700467868, -0.35579955035645966, 0.7359606428405173, 0.1595578448345505, -0.11703840469776428, -0.3855717888737147, 0.7367160650072717, 0.3724784545702115, -0.5782545372365153, 0.25677382006884697, 0.09032196102826465, -0.1532321172412714, -0.42206776752013, -0.2603814116785067, -0.8607244124627669, 0.4962027038900684, 0.10163093045632207, 0.11243760262286483, 0.770007890354442, -0.3510897982369152, 0.17899124136478606, -0.12329502363633091, -0.6591342597178652, -0.8917972936808437, -0.19030957168195498, 0.08276932710993685, 0.9096548278461143], [-5.661741920141224e-05, -0.138663650542119, -0.05496923229515559, -0.05683737831831748, 0.09252936634654567, 0.05711771437429024, -0.0652943357035207, 0.1501540971527781, -0.09585946486932659, 0.01886524997815214, -0.13821822123998964, -0.2872717026463383, 6.22815526643221e-05, 0.1423961304803909, -0.13180197149483597, -0.026876631526959984, 0.06951361258858947, -0.17761183759296179, -0.07627374454259214, 0.11693593310052683, -0.23820887843089872, 0.12605238638927957, -0.14922964794540736, 0.08902986294822082, -0.0028749809726061446, -0.1217575559079945, 0.10416036606808209, -0.11802086571605766, -0.06884213703566536, -0.0579577455550556, 0.15675040672500914, -0.14283744948668345, 0.07209721196159281], [0.05004667231559369, 0.08125047787733729, 0.02259875956760414, -0.0371424185808733, -0.10854876161275531, 0.013798481635020421, -0.14857823778102694, -0.35109179334881563, 0.055236205091607496, 0.11061722246816794, -0.29929266578722663, -0.13338415011439425, 0.07849963519788487, 0.2676858874323113, 0.007178245753488929, -0.08755755296007066, -0.018845726421519358, 0.17502494101055108, -0.07917005675055536, -0.08805963991104383, -0.05760671498743395, -0.12301881080012177, 0.0027364787041687035, 0.2102647061123472, 0.029838554460144343, -0.029396925606515162, -0.0353306486115494, -0.2097428810366628, 0.10295741312348557, -0.01906141947345866, -0.019244442124289038, 0.3988720208561525, 0.03631368689399528], [-0.13479033842464716, 0.19785791341944095, 0.21550550103257693, 0.10528247814984741, -0.37863557334372583, 0.02218309629312248, -0.11357077424587605, 0.5574023870737403, 0.2948974243105916, -0.026258634574269836, 0.13101974494437782, 0.13782643342234455, 0.07361813819541944, 0.32330161656680456, 0.023728626747854472, -0.20192461789697008, 0.15682096740694987, -0.00329693047668963, 0.360571254910928, -0.17190034104512494, 0.1118556008632964, 0.16365338668039123, -0.4938882993093767, 0.1774657155828491, -0.10109891790662041, 0.028853349198053373, 0.0300335550987135, -0.12937001165454218, -0.3148993216839285, 0.24595279368273928, -0.003877309094560226, 0.10438316662370842, -0.01120829081733807], [0.3208080772409209, -0.14578370044477573, -0.5218204518464598, -0.04539717069144943, 0.12236667659171084, -0.27251907593105607, 1.3375685741490817, 0.3783949570579005, -0.4913633885191892, 1.3892616927982107, -0.1187487367089615, -0.2901105481817561, -1.8096234547200662, -1.2000466884282384, 0.35273396830064535, -0.7583686671974683, 0.05588428528561357, -0.0015920260365084645, 0.0100649197876602, -0.2494663755498838, -0.24729715181957967, -0.133863881245337, -1.2896591767524597, -0.49818654787063443, 0.6708169621660101, 0.9168060227237709, 0.6623701548279141, 1.0255065803573185, 0.4288799628590793, -0.03786821097066969, -0.295812888353086, 0.009148029121053527, 0.14025001129738232], [-0.09218143607392473, -0.5196402302199224, 0.3189084442818697, 0.518628097334477, -0.3908432476450104, -0.8173546175298199, -0.4718855039392949, 0.14494377563196661, -0.41014542606368687, 0.2131851004992073, -0.9454260748905762, -0.4944439461088945, -1.084950918515982, 1.0074567875173637, -0.3669266426380595, 0.03604392829183511, 0.8070933351551898, 0.163461075138953, 0.6571835337791286, 0.29565151987456323, 0.24883434063885548, 0.17202592879310213, -0.016749501403845523, 0.39892656227723655, -0.3407365914717438, 0.6978226390007334, -0.279786271699282, -0.6241605628787292, 0.46908973293727957, -0.6179455825638407, -0.3772578511490931, -0.5242489309919917, 0.3173237217483901], [0.06858877072283287, 0.21126075696162022, 0.4627304965169044, 0.528762685072269, -0.49536243321322354, 0.9342176674164988, -0.9780300791959755, 0.457626254146475, 0.2894529087480543, 0.9066663708587582, -0.31843636351399973, -0.2938379835153513, -1.3817575097824868, 0.629371332307709, 0.06139714333320648, -1.1652113097842085, -0.036066352517732124, 0.18197538702959998, -0.054013563467799584, 0.2896814147000545, -0.3093768919333052, 0.0582456300441352, 0.25250251869337703, 1.5005683742893727, -1.106616733822346, -0.06867786838245722, 0.05174847140955473, -0.5127776591437677, 0.07056670469118403, -0.7149749727024849, 0.26849954769007117, 0.11279806437302903, 0.04284077997802748], [0.828808286082174, -0.7177331247188253, 1.2243805007499071, -0.05050910019877402, -0.42470740426195464, 0.5714700967519031, -0.1276076873602848, -0.46257206144484997, -1.3521882842291617, 1.4378314567835078, 0.14075191134944273, -0.44444720695480905, -0.15119483089456076, 0.17064476557250416, -0.5732143926346058, -1.4076109048149692, -0.4661120575509558, 0.8696822654869593, -1.0703347969318164, 0.4693103291617279, 0.13467822708636581, -0.05304870511346725, -0.016481134394084024, 0.810916785927443, 0.06041312789590833, -0.16835154071247255, -0.39335146570416263, -0.6246787705848149, 0.7098038869878273, -0.7917841463563169, 0.555670459150133, 0.3759040376183385, 1.2635772297348273], [0.5253680069459795, -0.5922008214213644, -0.4501312030276867, 0.1883752553434066, 0.997715029999273, 0.4272526665333912, -0.4412295688554874, 0.2894831449606622, -0.7180709337716031, 0.7508845598881484, -0.1576437176907994, -1.4544926344095643, 0.6506443957853578, 0.36869022074905156, -0.07238421791988861, -0.3981767283974347, 0.3297537045073767, 0.5317674725000865, -0.4639131164975596, -0.46680890928670454, -0.3519345621417436, -0.2669958105921457, -0.6540600146840067, -0.1642930948821702, 0.9836409498129185, -0.1627510340784863, -0.3699120489466978, -0.6830295328970646, 0.1762902467343065, -0.3744939997358573, -1.0093136768493174, 0.41927814706594774, 0.8656358340534569], [-0.1389018841210382, 0.29233989061030624, -0.07641438267238941, -0.13986426506796937, -0.21557415366816648, -0.26876159087675006, -0.0947912906870481, -0.06516662642028291, -0.1430931379755646, 0.06295774771818903, 0.10791066596303915, -0.11868574058389192, 0.1392024110150557, 0.09567107628395893, 0.25587499738236563, 0.08881394202290145, -0.0426397335575241, 0.18673245075510525, 0.32149456428671164, -0.05438445236343967, 0.16759580347172456, -0.31974195831606356, 0.2815188071148125, 0.03008715754491638, -0.35470770982052724, -0.005215555765929102, -0.26595422326158163, -0.13582910138079032, 0.02711946128194284, 0.4863454314914673, -0.11089028819390528, -0.006289206061413954, -0.6202554769875728], [0.12110169774052007, 0.04914154547850654, -0.08085184715347687, 0.2249442372117341, -0.15069060970152803, 0.11738196538002918, 0.11913385068087887, -0.07881579409997816, 0.17251222484836534, -0.030979489966737665, 0.03401003504886564, 0.028511765060182888, -0.01868758079886332, 0.10502397306509738, 0.10003874101132813, -0.21847295959744076, 0.16470988018890514, -0.206286510445871, 0.12730063496677604, 0.1456307077509677, -0.13480758997540387, -0.05290125562959253, -0.14296873501269508, -0.023270826040019305, -0.04124117367991117, 0.09939064044085776, 0.1642287676481018, 0.1685661410654076, -0.0704458605608367, -0.032288243491348366, -0.20894537932872484, -0.09979739993478719, 0.12347776887632397], [0.14880405157910043, -0.2784006612813167, -0.022840287586470123, 0.15557946574527606, -0.09698576249302394, -0.1133360809132251, -0.16334101988098165, 0.03771337621694452, -0.07568427239278999, 0.12818195585625874, -0.06960575501308068, -0.025736411318196574, -0.17238651587442083, 0.24446207929511735, -0.03558183129464721, 0.04367134286611835, 0.19952407259985064, 0.1526915384128604, -0.06673866380571282, 0.4749111002353332, 0.039584630328263065, 0.15405576307171306, -0.16819518922309412, 0.09342895492038687, -0.22211614050649606, 0.01884569744228666, -0.02324809533574184, -0.4289168378266103, 0.007063893659023916, -0.117496571090233, 0.5490207562187502, 0.07255429480869438, 0.14528770920462483], [-0.6584823170888254, -0.7936497558066692, -0.1011730921749556, 0.6809656236564798, -0.2522191783146637, 0.3244253985176972, -0.8076443016553229, 0.1482866879421415, 0.2521052682399169, 0.004391458754474981, -0.04993606325464706, 0.3024094323435853, -0.7923846495036541, -0.12470598180129203, 0.6963988089795994, 0.9644621033687418, 0.2761900961622969, -0.251195037509245, -0.15056914154122777, 0.8959687526839555, 1.1043684623558776, -0.6478118009123144, -0.5925429082912678, -0.035772129424687674, -0.41523993624433214, 0.5479980632223321, 0.8472500699936875, -0.31203786165758524, -0.20842906275830328, -0.369097322085884, 0.6077479977143391, -0.09079488033401882, -0.4641681678048699], [0.18273379445744042, -0.10855894675993387, -0.20090431689623955, -0.10038117187748462, -0.682964434210501, -0.29834176712673866, -0.34067474565565614, -0.6772458579802219, 0.07541579383013503, 0.7082795671880274, 0.365494949726427, -0.4804805577613983, 0.07611297497666707, 0.6776885555821069, 0.7469407232309258, -0.1836164800427673, 0.18688337256071116, 0.06928699611345421, -0.6731526983930193, 0.26253828435939436, 0.7938451270582769, -0.703841492896285, 0.6708526912054716, -0.004236776788579943, -0.014520874461943176, 0.04258023044699003, 0.09622397858800345, -0.7013508171199899, 0.6542397154513345, -0.2056811276943388, 0.3586594054698491, 0.07871751078352293, 0.482318786619237], [0.275941634458672, 0.43392398898967566, 0.36983720278772936, -0.2645972941575453, 0.5438128483251068, 0.016687181652072256, 0.09583527095251333, -0.19308329753189304, -0.6510182456689614, 1.279660291756443, 0.32148087903387523, 0.010094404794566384, -0.43998650694446645, 0.7750968518855225, -0.24478427596371738, -0.748544273434059, -0.774308913886292, 0.25235969320369595, -0.8267514103111266, -0.3191527916259019, -0.7445617436648325, 0.519869943687482, 0.07293465941839807, 0.1629315201458994, 0.03632883706488414, 0.1847953951978978, -0.2448516478122289, -0.4197959487743634, 0.6191600902907517, 0.45250674419727305, 0.08788916457612846, 0.17345893736414006, 0.2703965776655782], [0.2453932401570832, 0.2103686727037447, -0.5720574626063689, -0.06304404298290521, 0.19717664573185942, -0.08034671070537912, -1.3287849901611797, 0.23230730564476593, -0.7186027788170753, 1.454222191308183, -0.5215888271721084, -1.0729539038778444, -0.008859189255681185, 0.8322028914328876, 0.2960694255641011, -0.5621476887012108, -0.1541630553080976, 0.8028949852320325, -0.684666366023198, -0.28655868607320417, -0.0667428601995024, -0.05091715749310656, 0.5116095768932115, 0.7505715571837673, -0.07587633636280479, -0.05876816653584842, -0.28494834373517375, -1.0910563137518452, 0.6670723719200763, -0.25882558422343427, -0.01359391648459383, -0.043325302125880094, 0.26699102828422144], [0.4110550684378291, 0.23768004581641744, 0.18043209467562205, -0.13603080086237826, 0.9629620899109922, 0.2194239135236596, -0.8490510464134591, 0.44730696786329166, -0.667892208232191, 0.6946164850373066, -0.4612432634750177, -0.5991867702812053, -0.5963370988145281, 0.2136751836616614, 0.30346678888575634, -0.578557936424517, 0.4469661499353856, 0.3487735505828813, -0.0867887288582815, -0.8792031277222165, -0.6114310191633164, -0.3519585373399636, -0.20303181446974214, 0.32688467637781915, 0.4065002762491045, 0.2954012090448278, -0.6128273582752407, -0.6229314952893633, 0.6330552413692795, 0.6340456740721861, -0.8854848820233711, 0.17396515907458027, 0.05780370616828604], [0.1259535081523715, 0.6814003836942469, 0.7375812603381386, -0.3031882900078267, -0.5410352677254525, -0.5613564870969505, -0.24950130639491738, -0.031722237974761376, -0.6844892094663576, 0.0965098219680936, 0.06676486879514096, 0.04324090641085054, -0.4226121966411397, 0.3581218046357377, 0.1441810791835524, -0.18745780450002347, -0.0824306118834207, 0.3670310732141098, 0.18461033330936716, -0.09692671184630773, 0.2005420695059603, -0.33258149496900596, -0.1392473398388379, 0.3152026720993024, -0.35319166044833455, 0.268995605192934, -0.2023600278573215, -0.2694092555364676, 0.2957789312700463, 0.5852399342587845, 0.12151551272833572, -0.1607282044159787, -0.31091416221361323], [-0.01927294136391931, -0.668127842401711, 0.6428309528669727, 0.1918111959843547, 0.1864247765155636, 0.3670896288256846, 0.05723546562942619, 0.03745800538038896, 0.5769135811526552, 0.11995089859305627, -0.20507616635517475, 0.11459930501432575, -0.343338963792296, 0.005220019721332475, -0.4920236463446019, 0.03889105764570403, 0.3634396943573948, -0.0996063880261793, -0.13043218650120733, -0.5365511032364373, -0.13670407641359741, 0.35294489433604115, -0.4906864842714436, -0.18044999648165536, 0.5556660658407627, 0.28522467909414534, -0.26295639650530095, -0.14432262891440312, 0.07974180151544599, -0.07620967577714795, -0.5579293867241398, -0.056506082734987084, 0.20759413841296193]], "outputs": [[0.190898491603285, 0.09397061174813262, 0.9198425349329143, 0.7680645075187551, 0.006232404033137125, 0.20428765794706538, 0.3104763016840296, 0.5225373280586263, 0.860215391138543, 0.09973622148738671, 0.9212686246521602, 0.5318002135298558, 0.7952205920455564, 0.2689727847081185, 0.9589709400609197, 0.7563326901405026, 0.33198838330322683, 0.368519646048802, 0.7921463683025289, 0.4801515426226085, 0.9987131374726773, 0.03786888514285073, 0.5778502756390945, 0.026088732677259394, 0.32304552513022405, 0.48663286562894575, 0.8836810833266856, 0.9468413742283112, 0.19366416693639785, 0.8311834183757162, 0.03029002046325418, 0.20616972731183902, 0.11212273758910063]], "delta": [[3.4001697674543673e-06, 1.3083597530398308e-05, -1.2993417307675816e-05, -3.643504080944753e-05, 9.771271987241008e-07, -2.196187575355719e-05, -1.515589494602473e-05, -5.643852586044233e-05, -1.1484396177057403e-05, 1.8853446299942567e-05, 4.857600927906559e-06, 1.1813486831306611e-05, 3.64375992480799e-06, -1.8546725754015856e-05, -1.223329230924592e-07, -1.0253582644868973e-05, -3.130560218926945e-05, 1.5849515267619923e-06, -1.984161249198461e-05, -2.9073842366520632e-06, 2.151509824262907e-08, -3.309803374995555e-06, 8.211457466204621e-05, -5.226739124324192e-07, -1.9245914896690566e-06, -1.2321188188497268e-06, 2.527049195734578e-06, 1.8867345674249738e-06, 2.277657721803737e-05, 1.2860005980482423e-05, 1.0231415139308184e-06, -4.552206310590979e-06, -4.470299140796645e-06]], "gradient": [[0.0, 0.0, 0.0, 0.0, 0.0, 0.0, 0.0, 0.0, 0.0, 0.0, 0.0, 0.0, 0.0, 0.0, 0.0, 0.0, 0.0, 0.0, 0.0, 0.0, 0.0, 0.0, 0.0, 0.0, 0.0, 0.0, 0.0, 0.0, 0.0, 0.0, 0.0, 0.0, 0.0], [0.0, 0.0, 0.0, 0.0, 0.0, 0.0, 0.0, 0.0, 0.0, 0.0, 0.0, 0.0, 0.0, 0.0, 0.0, 0.0, 0.0, 0.0, 0.0, 0.0, 0.0, 0.0, 0.0, 0.0, 0.0, 0.0, 0.0, 0.0, 0.0, 0.0, 0.0, 0.0, 0.0], [8.500424418635918e-07, 3.270899382599577e-06, -3.248354326918954e-06, -9.108760202361882e-06, 2.442817996810252e-07, -5.490468938389297e-06, -3.7889737365061823e-06, -1.4109631465110583e-05, -2.8710990442643508e-06, 4.713361574985642e-06, 1.2144002319766399e-06, 2.953371707826653e-06, 9.109399812019975e-07, -4.636681438503964e-06, -3.05832307731148e-08, -2.5633956612172433e-06, -7.826400547317363e-06, 3.962378816904981e-07, -4.960403122996152e-06, -7.268460591630158e-07, 5.3787745606572675e-09, -8.274508437488887e-07, 2.0528643665511553e-05, -1.306684781081048e-07, -4.811478724172642e-07, -3.080297047124317e-07, 6.317622989336445e-07, 4.7168364185624345e-07, 5.694144304509342e-06, 3.215001495120606e-06, 2.557853784827046e-07, -1.1380515776477447e-06, -1.1175747851991612e-06], [2.7626379360566733e-06, 1.0630422993448626e-05, -1.05571515624866e-05, -2.9603470657676116e-05, 7.93915848963332e-07, -1.7844024049765215e-05, -1.2314164643645093e-05, -4.5856302261609394e-05, -9.33107189385914e-06, 1.5318425118703337e-05, 3.94680075392408e-06, 9.598458050436622e-06, 2.9605549389064916e-06, -1.5069214675137883e-05, -9.93955000126231e-08, -8.331035898956041e-06, -2.543580177878143e-05, 1.2877731154941188e-06, -1.6121310149737493e-05, -2.3622496922798015e-06, 1.7481017322136118e-08, -2.6892152421838884e-06, 6.671809191291255e-05, -4.2467255385134064e-07, -1.5637305853561086e-06, -1.001096540315403e-06, 2.0532274715343443e-06, 1.5329718360327913e-06, 1.8505968989655363e-05, 1.0448754859141969e-05, 8.3130248006879e-07, -3.69866762735517e-06, -3.6321180518972737e-06], [2.9751485465225713e-06, 1.1448147839098519e-05, -1.1369240144216338e-05, -3.188066070826659e-05, 8.549862988835883e-07, -1.921664128436254e-05, -1.3261408077771638e-05, -4.938371012788704e-05, -1.0048846654925228e-05, 1.6496765512449744e-05, 4.250400811918239e-06, 1.0336800977393285e-05, 3.1882899342069913e-06, -1.6228385034763873e-05, -1.070413077059018e-07, -8.971884814260352e-06, -2.739240191561077e-05, 1.3868325859167433e-06, -1.7361410930486533e-05, -2.5439612070705554e-06, 1.8825710962300436e-08, -2.8960779531211105e-06, 7.185025282929043e-05, -4.5733967337836683e-07, -1.6840175534604246e-06, -1.078103966493511e-06, 2.2111680462677556e-06, 1.650892746496852e-06, 1.9929505065782696e-05, 1.125250523292212e-05, 8.952488246894661e-07, -3.983180521767106e-06, -3.911511748197064e-06], [3.4001697674543673e-06, 1.3083597530398308e-05, -1.2993417307675816e-05, -3.643504080944753e-05, 9.771271987241008e-07, -2.196187575355719e-05, -1.515589494602473e-05, -5.643852586044233e-05, -1.1484396177057403e-05, 1.8853446299942567e-05, 4.857600927906559e-06, 1.1813486831306611e-05, 3.64375992480799e-06, -1.8546725754015856e-05, -1.223329230924592e-07, -1.0253582644868973e-05, -3.130560218926945e-05, 1.5849515267619923e-06, -1.984161249198461e-05, -2.9073842366520632e-06, 2.151509824262907e-08, -3.309803374995555e-06, 8.211457466204621e-05, -5.226739124324192e-07, -1.9245914896690566e-06, -1.2321188188497268e-06, 2.527049195734578e-06, 1.8867345674249738e-06, 2.277657721803737e-05, 1.2860005980482423e-05, 1.0231415139308184e-06, -4.552206310590979e-06, -4.470299140796645e-06], [6.375318313976938e-07, 2.4531745369496828e-06, -2.4362657451892153e-06, -6.831570151771411e-06, 1.8321134976076892e-07, -4.117851703791973e-06, -2.8417303023796366e-06, -1.0582223598832937e-05, -2.153324283198263e-06, 3.5350211812392314e-06, 9.108001739824799e-07, 2.21502878086999e-06, 6.832049859014981e-07, -3.4775110788779733e-06, -2.29374230798361e-08, -1.9225467459129324e-06, -5.869800410488022e-06, 2.9717841126787356e-07, -3.7203023422471142e-06, -5.451345443722619e-07, 4.034080920492951e-09, -6.205881328116665e-07, 1.5396482749133663e-05, -9.800135858107861e-08, -3.6086090431294814e-07, -2.3102227853432378e-07, 4.7382172420023335e-07, 3.537627313921826e-07, 4.270608228382007e-06, 2.4112511213404544e-06, 1.9183903386202844e-07, -8.535386832358085e-07, -8.381810888993709e-07], [0.0, 0.0, 0.0, 0.0, 0.0, 0.0, 0.0, 0.0, 0.0, 0.0, 0.0, 0.0, 0.0, 0.0, 0.0, 0.0, 0.0, 0.0, 0.0, 0.0, 0.0, 0.0, 0.0, 0.0, 0.0, 0.0, 0.0, 0.0, 0.0, 0.0, 0.0, 0.0, 0.0], [0.0, 0.0, 0.0, 0.0, 0.0, 0.0, 0.0, 0.0, 0.0, 0.0, 0.0, 0.0, 0.0, 0.0, 0.0, 0.0, 0.0, 0.0, 0.0, 0.0, 0.0, 0.0, 0.0, 0.0, 0.0, 0.0, 0.0, 0.0, 0.0, 0.0, 0.0, 0.0, 0.0], [0.0, 0.0, 0.0, 0.0, 0.0, 0.0, 0.0, 0.0, 0.0, 0.0, 0.0, 0.0, 0.0, 0.0, 0.0, 0.0, 0.0, 0.0, 0.0, 0.0, 0.0, 0.0, 0.0, 0.0, 0.0, 0.0, 0.0, 0.0, 0.0, 0.0, 0.0, 0.0, 0.0], [1.2750636627953876e-06, 4.9063490738993656e-06, -4.872531490378431e-06, -1.3663140303542823e-05, 3.6642269952153784e-07, -8.235703407583946e-06, -5.683460604759273e-06, -2.1164447197665874e-05, -4.306648566396526e-06, 7.070042362478463e-06, 1.8216003479649598e-06, 4.43005756173998e-06, 1.3664099718029961e-06, -6.9550221577559465e-06, -4.58748461596722e-08, -3.845093491825865e-06, -1.1739600820976044e-05, 5.943568225357471e-07, -7.4406046844942285e-06, -1.0902690887445238e-06, 8.068161840985901e-09, -1.241176265623333e-06, 3.079296549826733e-05, -1.9600271716215722e-07, -7.217218086258963e-07, -4.6204455706864756e-07, 9.476434484004667e-07, 7.075254627843651e-07, 8.541216456764014e-06, 4.822502242680909e-06, 3.836780677240569e-07, -1.707077366471617e-06, -1.6763621777987418e-06], [2.3376167151248777e-06, 8.994973302148837e-06, -8.932974399027123e-06, -2.5049090556495178e-05, 6.717749491228193e-07, -1.5098789580570567e-05, -1.0419677775392002e-05, -3.88014865290541e-05, -7.895522371726964e-06, 1.2961744331210515e-05, 3.3396006379357595e-06, 8.121772196523295e-06, 2.505084948305493e-06, -1.2750873955885901e-05, -8.41038846260657e-08, -7.049338068347419e-06, -2.1522601505122747e-05, 1.0896541746488697e-06, -1.3641108588239419e-05, -1.9988266626982933e-06, 1.4791630041807485e-08, -2.275489820309444e-06, 5.645377008015677e-05, -3.593383147972882e-07, -1.3231566491474763e-06, -8.470816879591872e-07, 1.7373463220675223e-06, 1.2971300151046695e-06, 1.565889683740069e-05, 8.841254111581666e-06, 7.034097908274376e-07, -3.129641838531298e-06, -3.0733306592976933e-06], [2.1251061046589797e-06, 8.177248456498942e-06, -8.120885817297384e-06, -2.2771900505904707e-05, 6.10704499202563e-07, -1.3726172345973242e-05, -9.472434341265455e-06, -3.5274078662776455e-05, -7.177747610660877e-06, 1.1783403937464104e-05, 3.0360005799416e-06, 7.383429269566632e-06, 2.2773499530049937e-06, -1.159170359625991e-05, -7.6458076932787e-08, -6.4084891530431085e-06, -1.9566001368293407e-05, 9.905947042262452e-07, -1.240100780749038e-05, -1.8171151479075394e-06, 1.3446936401643169e-08, -2.068627109372222e-06, 5.132160916377889e-05, -3.26671195270262e-07, -1.2028696810431603e-06, -7.700742617810793e-07, 1.5794057473341112e-06, 1.1792091046406085e-06, 1.4235360761273355e-05, 8.037503737801515e-06, 6.394634462067615e-07, -2.845128944119362e-06, -2.7939369629979027e-06], [3.4001697674543673e-06, 1.3083597530398308e-05, -1.2993417307675816e-05, -3.643504080944753e-05, 9.771271987241008e-07, -2.196187575355719e-05, -1.515589494602473e-05, -5.643852586044233e-05, -1.1484396177057403e-05, 1.8853446299942567e-05, 4.857600927906559e-06, 1.1813486831306611e-05, 3.64375992480799e-06, -1.8546725754015856e-05, -1.223329230924592e-07, -1.0253582644868973e-05, -3.130560218926945e-05, 1.5849515267619923e-06, -1.984161249198461e-05, -2.9073842366520632e-06, 2.151509824262907e-08, -3.309803374995555e-06, 8.211457466204621e-05, -5.226739124324192e-07, -1.9245914896690566e-06, -1.2321188188497268e-06, 2.527049195734578e-06, 1.8867345674249738e-06, 2.277657721803737e-05, 1.2860005980482423e-05, 1.0231415139308184e-06, -4.552206310590979e-06, -4.470299140796645e-06], [2.1251061046589796e-07, 8.177248456498942e-07, -8.120885817297385e-07, -2.2771900505904706e-06, 6.10704499202563e-08, -1.3726172345973243e-06, -9.472434341265456e-07, -3.527407866277646e-06, -7.177747610660877e-07, 1.1783403937464104e-06, 3.0360005799415996e-07, 7.383429269566632e-07, 2.2773499530049937e-07, -1.159170359625991e-06, -7.6458076932787e-09, -6.408489153043108e-07, -1.9566001368293407e-06, 9.905947042262452e-08, -1.240100780749038e-06, -1.8171151479075395e-07, 1.3446936401643169e-09, -2.0686271093722218e-07, 5.132160916377888e-06, -3.26671195270262e-08, -1.2028696810431604e-07, -7.700742617810793e-08, 1.5794057473341112e-07, 1.1792091046406086e-07, 1.4235360761273355e-06, 8.037503737801514e-07, 6.394634462067615e-08, -2.8451289441193617e-07, -2.793936962997903e-07], [0.0, 0.0, 0.0, 0.0, 0.0, 0.0, 0.0, 0.0, 0.0, 0.0, 0.0, 0.0, 0.0, 0.0, 0.0, 0.0, 0.0, 0.0, 0.0, 0.0, 0.0, 0.0, 0.0, 0.0, 0.0, 0.0, 0.0, 0.0, 0.0, 0.0, 0.0, 0.0, 0.0], [0.0, 0.0, 0.0, 0.0, 0.0, 0.0, 0.0, 0.0, 0.0, 0.0, 0.0, 0.0, 0.0, 0.0, 0.0, 0.0, 0.0, 0.0, 0.0, 0.0, 0.0, 0.0, 0.0, 0.0, 0.0, 0.0, 0.0, 0.0, 0.0, 0.0, 0.0, 0.0, 0.0], [0.0, 0.0, 0.0, 0.0, 0.0, 0.0, 0.0, 0.0, 0.0, 0.0, 0.0, 0.0, 0.0, 0.0, 0.0, 0.0, 0.0, 0.0, 0.0, 0.0, 0.0, 0.0, 0.0, 0.0, 0.0, 0.0, 0.0, 0.0, 0.0, 0.0, 0.0, 0.0, 0.0], [0.0, 0.0, 0.0, 0.0, 0.0, 0.0, 0.0, 0.0, 0.0, 0.0, 0.0, 0.0, 0.0, 0.0, 0.0, 0.0, 0.0, 0.0, 0.0, 0.0, 0.0, 0.0, 0.0, 0.0, 0.0, 0.0, 0.0, 0.0, 0.0, 0.0, 0.0, 0.0, 0.0], [0.0, 0.0, 0.0, 0.0, 0.0, 0.0, 0.0, 0.0, 0.0, 0.0, 0.0, 0.0, 0.0, 0.0, 0.0, 0.0, 0.0, 0.0, 0.0, 0.0, 0.0, 0.0, 0.0, 0.0, 0.0, 0.0, 0.0, 0.0, 0.0, 0.0, 0.0, 0.0, 0.0], [1.4875742732612856e-06, 5.724073919549259e-06, -5.684620072108169e-06, -1.5940330354133294e-05, 4.2749314944179413e-07, -9.60832064218127e-06, -6.630704038885819e-06, -2.469185506394352e-05, -5.024423327462614e-06, 8.248382756224872e-06, 2.1252004059591196e-06, 5.168400488696643e-06, 1.5941449671034956e-06, -8.114192517381936e-06, -5.35206538529509e-08, -4.485942407130176e-06, -1.3696200957805385e-05, 6.934162929583716e-07, -8.680705465243267e-06, -1.2719806035352777e-06, 9.412855481150218e-09, -1.4480389765605553e-06, 3.592512641464522e-05, -2.2866983668918342e-07, -8.420087767302123e-07, -5.390519832467555e-07, 1.1055840231338778e-06, 8.25446373248426e-07, 9.964752532891348e-06, 5.62625261646106e-06, 4.4762441234473304e-07, -1.991590260883553e-06, -1.955755874098532e-06], [2.9751485465225713e-06, 1.1448147839098519e-05, -1.1369240144216338e-05, -3.188066070826659e-05, 8.549862988835883e-07, -1.921664128436254e-05, -1.3261408077771638e-05, -4.938371012788704e-05, -1.0048846654925228e-05, 1.6496765512449744e-05, 4.250400811918239e-06, 1.0336800977393285e-05, 3.1882899342069913e-06, -1.6228385034763873e-05, -1.070413077059018e-07, -8.971884814260352e-06, -2.739240191561077e-05, 1.3868325859167433e-06, -1.7361410930486533e-05, -2.5439612070705554e-06, 1.8825710962300436e-08, -2.8960779531211105e-06, 7.185025282929043e-05, -4.5733967337836683e-07, -1.6840175534604246e-06, -1.078103966493511e-06, 2.2111680462677556e-06, 1.650892746496852e-06, 1.9929505065782696e-05, 1.125250523292212e-05, 8.952488246894661e-07, -3.983180521767106e-06, -3.911511748197064e-06], [0.0, 0.0, 0.0, 0.0, 0.0, 0.0, 0.0, 0.0, 0.0, 0.0, 0.0, 0.0, 0.0, 0.0, 0.0, 0.0, 0.0, 0.0, 0.0, 0.0, 0.0, 0.0, 0.0, 0.0, 0.0, 0.0, 0.0, 0.0, 0.0, 0.0, 0.0, 0.0, 0.0], [0.0, 0.0, 0.0, 0.0, 0.0, 0.0, 0.0, 0.0, 0.0, 0.0, 0.0, 0.0, 0.0, 0.0, 0.0, 0.0, 0.0, 0.0, 0.0, 0.0, 0.0, 0.0, 0.0, 0.0, 0.0, 0.0, 0.0, 0.0, 0.0, 0.0, 0.0, 0.0, 0.0], [0.0, 0.0, 0.0, 0.0, 0.0, 0.0, 0.0, 0.0, 0.0, 0.0, 0.0, 0.0, 0.0, 0.0, 0.0, 0.0, 0.0, 0.0, 0.0, 0.0, 0.0, 0.0, 0.0, 0.0, 0.0, 0.0, 0.0, 0.0, 0.0, 0.0, 0.0, 0.0, 0.0], [0.0, 0.0, 0.0, 0.0, 0.0, 0.0, 0.0, 0.0, 0.0, 0.0, 0.0, 0.0, 0.0, 0.0, 0.0, 0.0, 0.0, 0.0, 0.0, 0.0, 0.0, 0.0, 0.0, 0.0, 0.0, 0.0, 0.0, 0.0, 0.0, 0.0, 0.0, 0.0, 0.0], [1.9125954941930817e-06, 7.359523610849048e-06, -7.308797235567646e-06, -2.0494710455314236e-05, 5.496340492823067e-07, -1.2353555111375918e-05, -8.52519090713891e-06, -3.174667079649881e-05, -6.459972849594789e-06, 1.0605063543717694e-05, 2.7324005219474398e-06, 6.645086342609969e-06, 2.0496149577044944e-06, -1.043253323663392e-05, -6.88122692395083e-08, -5.767640237738797e-06, -1.7609401231464066e-05, 8.915352338036207e-07, -1.1160907026741343e-05, -1.6354036331167855e-06, 1.2102242761478852e-08, -1.8617643984349996e-06, 4.6189448247401e-05, -2.940040757432358e-07, -1.0825827129388443e-06, -6.930668356029714e-07, 1.4214651726007e-06, 1.0612881941765478e-06, 1.281182468514602e-05, 7.233753364021363e-06, 5.755171015860853e-07, -2.5606160497074256e-06, -2.5145432666981125e-06], [3.4001697674543673e-06, 1.3083597530398308e-05, -1.2993417307675816e-05, -3.643504080944753e-05, 9.771271987241008e-07, -2.196187575355719e-05, -1.515589494602473e-05, -5.643852586044233e-05, -1.1484396177057403e-05, 1.8853446299942567e-05, 4.857600927906559e-06, 1.1813486831306611e-05, 3.64375992480799e-06, -1.8546725754015856e-05, -1.223329230924592e-07, -1.0253582644868973e-05, -3.130560218926945e-05, 1.5849515267619923e-06, -1.984161249198461e-05, -2.9073842366520632e-06, 2.151509824262907e-08, -3.309803374995555e-06, 8.211457466204621e-05, -5.226739124324192e-07, -1.9245914896690566e-06, -1.2321188188497268e-06, 2.527049195734578e-06, 1.8867345674249738e-06, 2.277657721803737e-05, 1.2860005980482423e-05, 1.0231415139308184e-06, -4.552206310590979e-06, -4.470299140796645e-06], [3.4001697674543673e-06, 1.3083597530398308e-05, -1.2993417307675816e-05, -3.643504080944753e-05, 9.771271987241008e-07, -2.196187575355719e-05, -1.515589494602473e-05, -5.643852586044233e-05, -1.1484396177057403e-05, 1.8853446299942567e-05, 4.857600927906559e-06, 1.1813486831306611e-05, 3.64375992480799e-06, -1.8546725754015856e-05, -1.223329230924592e-07, -1.0253582644868973e-05, -3.130560218926945e-05, 1.5849515267619923e-06, -1.984161249198461e-05, -2.9073842366520632e-06, 2.151509824262907e-08, -3.309803374995555e-06, 8.211457466204621e-05, -5.226739124324192e-07, -1.9245914896690566e-06, -1.2321188188497268e-06, 2.527049195734578e-06, 1.8867345674249738e-06, 2.277657721803737e-05, 1.2860005980482423e-05, 1.0231415139308184e-06, -4.552206310590979e-06, -4.470299140796645e-06], [3.4001697674543673e-06, 1.3083597530398308e-05, -1.2993417307675816e-05, -3.643504080944753e-05, 9.771271987241008e-07, -2.196187575355719e-05, -1.515589494602473e-05, -5.643852586044233e-05, -1.1484396177057403e-05, 1.8853446299942567e-05, 4.857600927906559e-06, 1.1813486831306611e-05, 3.64375992480799e-06, -1.8546725754015856e-05, -1.223329230924592e-07, -1.0253582644868973e-05, -3.130560218926945e-05, 1.5849515267619923e-06, -1.984161249198461e-05, -2.9073842366520632e-06, 2.151509824262907e-08, -3.309803374995555e-06, 8.211457466204621e-05, -5.226739124324192e-07, -1.9245914896690566e-06, -1.2321188188497268e-06, 2.527049195734578e-06, 1.8867345674249738e-06, 2.277657721803737e-05, 1.2860005980482423e-05, 1.0231415139308184e-06, -4.552206310590979e-06, -4.470299140796645e-06], [2.5501273255907753e-06, 9.812698147798731e-06, -9.745062980756861e-06, -2.7326280607085645e-05, 7.328453990430757e-07, -1.6471406815167892e-05, -1.1366921209518547e-05, -4.232889439533175e-05, -8.613297132793053e-06, 1.4140084724956926e-05, 3.6432006959299196e-06, 8.86011512347996e-06, 2.7328199436059923e-06, -1.3910044315511893e-05, -9.17496923193444e-08, -7.69018698365173e-06, -2.3479201641952088e-05, 1.1887136450714942e-06, -1.4881209368988457e-05, -2.1805381774890476e-06, 1.6136323681971802e-08, -2.482352531246666e-06, 6.158593099653465e-05, -3.9200543432431444e-07, -1.4434436172517926e-06, -9.240891141372951e-07, 1.8952868968009334e-06, 1.4150509255687303e-06, 1.7082432913528027e-05, 9.645004485361818e-06, 7.673561354481137e-07, -3.414154732943234e-06, -3.3527243555974835e-06], [0.0, 0.0, 0.0, 0.0, 0.0, 0.0, 0.0, 0.0, 0.0, 0.0, 0.0, 0.0, 0.0, 0.0, 0.0, 0.0, 0.0, 0.0, 0.0, 0.0, 0.0, 0.0, 0.0, 0.0, 0.0, 0.0, 0.0, 0.0, 0.0, 0.0, 0.0, 0.0, 0.0], [0.0, 0.0, 0.0, 0.0, 0.0, 0.0, 0.0, 0.0, 0.0, 0.0, 0.0, 0.0, 0.0, 0.0, 0.0, 0.0, 0.0, 0.0, 0.0, 0.0, 0.0, 0.0, 0.0, 0.0, 0.0, 0.0, 0.0, 0.0, 0.0, 0.0, 0.0, 0.0, 0.0], [0.0, 0.0, 0.0, 0.0, 0.0, 0.0, 0.0, 0.0, 0.0, 0.0, 0.0, 0.0, 0.0, 0.0, 0.0, 0.0, 0.0, 0.0, 0.0, 0.0, 0.0, 0.0, 0.0, 0.0, 0.0, 0.0, 0.0, 0.0, 0.0, 0.0, 0.0, 0.0, 0.0], [3.1876591569884693e-06, 1.2265872684748413e-05, -1.2181328725946077e-05, -3.415785075885706e-05, 9.160567488038446e-07, -2.0589258518959863e-05, -1.4208651511898184e-05, -5.2911117994164687e-05, -1.0766621415991315e-05, 1.7675105906196155e-05, 4.5540008699124e-06, 1.1075143904349948e-05, 3.4160249295074906e-06, -1.7387555394389866e-05, -1.1468711539918051e-07, -9.612733729564662e-06, -2.934900205244011e-05, 1.4858920563393678e-06, -1.8601511711235573e-05, -2.7256727218613093e-06, 2.0170404602464755e-08, -3.1029406640583327e-06, 7.698241374566833e-05, -4.90006792905393e-07, -1.8043045215647406e-06, -1.155111392671619e-06, 2.369108621001167e-06, 1.768813656960913e-06, 2.1353041141910032e-05, 1.2056255606702272e-05, 9.591951693101422e-07, -4.267693416179043e-06, -4.190905444496854e-06], [2.7626379360566733e-06, 1.0630422993448626e-05, -1.05571515624866e-05, -2.9603470657676116e-05, 7.93915848963332e-07, -1.7844024049765215e-05, -1.2314164643645093e-05, -4.5856302261609394e-05, -9.33107189385914e-06, 1.5318425118703337e-05, 3.94680075392408e-06, 9.598458050436622e-06, 2.9605549389064916e-06, -1.5069214675137883e-05, -9.93955000126231e-08, -8.331035898956041e-06, -2.543580177878143e-05, 1.2877731154941188e-06, -1.6121310149737493e-05, -2.3622496922798015e-06, 1.7481017322136118e-08, -2.6892152421838884e-06, 6.671809191291255e-05, -4.2467255385134064e-07, -1.5637305853561086e-06, -1.001096540315403e-06, 2.0532274715343443e-06, 1.5329718360327913e-06, 1.8505968989655363e-05, 1.0448754859141969e-05, 8.3130248006879e-07, -3.69866762735517e-06, -3.6321180518972737e-06], [3.4001697674543673e-06, 1.3083597530398308e-05, -1.2993417307675816e-05, -3.643504080944753e-05, 9.771271987241008e-07, -2.196187575355719e-05, -1.515589494602473e-05, -5.643852586044233e-05, -1.1484396177057403e-05, 1.8853446299942567e-05, 4.857600927906559e-06, 1.1813486831306611e-05, 3.64375992480799e-06, -1.8546725754015856e-05, -1.223329230924592e-07, -1.0253582644868973e-05, -3.130560218926945e-05, 1.5849515267619923e-06, -1.984161249198461e-05, -2.9073842366520632e-06, 2.151509824262907e-08, -3.309803374995555e-06, 8.211457466204621e-05, -5.226739124324192e-07, -1.9245914896690566e-06, -1.2321188188497268e-06, 2.527049195734578e-06, 1.8867345674249738e-06, 2.277657721803737e-05, 1.2860005980482423e-05, 1.0231415139308184e-06, -4.552206310590979e-06, -4.470299140796645e-06], [1.4875742732612856e-06, 5.724073919549259e-06, -5.684620072108169e-06, -1.5940330354133294e-05, 4.2749314944179413e-07, -9.60832064218127e-06, -6.630704038885819e-06, -2.469185506394352e-05, -5.024423327462614e-06, 8.248382756224872e-06, 2.1252004059591196e-06, 5.168400488696643e-06, 1.5941449671034956e-06, -8.114192517381936e-06, -5.35206538529509e-08, -4.485942407130176e-06, -1.3696200957805385e-05, 6.934162929583716e-07, -8.680705465243267e-06, -1.2719806035352777e-06, 9.412855481150218e-09, -1.4480389765605553e-06, 3.592512641464522e-05, -2.2866983668918342e-07, -8.420087767302123e-07, -5.390519832467555e-07, 1.1055840231338778e-06, 8.25446373248426e-07, 9.964752532891348e-06, 5.62625261646106e-06, 4.4762441234473304e-07, -1.991590260883553e-06, -1.955755874098532e-06], [4.250212209317959e-07, 1.6354496912997885e-06, -1.624177163459477e-06, -4.554380101180941e-06, 1.221408998405126e-07, -2.7452344691946486e-06, -1.8944868682530912e-06, -7.054815732555292e-06, -1.4355495221321754e-06, 2.356680787492821e-06, 6.072001159883199e-07, 1.4766858539133264e-06, 4.5546999060099873e-07, -2.318340719251982e-06, -1.52916153865574e-08, -1.2816978306086217e-06, -3.913200273658681e-06, 1.9811894084524904e-07, -2.480201561498076e-06, -3.634230295815079e-07, 2.6893872803286337e-09, -4.1372542187444436e-07, 1.0264321832755777e-05, -6.53342390540524e-08, -2.405739362086321e-07, -1.5401485235621585e-07, 3.1588114946682223e-07, 2.3584182092812172e-07, 2.847072152254671e-06, 1.607500747560303e-06, 1.278926892413523e-07, -5.690257888238723e-07, -5.587873925995806e-07], [0.0, 0.0, 0.0, 0.0, 0.0, 0.0, 0.0, 0.0, 0.0, 0.0, 0.0, 0.0, 0.0, 0.0, 0.0, 0.0, 0.0, 0.0, 0.0, 0.0, 0.0, 0.0, 0.0, 0.0, 0.0, 0.0, 0.0, 0.0, 0.0, 0.0, 0.0, 0.0, 0.0], [0.0, 0.0, 0.0, 0.0, 0.0, 0.0, 0.0, 0.0, 0.0, 0.0, 0.0, 0.0, 0.0, 0.0, 0.0, 0.0, 0.0, 0.0, 0.0, 0.0, 0.0, 0.0, 0.0, 0.0, 0.0, 0.0, 0.0, 0.0, 0.0, 0.0, 0.0, 0.0, 0.0], [0.0, 0.0, 0.0, 0.0, 0.0, 0.0, 0.0, 0.0, 0.0, 0.0, 0.0, 0.0, 0.0, 0.0, 0.0, 0.0, 0.0, 0.0, 0.0, 0.0, 0.0, 0.0, 0.0, 0.0, 0.0, 0.0, 0.0, 0.0, 0.0, 0.0, 0.0, 0.0, 0.0], [0.0, 0.0, 0.0, 0.0, 0.0, 0.0, 0.0, 0.0, 0.0, 0.0, 0.0, 0.0, 0.0, 0.0, 0.0, 0.0, 0.0, 0.0, 0.0, 0.0, 0.0, 0.0, 0.0, 0.0, 0.0, 0.0, 0.0, 0.0, 0.0, 0.0, 0.0, 0.0, 0.0], [1.7000848837271837e-06, 6.541798765199154e-06, -6.496708653837908e-06, -1.8217520404723765e-05, 4.885635993620504e-07, -1.0980937876778594e-05, -7.577947473012365e-06, -2.8219262930221166e-05, -5.7421980885287016e-06, 9.426723149971283e-06, 2.4288004639532797e-06, 5.906743415653306e-06, 1.821879962403995e-06, -9.273362877007928e-06, -6.11664615462296e-08, -5.126791322434487e-06, -1.5652801094634725e-05, 7.924757633809962e-07, -9.920806245992305e-06, -1.4536921183260316e-06, 1.0757549121314535e-08, -1.6549016874977774e-06, 4.105728733102311e-05, -2.613369562162096e-07, -9.622957448345283e-07, -6.160594094248634e-07, 1.263524597867289e-06, 9.433672837124869e-07, 1.1388288609018684e-05, 6.430002990241212e-06, 5.115707569654092e-07, -2.2761031552954894e-06, -2.2351495703983224e-06], [2.5501273255907753e-06, 9.812698147798731e-06, -9.745062980756861e-06, -2.7326280607085645e-05, 7.328453990430757e-07, -1.6471406815167892e-05, -1.1366921209518547e-05, -4.232889439533175e-05, -8.613297132793053e-06, 1.4140084724956926e-05, 3.6432006959299196e-06, 8.86011512347996e-06, 2.7328199436059923e-06, -1.3910044315511893e-05, -9.17496923193444e-08, -7.69018698365173e-06, -2.3479201641952088e-05, 1.1887136450714942e-06, -1.4881209368988457e-05, -2.1805381774890476e-06, 1.6136323681971802e-08, -2.482352531246666e-06, 6.158593099653465e-05, -3.9200543432431444e-07, -1.4434436172517926e-06, -9.240891141372951e-07, 1.8952868968009334e-06, 1.4150509255687303e-06, 1.7082432913528027e-05, 9.645004485361818e-06, 7.673561354481137e-07, -3.414154732943234e-06, -3.3527243555974835e-06], [0.0, 0.0, 0.0, 0.0, 0.0, 0.0, 0.0, 0.0, 0.0, 0.0, 0.0, 0.0, 0.0, 0.0, 0.0, 0.0, 0.0, 0.0, 0.0, 0.0, 0.0, 0.0, 0.0, 0.0, 0.0, 0.0, 0.0, 0.0, 0.0, 0.0, 0.0, 0.0, 0.0], [0.0, 0.0, 0.0, 0.0, 0.0, 0.0, 0.0, 0.0, 0.0, 0.0, 0.0, 0.0, 0.0, 0.0, 0.0, 0.0, 0.0, 0.0, 0.0, 0.0, 0.0, 0.0, 0.0, 0.0, 0.0, 0.0, 0.0, 0.0, 0.0, 0.0, 0.0, 0.0, 0.0], [0.0, 0.0, 0.0, 0.0, 0.0, 0.0, 0.0, 0.0, 0.0, 0.0, 0.0, 0.0, 0.0, 0.0, 0.0, 0.0, 0.0, 0.0, 0.0, 0.0, 0.0, 0.0, 0.0, 0.0, 0.0, 0.0, 0.0, 0.0, 0.0, 0.0, 0.0, 0.0, 0.0], [0.0, 0.0, 0.0, 0.0, 0.0, 0.0, 0.0, 0.0, 0.0, 0.0, 0.0, 0.0, 0.0, 0.0, 0.0, 0.0, 0.0, 0.0, 0.0, 0.0, 0.0, 0.0, 0.0, 0.0, 0.0, 0.0, 0.0, 0.0, 0.0, 0.0, 0.0, 0.0, 0.0], [0.0, 0.0, 0.0, 0.0, 0.0, 0.0, 0.0, 0.0, 0.0, 0.0, 0.0, 0.0, 0.0, 0.0, 0.0, 0.0, 0.0, 0.0, 0.0, 0.0, 0.0, 0.0, 0.0, 0.0, 0.0, 0.0, 0.0, 0.0, 0.0, 0.0, 0.0, 0.0, 0.0], [4.250212209317959e-07, 1.6354496912997885e-06, -1.624177163459477e-06, -4.554380101180941e-06, 1.221408998405126e-07, -2.7452344691946486e-06, -1.8944868682530912e-06, -7.054815732555292e-06, -1.4355495221321754e-06, 2.356680787492821e-06, 6.072001159883199e-07, 1.4766858539133264e-06, 4.5546999060099873e-07, -2.318340719251982e-06, -1.52916153865574e-08, -1.2816978306086217e-06, -3.913200273658681e-06, 1.9811894084524904e-07, -2.480201561498076e-06, -3.634230295815079e-07, 2.6893872803286337e-09, -4.1372542187444436e-07, 1.0264321832755777e-05, -6.53342390540524e-08, -2.405739362086321e-07, -1.5401485235621585e-07, 3.1588114946682223e-07, 2.3584182092812172e-07, 2.847072152254671e-06, 1.607500747560303e-06, 1.278926892413523e-07, -5.690257888238723e-07, -5.587873925995806e-07], [2.9751485465225713e-06, 1.1448147839098519e-05, -1.1369240144216338e-05, -3.188066070826659e-05, 8.549862988835883e-07, -1.921664128436254e-05, -1.3261408077771638e-05, -4.938371012788704e-05, -1.0048846654925228e-05, 1.6496765512449744e-05, 4.250400811918239e-06, 1.0336800977393285e-05, 3.1882899342069913e-06, -1.6228385034763873e-05, -1.070413077059018e-07, -8.971884814260352e-06, -2.739240191561077e-05, 1.3868325859167433e-06, -1.7361410930486533e-05, -2.5439612070705554e-06, 1.8825710962300436e-08, -2.8960779531211105e-06, 7.185025282929043e-05, -4.5733967337836683e-07, -1.6840175534604246e-06, -1.078103966493511e-06, 2.2111680462677556e-06, 1.650892746496852e-06, 1.9929505065782696e-05, 1.125250523292212e-05, 8.952488246894661e-07, -3.983180521767106e-06, -3.911511748197064e-06], [1.2750636627953876e-06, 4.9063490738993656e-06, -4.872531490378431e-06, -1.3663140303542823e-05, 3.6642269952153784e-07, -8.235703407583946e-06, -5.683460604759273e-06, -2.1164447197665874e-05, -4.306648566396526e-06, 7.070042362478463e-06, 1.8216003479649598e-06, 4.43005756173998e-06, 1.3664099718029961e-06, -6.9550221577559465e-06, -4.58748461596722e-08, -3.845093491825865e-06, -1.1739600820976044e-05, 5.943568225357471e-07, -7.4406046844942285e-06, -1.0902690887445238e-06, 8.068161840985901e-09, -1.241176265623333e-06, 3.079296549826733e-05, -1.9600271716215722e-07, -7.217218086258963e-07, -4.6204455706864756e-07, 9.476434484004667e-07, 7.075254627843651e-07, 8.541216456764014e-06, 4.822502242680909e-06, 3.836780677240569e-07, -1.707077366471617e-06, -1.6763621777987418e-06], [0.0, 0.0, 0.0, 0.0, 0.0, 0.0, 0.0, 0.0, 0.0, 0.0, 0.0, 0.0, 0.0, 0.0, 0.0, 0.0, 0.0, 0.0, 0.0, 0.0, 0.0, 0.0, 0.0, 0.0, 0.0, 0.0, 0.0, 0.0, 0.0, 0.0, 0.0, 0.0, 0.0], [0.0, 0.0, 0.0, 0.0, 0.0, 0.0, 0.0, 0.0, 0.0, 0.0, 0.0, 0.0, 0.0, 0.0, 0.0, 0.0, 0.0, 0.0, 0.0, 0.0, 0.0, 0.0, 0.0, 0.0, 0.0, 0.0, 0.0, 0.0, 0.0, 0.0, 0.0, 0.0, 0.0], [0.0, 0.0, 0.0, 0.0, 0.0, 0.0, 0.0, 0.0, 0.0, 0.0, 0.0, 0.0, 0.0, 0.0, 0.0, 0.0, 0.0, 0.0, 0.0, 0.0, 0.0, 0.0, 0.0, 0.0, 0.0, 0.0, 0.0, 0.0, 0.0, 0.0, 0.0, 0.0, 0.0], [0.0, 0.0, 0.0, 0.0, 0.0, 0.0, 0.0, 0.0, 0.0, 0.0, 0.0, 0.0, 0.0, 0.0, 0.0, 0.0, 0.0, 0.0, 0.0, 0.0, 0.0, 0.0, 0.0, 0.0, 0.0, 0.0, 0.0, 0.0, 0.0, 0.0, 0.0, 0.0, 0.0], [0.0, 0.0, 0.0, 0.0, 0.0, 0.0, 0.0, 0.0, 0.0, 0.0, 0.0, 0.0, 0.0, 0.0, 0.0, 0.0, 0.0, 0.0, 0.0, 0.0, 0.0, 0.0, 0.0, 0.0, 0.0, 0.0, 0.0, 0.0, 0.0, 0.0, 0.0, 0.0, 0.0], [1.7000848837271837e-06, 6.541798765199154e-06, -6.496708653837908e-06, -1.8217520404723765e-05, 4.885635993620504e-07, -1.0980937876778594e-05, -7.577947473012365e-06, -2.8219262930221166e-05, -5.7421980885287016e-06, 9.426723149971283e-06, 2.4288004639532797e-06, 5.906743415653306e-06, 1.821879962403995e-06, -9.273362877007928e-06, -6.11664615462296e-08, -5.126791322434487e-06, -1.5652801094634725e-05, 7.924757633809962e-07, -9.920806245992305e-06, -1.4536921183260316e-06, 1.0757549121314535e-08, -1.6549016874977774e-06, 4.105728733102311e-05, -2.613369562162096e-07, -9.622957448345283e-07, -6.160594094248634e-07, 1.263524597867289e-06, 9.433672837124869e-07, 1.1388288609018684e-05, 6.430002990241212e-06, 5.115707569654092e-07, -2.2761031552954894e-06, -2.2351495703983224e-06], [2.7626379360566733e-06, 1.0630422993448626e-05, -1.05571515624866e-05, -2.9603470657676116e-05, 7.93915848963332e-07, -1.7844024049765215e-05, -1.2314164643645093e-05, -4.5856302261609394e-05, -9.33107189385914e-06, 1.5318425118703337e-05, 3.94680075392408e-06, 9.598458050436622e-06, 2.9605549389064916e-06, -1.5069214675137883e-05, -9.93955000126231e-08, -8.331035898956041e-06, -2.543580177878143e-05, 1.2877731154941188e-06, -1.6121310149737493e-05, -2.3622496922798015e-06, 1.7481017322136118e-08, -2.6892152421838884e-06, 6.671809191291255e-05, -4.2467255385134064e-07, -1.5637305853561086e-06, -1.001096540315403e-06, 2.0532274715343443e-06, 1.5329718360327913e-06, 1.8505968989655363e-05, 1.0448754859141969e-05, 8.3130248006879e-07, -3.69866762735517e-06, -3.6321180518972737e-06], [2.1251061046589796e-07, 8.177248456498942e-07, -8.120885817297385e-07, -2.2771900505904706e-06, 6.10704499202563e-08, -1.3726172345973243e-06, -9.472434341265456e-07, -3.527407866277646e-06, -7.177747610660877e-07, 1.1783403937464104e-06, 3.0360005799415996e-07, 7.383429269566632e-07, 2.2773499530049937e-07, -1.159170359625991e-06, -7.6458076932787e-09, -6.408489153043108e-07, -1.9566001368293407e-06, 9.905947042262452e-08, -1.240100780749038e-06, -1.8171151479075395e-07, 1.3446936401643169e-09, -2.0686271093722218e-07, 5.132160916377888e-06, -3.26671195270262e-08, -1.2028696810431604e-07, -7.700742617810793e-08, 1.5794057473341112e-07, 1.1792091046406086e-07, 1.4235360761273355e-06, 8.037503737801514e-07, 6.394634462067615e-08, -2.8451289441193617e-07, -2.793936962997903e-07], [0.0, 0.0, 0.0, 0.0, 0.0, 0.0, 0.0, 0.0, 0.0, 0.0, 0.0, 0.0, 0.0, 0.0, 0.0, 0.0, 0.0, 0.0, 0.0, 0.0, 0.0, 0.0, 0.0, 0.0, 0.0, 0.0, 0.0, 0.0, 0.0, 0.0, 0.0, 0.0, 0.0], [0.0, 0.0, 0.0, 0.0, 0.0, 0.0, 0.0, 0.0, 0.0, 0.0, 0.0, 0.0, 0.0, 0.0, 0.0, 0.0, 0.0, 0.0, 0.0, 0.0, 0.0, 0.0, 0.0, 0.0, 0.0, 0.0, 0.0, 0.0, 0.0, 0.0, 0.0, 0.0, 0.0], [0.0, 0.0, 0.0, 0.0, 0.0, 0.0, 0.0, 0.0, 0.0, 0.0, 0.0, 0.0, 0.0, 0.0, 0.0, 0.0, 0.0, 0.0, 0.0, 0.0, 0.0, 0.0, 0.0, 0.0, 0.0, 0.0, 0.0, 0.0, 0.0, 0.0, 0.0, 0.0, 0.0], [3.4001697674543673e-06, 1.3083597530398308e-05, -1.2993417307675816e-05, -3.643504080944753e-05, 9.771271987241008e-07, -2.196187575355719e-05, -1.515589494602473e-05, -5.643852586044233e-05, -1.1484396177057403e-05, 1.8853446299942567e-05, 4.857600927906559e-06, 1.1813486831306611e-05, 3.64375992480799e-06, -1.8546725754015856e-05, -1.223329230924592e-07, -1.0253582644868973e-05, -3.130560218926945e-05, 1.5849515267619923e-06, -1.984161249198461e-05, -2.9073842366520632e-06, 2.151509824262907e-08, -3.309803374995555e-06, 8.211457466204621e-05, -5.226739124324192e-07, -1.9245914896690566e-06, -1.2321188188497268e-06, 2.527049195734578e-06, 1.8867345674249738e-06, 2.277657721803737e-05, 1.2860005980482423e-05, 1.0231415139308184e-06, -4.552206310590979e-06, -4.470299140796645e-06]]}, {"activ_func_name": "SIGMOID", "is_last": false, "weights": [[1.4219545910019913, 0.09611238486731494, -0.3098769444033378, -1.1050031189939, -0.8466747903667645, 0.18834570630285938, 1.0750975263081939, 0.8976244886007054, 0.0358333115520096, -0.9551996145445893, 0.13714396682028698, -0.8746512387069496, 0.8136481814406662, 0.8506493998802916, -0.33100919559812003, -0.17066459857564872, -0.5408200564232676], [-0.056646185496502854, 1.4667266351824517, 1.3630952103637541, 0.2700741089339858, -0.8569385096996454, -0.9173059812879095, 0.6093028694520963, 0.30095637502319855, 1.1951145122554656, -0.42781566826421663, -0.5487373657343925, -0.19002722898753407, -2.1918626385084368, 1.4751861918332674, -1.698494875857501, 0.12347649628767178, 0.2772695275574702], [0.8596223446929516, -0.6849589881176356, -0.11925799758374456, -0.1621568009021425, 1.042650176169254, -2.9318199851869187, 1.0821346175909743, -0.6685652842822561, -0.05349046909694249, -0.5102343558869252, 1.7839961397382937, -2.6243209947807205, -0.060627594127919224, 3.3462903951286873, -0.8439717186393549, -0.06091963677130794, -1.3272036949555346], [-0.5689942802179656, -0.5933553215704003, -1.7712227061790067, 1.2534109627712844, 0.6874283113645758, 0.13090655144961222, -0.47834539210002325, -0.4977064766184571, -0.48653891042893926, -0.4223497187641562, 0.07509184852260199, -0.6670090792251212, 0.46519532073386105, -1.2653867915021035, 0.6330536516607588, 0.6905380347648981, 0.9832992087217793], [-1.456214419494437, -0.03679198074343076, 1.2987219475512537, -1.2998935880315658, 0.37425016805427963, 1.8062373263105789, -0.03533454253306693, -0.07326176299006643, -0.2567305585038225, 1.263960238143096, 0.011984864100489245, 1.184976236577045, 1.2446529874424004, -0.2524159990336428, -0.9367500052120142, -1.8815140265592, -0.3970218841401296], [-0.30841473944093695, -0.0454616857988858, -1.5807017934205625, 0.43082018072678163, -1.017634851238743, 1.3047254245479323, -1.2602608340856607, -0.8857700910900692, -2.0355935046135882, -0.30797517505442995, 0.29193936546633736, 1.3254651078328086, 2.9807469873356127, -0.8970898337740615, 3.059700519615898, 1.0437144976651886, 0.3583277350802117], [-1.0484110111360228, 1.2767289971783724, 0.8464680847625666, -1.3540307619310339, 1.2501548864387295, -0.7439896067172619, -0.0709737483102945, -1.1771480010659658, 0.34887875572511956, 0.21455982817877564, 1.3944168652079054, -1.9735143298599398, 0.2604509875743703, 1.0380495974694384, -0.10343025634447102, -0.5627428863101576, -1.7364510128381665], [0.2648777988332841, -0.4345699263175872, -2.736679338489149, 2.7127003088514385, -0.3596885133904565, -0.5025752526890741, -0.0039533434052292805, 0.681788175434527, -0.34216027584947384, -1.3135457857081572, -0.9089377352407505, -1.8977209826997388, 0.67340828554959, -0.509443805118719, 0.2717819678770423, 1.0624443830081698, 0.4722163296280487], [-2.004114248653205, 1.0166610394919555, -0.40546932111252854, -0.062309172767066365, 0.9983385934278746, 1.0880119606622316, -1.581935531866147, -1.2550305227997733, 0.26102956998806465, 1.054389651551239, 0.2816710177797502, 0.43131333518555953, -0.2729742368719234, -2.3531788965308915, 0.8793756753957811, -0.42204447165315695, 0.6749318465870632], [1.790791319274814, -1.0403323793734092, 1.4217011700259365, -1.1750455913294604, -1.2665258186020365, -0.07103867820152786, 1.023927628245942, 1.5837436958007618, -1.0714896692864078, 0.7800661019405825, -0.12316512856351416, 0.19312785358912296, 1.8729835862910318, 2.116780643971437, -0.008486286138015341, -0.4130089105271987, -0.615577262283464], [1.4764430452235788, 1.841366345720669, 0.5591306678755827, -0.9145826461375148, -0.5906105922090626, 0.09265677238698886, -0.20086486253409688, 0.6804900461039229, 0.5248247132771545, -0.3302877840512316, -0.012693910533042257, -0.6816043875075437, -0.39996341467287383, -1.025030501815069, 0.5648339710900601, 0.5611580139625835, 0.20194792441623324], [-0.44213381733342855, -0.006147869737731091, 1.8272443368566875, -0.6089886193024032, 1.8648784680535273, -1.0837851921759687, -0.6699188417108882, -0.8410628950971416, 0.7159906348958966, 2.000815368921592, 0.734783388974215, -0.07086176037392126, -2.567561962111976, -0.22290427155113784, -0.3584045859849076, -0.8610868357816062, -0.35854475849331663], [-1.288672107043599, 3.0214394329452667, 0.11478943201693481, 0.1219488686362409, -1.057076601838994, 1.3329799202185744, -0.05756557167211519, 0.20026676876571445, 0.7437891006662877, -2.472434650531145, -0.0557069462278668, -0.9216174618632051, -0.8244123729214881, -2.315143091759576, 0.08756566671360339, 0.7250313797407737, 0.9310630395828389], [1.2183265105890815, -0.9357904855133858, -1.0592586378995024, 1.8691762618053682, 0.8864968966948977, -1.5304537576436688, 0.29522793180789625, 1.2112281144023342, 0.6891136583425322, 0.9172323834049122, -0.8514736560312699, -2.0931585514409976, -1.4713143447131183, -0.42035133821880083, -1.480241370601672, -0.5160092475872251, 0.7133756833712108], [-0.007007975067510407, 1.0972464884968929, -0.6441751996538451, 1.1726020225161413, -0.8159860413257655, 0.26993774760123435, 0.020943849905359625, 0.06167753445769739, 0.32875800081563183, -1.5688488297408762, -1.094450590873033, 0.030313618798694448, -1.0954893177768774, -0.9567028794636134, -0.09596553111051477, 1.4478168800880549, 0.9942174474048272], [-1.4595574955052708, -0.4195562050693471, 0.05301032126530561, 0.2572234192134705, 2.0267448178138068, 0.3715574304394784, -1.4689943061084831, -0.5297377994009145, 0.7339534746383332, 0.612220774260065, 0.07120391672164243, 1.0745650080961882, -1.277809229948393, -1.8141516075196136, 0.5009672122099911, 3.351881857884267e-05, 0.7336501404215013], [-2.1817996505384145, -1.210917912508073, -0.9299712809337819, 0.45258785018247305, 1.118348084151669, 0.3400815892796582, -0.5476848345590485, -1.3971807600835005, -0.11725285716551001, -0.0032079212851134093, 0.4619801408420842, 0.9428092344964779, 0.9342431341870371, 0.3603579595478751, 0.10737459321285478, -0.28902878180058705, -0.149875671592877], [0.572547279154828, 0.4285327389064548, -0.8831303411122458, 1.4309889880037174, -1.0567974515647784, -0.18029545149458684, 0.9976863895006628, 1.2294873752261504, -0.16160580016145756, -0.8865113654234773, -0.9607030846261174, -0.6928968929235129, 0.31723957659850466, 0.10384470344677758, -1.0379352032336875, 0.1745199391523313, 0.12933894363592796], [-1.7594202717687981, 0.6340292181010161, -0.687746687433329, 1.1663159689062068, 1.2908893432070543, -0.6913120377482336, 0.1796333611080732, -0.26394935355227167, 1.4942615210521553, -0.3803111532017214, 0.07581895978918748, -0.9516815758945804, -2.1114650680014284, 0.4850889529204545, -1.4385867584060439, -0.5026266885931643, -0.1828694716979753], [2.364185575741895, -1.0088309293019255, -0.7466550027577208, 2.073574501463646, -0.0660036997022948, -0.7464563926839666, -0.11973611529175286, 1.1592059658025473, -0.16430172749281452, 0.9333939867934649, -1.6114268020325253, -0.9569879093799499, -0.6138197189380268, -0.7390180794628268, 0.41175479873986365, 0.48694400210949745, 1.013388522156404], [1.8487246659859877, 0.4299192113136058, -0.3853494688019954, 1.1491778604160576, -1.9598943649939289, -0.943515375433668, -0.26793887181626874, 0.4980787497309381, 0.21089626537406014, -2.0095999226300867, -0.9132573079190965, -0.1608429922187714, -0.76968857153384, -0.5489224993844776, 1.1215384370595338, 2.4908096625671203, 1.6188471234765547], [-0.6013661688547911, -0.740086614818461, 0.3393369814924878, -0.5265617352172552, 2.776282431114548, 0.11066044125611026, -1.1127974401236242, -0.9933282655081455, -0.1851634566109574, 2.308999197650513, 0.8775025684907601, -0.5586532847987977, -0.0466633570423596, -0.6936893650244321, -0.023545048425641396, -2.0757071870217, -0.7814918395586243], [-1.6631841584061446, 0.766378494436016, 2.870203896863873, -0.9846839127484556, 0.005460185600760474, 1.2496747069368115, 0.12415708686024252, -0.1411305006380604, 0.7964470862347371, 1.459419121948203, -0.6985431595497114, 2.8006186553701937, -1.2376584088682672, 0.06167281281468157, -1.6289651148744424, -1.2412435203043226, -0.6040814123942807], [0.5237375175723483, -1.1361973695462482, -0.9365896743376341, 1.6688081113633986, -0.4588781470366286, -1.0852122127191672, 0.8969080629610252, 1.0335663249948317, 0.39613405014140857, -0.2582484828601256, -1.0502503590098502, -0.9618826440002711, 0.246300521547812, 2.078070333963725, -1.7088285561661734, -0.4551916513296799, 0.24043215634458243], [-0.5816852864246175, 0.1945921867367398, 0.402489353557102, -2.299575472677882, 0.16465978010449744, 0.9489438137826262, 0.07487870109092427, -0.6354662032719852, -0.6842739915311676, -0.4630925247443962, 1.23591839850045, 0.14359163441372097, 1.9169609042516675, 0.12306393588563443, 1.0625821830056361, -0.16719213501097965, -1.0718612968445718], [1.0224366574615797, -1.9637689176006436, 0.18144498986780727, 0.4442580935970736, 1.175078491107641, -1.5101886868945047, 0.7319240995106994, 0.541529972975347, 0.3281586211781414, 1.0134414312030842, -0.23389789341044478, -0.41111656554618553, -0.6760201493179656, 1.5214393389779641, -0.7259527261891238, -0.22132617288951167, -0.4524031218653576], [0.41423816420616266, 0.3150316826253912, 0.034243576467140234, 1.04870311730635, 0.12961849250226334, 0.443041682220053, -1.1719026016816747, 0.13148640900644526, -0.6553755305773293, 0.5992724208647807, -0.8228604180178927, 0.6962911723872067, -0.26719551305384626, -2.3643729606339754, 1.1855230002455186, 0.37568696062808726, 0.7075781267204738], [-1.8610516567836162, 1.19337266595709, 0.8934793807618923, -1.4574543059436955, -0.2981411577876106, 0.7748304741145831, 0.003471184395498814, -1.350696305122191, 0.009649648554544645, -0.6018422734294042, 1.0147692368757144, 0.7986168271791226, 0.4593010086278126, 0.7853405421224878, 0.12323547293231032, 0.016428372005280075, -0.9311014367862016], [1.642685752235635, -1.0895800196958534, 1.2309268371999271, -0.8372248010994768, -0.40296243514347657, 0.24472726237899187, 0.22532203116230284, 0.4733622044164667, -0.8996148351668009, 0.5804265173806337, 0.06016362279946065, 0.9197404451188118, 1.3107600587797577, 1.250504914342954, 0.6356501110345042, 0.08134722003622706, -0.4424327352964509], [-2.0312863820437554, 1.9786279387854602, 1.258792170589077, -0.8257075867068695, -0.6714629627370702, -0.43709050902509344, 0.19186923859155242, -0.7091431332915674, 0.8933578687184762, -1.88206594779161, 0.4292627357154556, 0.9741115333132296, -1.285080352885559, 1.1686498959877312, -0.5743745566009344, 0.6821907341211428, -0.17655936097336788], [1.6292812114855886, -1.2669598562905582, 0.42872959042537495, 1.239385379321918, 1.3798916498125509, -1.1305932313145095, -0.9481000969106373, 0.6716934452504217, -0.2863574266654638, 1.88356779894635, -1.0674268486206975, 0.17446077606156163, -1.5382103328315229, -0.8930811413124311, 0.37258336059318553, -0.018572280881204127, 0.7507051662891475], [1.1618508826955396, 0.2555215645994176, -0.5525432565332806, -1.042911622194626, -0.41533891369632464, 0.18584843547388996, 0.03354887026701281, 0.5146065689431969, -0.280957015067985, -0.8630989643020373, 0.068727393413377, -0.2669815368847313, 0.9101290637334137, -0.05378844802477189, 1.118586207902871, 0.5945641948425919, 0.18641114450046453], [0.6790525677181196, -1.8337370190540616, -0.22570496989206035, -0.43591404771483405, -0.11954492941837416, 0.011299651076746962, 0.32220797738188667, 0.3880848810736385, -1.5820411873598028, 0.38641325140592925, 0.8083105635021628, -0.5531556271568285, 2.3341705940851023, 1.2304697058643248, 1.0381575747846297, -0.1315016603604798, -0.4517912530632109]], "outputs": [[0.02074011245622807, 0.9990192043159084, 0.40202779994187715, 0.9686654448768497, 0.8089811954171175, 0.12413138456986286, 0.06741709135941644, 0.09304753271899598, 0.9612438134738863, 0.0055003485217789225, 0.44196951995618294, 0.05640203010546382, 0.0015134343764406039, 0.012239161194137855, 0.7795182152712189, 0.9924309307382243, 0.9387779032425266]], "delta": [[5.701798264728129e-06, -2.954729942615518e-07, 7.777985349197951e-05, -8.59065609130498e-06, -2.322278061276918e-05, 1.4840840937332277e-05, 1.0100184970200585e-06, 2.1681119714116805e-05, -1.1374449815863398e-06, 1.6560960649617905e-06, -3.6802246170920905e-05, 1.6941184936039985e-05, -2.8461630066477195e-08, 1.0557005380852811e-06, -1.2831508012790813e-05, -1.2809970471135309e-06, -3.11733226694431e-06]], "gradient": [[1.0884646881628277e-06, -5.6405348914036323e-08, 1.484805670874339e-05, -1.6399432897126929e-06, -4.433193789811647e-06, 2.833094149061014e-06, 1.928110075725462e-07, 4.138893049695144e-06, -2.1713653126655856e-07, 3.1614624075134173e-07, -7.025493281641572e-06, 3.2340466502623277e-06, -5.433282248261201e-09, 2.015316403052565e-07, -2.4495155246372314e-06, -2.4454040404223526e-07, -5.950940275859178e-07], [5.358014710009433e-07, -2.77657780258105e-08, 7.309020414321444e-06, -8.072692082177508e-07, -2.182258900674594e-06, 1.394602901737844e-06, 9.491205604190436e-08, 2.0373880829200543e-06, -1.068864007495118e-07, 1.5562436033813463e-07, -3.458329586386809e-06, 1.5919735121779265e-06, -2.6745567886959066e-09, 9.920482538670665e-08, -1.2057846576130182e-06, -1.2037607616480996e-07, -2.9293762014694986e-07], [5.244756569503614e-06, -2.7178862804576426e-07, 7.154521760277313e-05, -7.902050875762855e-06, -2.136130138704054e-05, 1.365123674833189e-05, 9.290579746280628e-07, 1.9943216118017185e-05, -1.046270275209101e-06, 1.5233476024868777e-06, -3.3852271409085026e-05, 1.558322249633432e-05, -2.6180217948671236e-08, 9.710782590824067e-07, -1.1802966857497505e-05, -1.1783155710584881e-06, -2.8674548146542227e-06], [4.379348876169703e-06, -2.2694231982259074e-07, 5.9739944867198167e-05, -6.598178040031153e-06, -1.7836593554562654e-05, 1.1398723185696294e-05, 7.757593594985444e-07, 1.6652498535678298e-05, -8.736311196117916e-07, 1.271988608538626e-06, -2.8266499080852356e-05, 1.3011922864683704e-05, -2.18603678801898e-08, 8.108461138717563e-07, -9.855425882567135e-06, -9.838883661242336e-07, -2.394312272382906e-06], [3.5535910501225856e-08, -1.8415070811187982e-09, 4.847554726002278e-07, -5.354043967074317e-08, -1.4473375155168127e-07, 9.249411691297624e-08, 6.29484335437091e-09, 1.351254979491904e-07, -7.089016690710288e-09, 1.0321459794530385e-08, -2.293664674641528e-07, 1.0558430932149752e-07, -1.7738437801596934e-10, 6.579552291347739e-09, -7.99711422901488e-08, -7.983691162867118e-09, -1.9428474193132216e-08], [1.164807013587951e-06, -6.03614859842991e-08, 1.588946410534237e-05, -1.7549650131213855e-06, -4.744127462401132e-06, 3.0318006370525415e-06, 2.063343132394428e-07, 4.42918516806687e-06, -2.3236597133191627e-07, 3.3831998644639523e-07, -7.5182446774487865e-06, 3.460874993431713e-06, -5.814359747636405e-09, 2.1566659041889878e-07, -2.621318719862038e-06, -2.616918865919298e-07, -6.368325078568692e-07], [1.7702732381812072e-06, -9.17373625058331e-08, 2.4148801257715457e-05, -2.6671951322677515e-06, -7.210123039472158e-06, 4.607729408103873e-06, 3.1358680758724985e-07, 6.731473865207691e-06, -3.5314971125198597e-07, 5.141785814828112e-07, -1.1426225284812763e-05, 5.259836445086889e-06, -8.836661642938821e-09, 3.2776999875055814e-07, -3.983879152840284e-06, -3.9771922565597173e-07, -9.678577933611617e-07], [2.9794024303803482e-06, -1.543956689349131e-07, 4.064287682049039e-05, -4.4889384802210664e-06, -1.2134769731488075e-05, 7.754893369536687e-06, 5.27772366722651e-07, 1.1329194364733803e-05, -5.943574614918194e-07, 8.653720127935392e-07, -1.923054738070882e-05, 8.852401510625384e-06, -1.4872264127130056e-08, 5.516429384011369e-07, -6.7049419119665654e-06, -6.693687742496946e-07, -1.6289224734400201e-06], [4.904774624486173e-06, -2.541704173295772e-07, 6.690742709430173e-05, -7.38981458971862e-06, -1.997659330813781e-05, 1.2766319791732184e-05, 8.688334564712729e-07, 1.865043287520056e-05, -9.78447679733866e-07, 1.4245993242841084e-06, -3.165785858469567e-05, 1.4573068026106028e-05, -2.4483132240075194e-08, 9.081298512942004e-07, -1.1037860684120197e-05, -1.1019333759300846e-06, -2.6815771953183004e-06], [5.686758146073219e-07, -2.9469359999211475e-08, 7.757468695132558e-06, -8.567995786443613e-07, -2.316152390748137e-06, 1.4801693987848478e-06, 1.0073542852515e-07, 2.1623929579017e-06, -1.134444646132117e-07, 1.651727639394187e-07, -3.670516975336297e-06, 1.6896497730396633e-06, -2.8386554402022346e-09, 1.0529158269082694e-07, -1.2797661251808818e-06, -1.2776180521560346e-07, -3.1091094142573506e-07], [5.252887845390157e-06, -2.722099990451954e-07, 7.165613865220249e-05, -7.91430192209624e-06, -2.1394419155724712e-05, 1.3672401119017583e-05, 9.304983516229113e-07, 1.9974135339943224e-05, -1.047892373803549e-06, 1.5257093440592032e-06, -3.390475471399453e-05, 1.5607382146003452e-05, -2.6220806786702018e-08, 9.725837827663724e-07, -1.1821265739156966e-05, -1.180142387777761e-06, -2.8719004101515854e-06], [3.0322175346865806e-06, -1.5713260144059913e-07, 4.136334269535561e-05, -4.568512743717545e-06, -1.2349879688627646e-05, 7.89236237943593e-06, 5.371280523843712e-07, 1.1530024093533685e-05, -6.048934840860785e-07, 8.807122409726342e-07, -1.9571442372074057e-05, 9.009325766434842e-06, -1.513590094676034e-08, 5.614217715773362e-07, -6.823798701112211e-06, -6.812345031860905e-07, -1.6577979652044938e-06], [4.534187391801429e-06, -2.349662094301445e-07, 6.185214114310858e-05, -6.831466622987312e-06, -1.8467233347830375e-05, 1.1801742316639304e-05, 8.03187507177254e-07, 1.724127285527055e-05, -9.045196716763362e-07, 1.3169616932632313e-06, -2.9265903988646033e-05, 1.3471979114790979e-05, -2.2633274312045604e-08, 8.395148069189898e-07, -1.0203879398768812e-05, -1.0186752302142316e-06, -2.4789668109221707e-06], [1.5336285571078425e-06, -7.947419407257549e-08, 2.09206637879272e-05, -2.310652691348061e-06, -6.246295970082232e-06, 3.991782314324506e-06, 2.716674877501936e-07, 5.831631145096082e-06, -3.059417441495524e-07, 4.4544477033692984e-07, -9.898802636106286e-06, 4.556717688501903e-06, -7.655403896312683e-09, 2.8395471354665717e-07, -3.4513264422048806e-06, -3.4455334296500325e-07, -8.384775407004829e-07], [5.467858841964054e-06, -2.8335001506961505e-07, 7.45886192210042e-05, -8.238189547618803e-06, -2.226997175505576e-05, 1.4231935184968114e-05, 9.685783875662428e-07, 2.079156375381993e-05, -1.0907766832594278e-06, 1.588148000247598e-06, -3.5292284606881404e-05, 1.6246104043860157e-05, -2.729387614051577e-08, 1.0123861374304607e-06, -1.2305043301425229e-05, -1.2284389424857249e-06, -2.989431054513823e-06], [4.3124564202002755e-06, -2.2347588461370879e-07, 5.8827445830323035e-05, -6.497394031608591e-06, -1.7564148133398424e-05, 1.122461315007982e-05, 7.639100069428481e-07, 1.6398139598636248e-05, -8.602868228100109e-07, 1.2525595919436516e-06, -2.7834741849665622e-05, 1.2813171976842881e-05, -2.152646123396251e-08, 7.984608279528168e-07, -9.704888973873491e-06, -9.68859942705417e-07, -2.3577402995197814e-06], [1.8929307878282357e-06, -9.80936016746562e-08, 2.582200781436412e-05, -2.851998027266358e-06, -7.70969339143876e-06, 4.926986789645288e-06, 3.3531440793204425e-07, 7.197879882093357e-06, -3.7761852053321756e-07, 5.498046552015005e-07, -1.2217918208211401e-05, 5.624276598156895e-06, -9.448930551944276e-09, 3.504803148912791e-07, -4.259911600508823e-06, -4.252761386874286e-07, -1.0349180995218248e-06], [2.1012246783592833e-06, -1.0888760326224678e-07, 2.8663404078591967e-05, -3.165825542094696e-06, -8.55805089168668e-06, 5.469141449292262e-06, 3.722116590245749e-07, 7.989918562988028e-06, -4.191708220141841e-07, 6.103039356825328e-07, -1.356235073270865e-05, 6.243159476276752e-06, -1.0488669838070117e-08, 3.890463886287176e-07, -4.728662791146037e-06, -4.720725783918389e-07, -1.1487981836308267e-06], [4.5166587881980485e-06, -2.3405785933576223e-07, 6.161302847077434e-05, -6.805057024063238e-06, -1.8395841324291483e-05, 1.1756118251063263e-05, 8.00082484332818e-07, 1.717462024226999e-05, -9.01022911307556e-07, 1.3118704834195914e-06, -2.9152765649670646e-05, 1.3419898121825586e-05, -2.2545776893129976e-08, 8.36269347259281e-07, -1.0164432472177042e-05, -1.014737158677247e-06, -2.469383434052225e-06], [2.737727232532123e-06, -1.4187181399800524e-07, 3.7346116639134445e-05, -4.124816774380395e-06, -1.1150453935207528e-05, 7.125852669876852e-06, 4.849619394215496e-07, 1.0410223076518632e-05, -5.461459625570256e-07, 7.951770803226354e-07, -1.767065527094466e-05, 8.134336080894495e-06, -1.366589558197304e-08, 5.068962419091656e-07, -6.161068366515871e-06, -6.150727082665682e-07, -1.4967918968405437e-06], [5.694460834202897e-06, -2.950927611374008e-07, 7.767976151314003e-05, -8.579601097895963e-06, -2.319289608661837e-05, 1.4821742815256066e-05, 1.0087187420643406e-06, 2.1653219093606312e-05, -1.1359812462626452e-06, 1.6539648969941447e-06, -3.6754886739402244e-05, 1.6919383959977353e-05, -2.8425003861278125e-08, 1.0543419966227449e-06, -1.2814995625960113e-05, -1.2793485800159895e-06, -3.1133206888647656e-06], [2.159207435946951e-07, -1.1189232882504898e-08, 2.945436338315529e-06, -3.253185688233593e-07, -8.794208117225767e-07, 5.620061008791532e-07, 3.8248274455807316e-08, 8.210398322222859e-07, -4.3073773364005067e-08, 6.271451166956511e-08, -1.3936600332455219e-06, 6.415437865266912e-07, -1.0778101999657319e-09, 3.997820242199722e-08, -4.859149031459441e-07, -4.850993004547325e-08, -1.1804989756901658e-07], [3.29478569891166e-06, -1.707391511779463e-07, 4.494510977950875e-05, -4.964112990281249e-06, -1.3419290178194891e-05, 8.575784026353414e-06, 5.836394669036248e-07, 1.2528441002966601e-05, -6.572728961339713e-07, 9.569755676229905e-07, -2.1266188094004455e-05, 9.789468384943582e-06, -1.6446560779051787e-08, 6.100368469249201e-07, -7.414690442056422e-06, -7.4022449676742e-07, -1.801351309712413e-06], [1.4875269070815363e-07, -7.708515960639023e-09, 2.029177805428654e-06, -2.241193302883257e-07, -6.058529154291773e-07, 3.871787319197895e-07, 2.6350102567843622e-08, 5.656329363652519e-07, -2.9674498059696253e-08, 4.320544752664936e-08, -9.601239622758486e-07, 4.4197404503236094e-07, -7.425278583633721e-10, 2.75418891253458e-08, -3.3475778239181146e-07, -3.3419589522503565e-08, -8.132724817850512e-08], [1.8419404146156987e-06, -9.545122859302267e-08, 2.5126433615868414e-05, -2.775173008228775e-06, -7.502015358036006e-06, 4.794267253974632e-06, 3.2628195576108444e-07, 7.0039887034581165e-06, -3.674465113832972e-07, 5.349944229716793e-07, -1.1888800940256921e-05, 5.472773983991278e-06, -9.1944022308873e-09, 3.4103933470601976e-07, -4.145161244204686e-06, -4.1382036377505693e-07, -1.0070402391804166e-06], [2.7746824288027997e-06, -1.43786869913464e-07, 3.785023299300155e-05, -4.180495591344501e-06, -1.130096827746419e-05, 7.222040953677375e-06, 4.915081955431119e-07, 1.055074541652489e-05, 