{"net_structure": [64, 32, 16, 10], "learning_rate": 1e-05, "loss_name": "CROSS_ENTROPY", "layers": [{"activ_func_name": "SIGMOID", "is_last": false, "weights": [[0.062089269126404084, -0.017283037646398082, 0.08096106726258656, 0.19037873205100317, -0.029269171840416996, -0.02926711961864757, 0.19740160193842393, 0.0959293411441136, -0.058684298241869014, 0.06782000544824558, -0.05792721160155778, -0.05821621919628211, 0.030245283945754264, -0.23916003058222474, -0.2156147290641291, -0.07028594115512159, -0.12660389004180297, 0.039280916574409235, -0.11350300944015136, -0.17653796266691144, 0.18320609611519426, -0.028222037560816957, 0.00844102558599048, -0.1780935232766821, -0.06804784056564783, 0.01386532371373326, -0.14387419717778785, 0.046962252293208995, -0.07507983623985062, -0.0364617187241596, -0.07521332652867461, 0.23153477306361722, -0.0016871530922417401], [-0.11347654966574619, 0.07885488343564148, -0.1612000390325621, 0.050171134820421834, -0.2762086352155298, -0.16245107336158351, -0.022242626786516007, 0.09926504791490069, -0.014484130854149931, 0.01014103456213215, -0.060586735175928476, -0.21737519336150277, -0.165088193947977, -0.015432854782911364, 0.12326240335179937, 0.0370297313885722, -0.21805107918219974, 0.0746819210336301, -0.05603339404695185, -0.014422620972716625, 0.11140763810515551, 0.0973197822711944, 0.08411928926840678, -0.08551485188134009, -0.06265600508443349, 0.08555655619680667, 0.1498403693290137, -0.11565018304289447, -0.012033329893023713, -0.18152127277197036, -0.10222386550933163, 0.12136786653607236, 0.19840443239277278], [0.04907621081403375, -0.12494631073825474, -0.28753960154621244, 0.08664450573885386, -0.055035574467045364, 0.3057679159567636, -0.27996320903666566, 0.18846711304279753, -0.27452195722598155, 0.17746205362748088, -0.08079352417735751, -0.0403230948063122, -0.2417218615741738, -0.017525364512651964, 0.036548021046981766, 0.2353019970490035, 0.24408539705246143, 0.05459262349445771, -0.171587597675227, 0.27112858588241767, 0.21560869804992236, -0.010270318584352185, -0.10896633722531848, 0.07877659033478923, -0.1808111392814996, 0.25423397774974793, 0.21074060504514308, -0.3454535453978262, -0.05581807915984174, -0.5104794656103169, 0.29532628914074854, 0.06339385958808155, 0.02439423246591716], [0.07382541289512012, -0.29546406634285766, -0.1923073575470766, 0.07610595163622698, -0.1455027225826119, 0.17985173828553913, -0.03651704802857234, 0.3188701568563571, 0.07130532267804297, 0.0956754784801631, 0.01166077137592167, -0.4149376226637877, 0.06378838270725701, -0.014651177397154101, 0.4452557749618737, -0.02119365952807441, 0.03832150393415403, 0.08380649531830472, -0.23397315964998794, 0.21205149253000438, 0.16982189195464226, -0.006057467537510285, -0.30376378560299544, 0.17663695278669916, -0.20398380602644392, -0.05012381405066799, 0.37369837155015984, -0.21105219041202702, 0.0191692931341723, -0.0860553073944634, -0.16234147147150166, -0.14674330203185745, 0.08007880437531684], [-0.2984166507140198, 0.15229689458081203, -0.2530825401776938, 0.2319262056332321, -0.08409802631236658, -0.1646824635145652, 0.19828195680855004, -0.3913277144426138, 0.17496161651160658, 0.038811008501793275, -0.2741501259478794, 0.2677560588898637, -0.10539514049471393, 0.0031282936113261306, -0.25177677827633493, -0.07774760853345655, 0.04468530778613486, -0.08012116464472986, 0.020051577394422385, 0.09138513949895685, -0.27162569721447605, 0.1996863711276277, 0.19802846249950684, -0.34435052090388746, 0.2710570264581096, 0.07147190586933995, 0.05685846304158192, 0.2234795830888371, -0.09126341111248085, 0.19007023058050104, 0.31635310438569314, -0.12282574349042577, -0.036746319198797124], [-0.0438779973590403, 0.151571337867835, 0.008310042173865308, 0.04413857843793956, -0.16719351102706156, -0.15570049888093113, -0.1398531707459335, -0.1603296132220563, 0.07119494188379853, 0.06073990317582815, 0.06227855218466998, 0.20536421973631364, 0.1332756867365739, -0.23746284678721596, 0.37892569008877214, 0.14181870725525916, -0.168633753687414, -0.17216255441513295, -0.007873835092419743, 0.07080791452313213, 0.022372597523049962, 0.1223816618931531, 0.14250612773468044, -0.3451571054179794, -0.06606730243906037, -0.09204461682373918, 0.33800341637809334, 0.1251228095417154, -0.09262427884033275, 0.10009340858526002, 0.19572995257165943, -0.04932735627684854, -0.05428790306398054], [-0.13409132571344706, -0.11294213506405898, -0.0936781230511442, 0.13217961750844742, 0.12197161142685953, 0.11066827795045091, -0.058275599024476626, -0.168325338101859, 0.2749394340724986, -0.09600256178866035, 0.0755570820130121, 0.7414890044259781, 0.11267405579089813, 0.036081446347336364, 0.18024190568978646, 0.16869140571332428, -0.035370809120031384, 0.003776268931461761, -0.08915131915160755, 0.0011616849142867636, -0.15755459451206033, 0.09664964982334825, 0.4349707316161522, -0.4478935928130755, 0.11115865707023535, -0.22861365067930844, 0.08167244946394385, 0.2521902796168734, 0.009383009232789454, -0.06862221561671006, 0.010130973733247662, 0.002868730426691627, -0.22999476587571835], [0.024281244645782137, 0.014908146745462156, -0.05537753912459584, 0.2882962158777825, 0.05141473809916829, -0.2094728116899261, 0.04068133627097864, -0.018851437516735143, 0.1459574484207644, -0.13801749078155806, 0.021555163771846714, 0.06693330335771899, 0.20812056011033883, -0.19387204518000403, 0.017403117819591675, -0.0603354507097011, -0.09324908786437465, 0.20877769542652516, 0.05418610032120164, -0.19708207516975218, 0.14034963926001653, 0.21923771019272423, 0.06937744034355002, -0.19793501888823148, -0.027994090630093154, 0.10248893898358007, -0.11887415320689632, 0.08388996567581769, 0.09645271386075878, -0.09096761360731127, -0.05578923497103805, -0.41015530122974936, -0.14102434144573356], [-0.029673811247492212, -0.15563302599942289, 0.2040029249068723, -0.17844019948261716, -0.05614124477147135, 0.020630445348767696, 0.17932244643593032, -0.17561607950687796, 0.14294002541762701, 0.0025876761187333367, -0.12171018713530482, 0.05394688555802447, 0.02994298337299413, -0.07979702884257345, 0.012070089097153236, -0.05112841418268796, 0.012992769121317518, 0.08388803403833314, 0.1963532875813673, -0.15604189358535484, 0.269106175859214, -0.2479169009532351, -0.022123438441689236, 0.07328480235266965, 0.038793315405707254, -0.08204136419318057, -0.026724394895197515, -0.05995127428671902, -0.0718486343896211, 0.10902919446457159, 0.04142659429588182, -0.08510992586208578, 0.1140349249465235], [0.14047109398114038, 0.07207203657097025, 0.07383943093759358, -0.056706015667388504, -0.1515328178628003, 0.18861391190691157, -0.07760968184464853, 0.06806067962362244, -0.11766923488044534, 0.3046898973983502, -0.1299885707293865, -0.10624047521632493, -0.12130709727385357, 0.007314739667244574, 0.1792601744856839, 0.018323080885279296, 0.09552553201800049, 0.29428687948478854, -0.03486551932527929, 0.21713946679412321, 0.08062919596959742, -0.11631874526957506, -0.1323367628330242, 0.14419551710024875, 0.041962196364302914, -0.09937682524403688, 0.28228811575651686, -0.26071806891426225, -0.11173453182811126, 0.1050201095591616, 0.11479418493335829, 0.18570883890086148, 0.19722273620554368], [0.08980128023543167, -0.37015182322850126, -0.2874078212081728, 0.03317376322491646, 0.1390138382136609, 0.20266260115133958, -0.32511937482949144, -0.06290927947621962, 0.20046994029345014, 0.11887108293760079, -0.13243496262220564, -0.024435337826849667, -0.11164069233732418, 0.009055882768754133, 0.034208477068981204, 0.13823175137430066, -0.15707457038232592, -0.10741479888619412, -0.235681141113753, 0.10923658372804254, 0.07095172995206617, 0.2232341784966229, 0.006789699421599993, -0.041553163553917846, -0.055101834676394665, -0.14764072538848905, 0.1890531140632036, -0.19714694699351426, 0.10956506648021386, -0.36216713230796865, 0.06273009457556573, 0.23844701547982136, 0.07580606340266405], [-0.010110963754599052, 0.190278536871638, 0.10550439249251253, 0.12552352543168394, -0.12474917652801629, -0.06155014754175667, 0.04726635452892216, 0.09389212659171038, 0.20134870546848957, 0.01758221395856381, 0.15889550430283328, 0.28907373104610923, -0.02116644063866714, 0.2330220785066424, 0.07974283472032254, 0.2978977217444243, -0.10062387758725826, -0.17309171984304675, 0.04503471085457062, -0.26008145830674523, -0.07908137338585161, -0.13684317321340855, -0.25117714406842856, 0.08669073995202416, 0.12839914513037998, 0.144584306004614, -0.15695440337436897, -0.13465666111116328, 0.029354406244239514, -0.21528059679051295, 0.15944804680347852, 0.11182625151406089, -0.15702770426130336], [-0.23873171297387866, 0.41306566223142177, 0.08731586631077198, 0.20753048764500395, -0.3221617833554279, -0.2516993655960146, 0.063039248846277, -0.03253159670232569, -0.17624701253693364, 0.004439868953898177, -0.25662924626436523, 0.019870989571763437, -0.10526948893186554, 0.008303656257513675, 0.0570604722104076, -0.2863027385504291, -0.219605027158956, 0.21976710170005598, 0.0938571863470769, 0.097063676287598, 0.17325796376740052, -0.15152038646945357, 0.13497000140117957, -0.039962946922060406, 0.2048108129626688, 0.21403574545433898, 0.08281902413546749, 0.09782672418724354, 0.149252369274389, 0.37527459708176, -0.022380585253716584, 0.12496191469378969, 0.11697395776947091], [-0.043484142454900836, 0.10190097746939905, -0.5456520272251207, -0.06926119684787746, 0.006254494445021215, 0.46917778613103467, -0.10481093344579594, 0.3407407969196948, -0.3400616824171524, 0.024266790176724107, 0.09592209786390328, -0.19449209282129787, 0.6016060791802629, -1.1199036498019306, 0.38947018955382484, -0.4165089369790471, -0.16450585086567054, 0.13545979323599444, -0.4111834260049609, -0.31233318335427734, 0.02634489098709885, -0.3913315892614893, 0.12417113069781359, -0.38744086225613905, 0.5963386159242768, -0.7649460623172392, 0.004421123957374916, 0.3417100970952198, 0.11797259005054088, 0.46877088237426345, -0.47794992965363736, 0.5322482717218195, 0.10480231611555225], [-0.05902204559511093, -0.0013899516147223745, -0.01336758118897061, 0.07328309761122113, -0.06466736217307481, 0.27509382884947997, -0.12390714752932507, 0.14549028687919102, -0.061834829998744595, -0.2892794344833293, -0.11639545905396803, 0.0667650173430229, 0.38974321526240796, -0.1252460491085084, 0.28161585044827797, 0.004022218219886537, 0.350703355958261, 0.18153216136187772, -0.04650771905147882, -0.1332982346219765, -0.06160108361162738, -0.15948846148830254, -0.30385644522419547, -0.19466071422787148, -0.02304570897424786, -0.24395837509480228, 0.2169660332364835, 0.13093744691023437, 0.05587067827243305, 0.19667731175448863, -0.0938794516219258, -0.06643464401662644, 0.20882186144468626], [0.0826178307995395, -0.16115065402910506, -0.013264580342388824, -0.07391086722673224, -0.22210423544155286, 0.1728372346786696, 0.19140956393146838, -0.11095496557175101, 0.05472659109097362, -0.07411868162681133, -0.05549077649163162, -0.10927113260017644, -0.09512650805020852, 0.02572690113989606, -0.06049974501562232, 0.03450080041217455, -0.005342690887880324, 0.002536478515266822, -0.11490444338075155, -0.05039507189381577, 0.15480936063050188, -0.012135560436337454, -0.20193897131759586, 0.031027546654321534, 0.08268903078714171, -0.20784159163603882, 0.07897398042539441, -0.11231847361694196, 0.07525187179351919, -0.1210455172025448, -0.2249205404070267, -0.18668807885129352, 0.025640318129236832], [0.036255029095242086, -0.10980034048137002, 0.08564126649401863, -0.20717349452205652, -0.01331730774612334, -0.14985983545026693, -0.08398416948393747, 0.010880367159934288, -0.1174368123883178, -0.04442320312572454, 0.12569477312610097, -0.08069891792864842, 0.10579378973058289, -0.14244557815437656, 0.06840438466958182, 0.17342610499836744, -0.3107243178122986, -0.09519818866000276, 0.0721210668624194, -0.0240894183046531, 0.05187580733415903, -0.08465070768399327, 0.0048080823070991196, -0.013194253444311672, 0.14744383445877018, 0.029858056152239118, 0.03839895333662624, -0.053657610266938834, -0.05948413987083034, -0.05136534821572623, 0.0460397520309248, -0.04816516701402057, 0.040424739442902674], [0.3933656585670532, 0.1685817042621148, -0.1519033687606678, 0.08367938659532827, -0.06045703577276327, -0.177022052232198, -0.32683811711206817, -0.2962365128438828, -0.30856404112593855, 0.3409879978261951, 0.08096446959605326, -0.19677474393507008, -0.2509274209967224, -0.043260078518466895, -0.3196163972095866, -0.19262440860410152, 0.04185678583962533, 0.0008627483399385771, 0.00627044012671443, 0.17326186281767547, 0.03013829990823591, -0.10046336687048299, 0.35809081466080406, 0.1243219242169568, 0.11511196538367535, -0.13942113474926254, -0.04284886940158813, 0.051528971644269145, 0.0005082756436523784, 0.1217937084602477, -0.054304191247285145, 0.27937246019308093, 0.2349814070228733], [0.15403085407999295, -0.3088732780045411, -0.6385931727331992, -0.2934237546585132, 0.39531357564363173, 0.23785139138486286, -0.05679089680124868, -0.5982541501619328, 0.44940729157311216, 0.5133913479241365, 0.009871512419427464, 0.3569357649186115, -0.31293317677450255, -0.42241538651051475, -0.3429047388659145, 0.23285495612648055, 0.04505200223490073, -0.08640595885391923, -0.28362371775327216, -0.22338352328321692, 0.05002299639571697, 0.4304448722396044, 0.5266452511060029, -0.21997281536865382, 0.2679839221013655, -0.0770126874199246, 0.14387633308283873, 0.2666830756947875, 0.37711427644599155, 0.09187598276373538, 0.14511232887265824, -0.05754580178409351, -0.07591323191884969], [0.11556461311272206, 0.16107341956914706, 0.06289883879574495, -0.3830350965915626, 0.3538203376868316, 0.04880178992238809, -0.016037048090959374, -0.26596438964952174, -0.2548099796105578, 0.2790505425237472, 0.04376434835507924, -0.2559123154389563, -0.03833020386145425, -0.36582995309065525, 0.1973197339952124, -0.3047725217464031, -0.3202513935779746, -0.014501180160681203, -0.20789404403492492, -0.4549953683855201, -0.006729424570568347, -0.09944711999880197, 0.2967039631328579, 0.07681954972875978, 0.3862970904823027, -0.23761575301928536, -0.18070996357400151, 0.549008207515609, 0.20132626445760476, 0.23374232946231768, -0.20024740093502952, 0.0727606569649973, 0.07279665994244924], [0.22991994463548748, 0.20808155584850987, 0.09472318382261714, -0.10415089500386017, -0.2315960231732107, 0.07662649390936783, -0.11522727232178896, 0.38922134153424653, -0.6894645571829614, 0.4215770369180019, 0.17315726033036116, -0.6791359954764837, 0.21735758446244632, -0.4319606122290136, 0.03387007137570634, -0.5090202555871606, -0.2943181971353084, 0.4633661686490587, -0.03546098483427811, 0.18323855947321066, 0.3547986074544373, -0.6980219770478937, -0.15849532602823863, 0.13438107687210737, 0.06029597641337845, -0.2771657147565657, -0.08038466056657685, -0.041906709905268354, 0.3034849938618952, 0.3612425561590349, -0.2855986071696775, 0.35424555807805647, 0.09025997666451532], [0.22447470493398516, 0.2425788972863089, -0.22918525965711622, -0.004776385447406162, -0.1691317294047649, 0.5059814829350193, -0.09986170115430637, 0.15372016049436324, -0.009879982473621242, 0.08103686708302044, -0.02913751394496221, -0.5381803243186223, 0.7359205801883486, -0.8962136296807546, 0.6344022283407007, -0.47716936099400636, 0.009589998211217058, 0.08950615219839425, -0.253560948989673, -0.41470394200508925, 0.2589625632700599, -0.3656036246435954, 0.09496676045272259, -0.2080705108181166, 0.48632337745080334, -0.7220438720439705, 0.032440493799256204, 0.40910561041011606, -0.008851149895237912, 0.32118971773639204, -0.3302009656323782, 0.2541154096876367, 0.06217372327750322], [0.02292120547957089, 0.1132198444039302, -0.12066967981464743, -0.11917550120902545, 0.029755182436941204, 0.04839353312081038, 0.04238493194509304, -0.13360080814484904, 0.10404544888248567, 0.056503194484853365, 0.08647296739797583, 0.027927755105937164, 0.4395043150109678, -0.12685941606425724, -0.08463762562629094, -0.2857275295413046, -0.14119687946305037, 0.027182089799421712, -0.015153869413905776, -0.20561304236881608, 0.07245796955388356, -0.24356033058287052, -0.057564225740074935, -0.2856951301965974, 0.02579258817717516, -0.3823144686393136, -0.1218237522630262, 0.2885015972688528, -0.03711211408889087, 0.5336443686439237, -0.09318149515597765, 0.07979740105500317, -0.11316781822496902], [0.0787777198667566, -0.09109871971668652, 7.436272403347821e-05, 0.33508744301452753, -0.027253403371047556, 0.15799985468221062, -0.10280260558680923, 0.009481259192294722, 0.22822790129746232, -0.095001916577965, 0.2277357157668269, 0.09185135298150034, -0.06667241547207457, 0.09728659867811414, 0.1363975284523236, 0.1015055638166492, -0.18905603877570654, -0.09018618897864826, -0.024655620748171892, -0.0015068467001879634, 0.09054540571401513, 0.008922318802751615, -0.18433214118809496, 0.04509420748358148, 0.059314820039679646, 0.07779726647909574, 0.15352556202674217, 0.0920651791390644, 0.04521155827782767, -0.02819948266085194, -0.1911379340813563, 0.04951694882089809, 0.012114918876800133], [0.03568797759122007, -0.15819758154934857, -0.1348634668500862, 0.13027924735860066, -0.004457286895999626, 0.08586053154471263, 0.0027845375150387934, 0.003501938192821906, 0.11441135769799027, -0.06130951408582645, 0.011921263288910485, -0.06055516476110735, -0.053712680065370944, -0.04157131733028072, 0.027909949269385035, -0.06325674465819793, 0.15580711950326243, -0.11054798890646479, -0.024723586944841877, -0.056267737630228604, 0.18163071360846467, 0.022568687317332265, 0.12996732574523734, -0.18494255914732088, 0.035807314543917564, 0.10913578389529642, 0.008912935333432523, 0.13440700591129742, -0.06331352314579887, 0.17871979904821705, 0.2852189097881747, -0.04336221456198406, -0.053690283315724535], [0.11630445840169366, 0.27018846563035853, -0.17330688324856205, -0.16611370605441236, 0.1461994862409611, -0.32571788487260467, -0.01833554728841971, -0.3962470823570087, -0.036347985968522914, 0.024172747633491736, -0.0522968102075894, 0.37241549710337957, -0.35912321069019426, 0.13242323484766558, -0.21887057048724184, -0.05672456482372755, 0.09698915377219579, -0.17952555544514404, 0.026373705774981635, 0.07741699112106872, -0.1566922348906632, 0.25442830003352385, 0.6101966847956058, -0.127454276198626, -0.12076866306201298, -0.016783440983119166, -0.03242486954155841, -0.057300769589387235, 0.15914606566255382, 0.2058498261008157, 0.013329250814005753, -0.1483222496711764, 0.00451287080602038], [-0.16323835534020623, -0.03670022608840527, -0.3829613924203546, -0.369677585738663, 0.5874809400384434, 0.22985412008172657, -0.1327559409170593, -0.5654235826014641, 0.29161485469509235, 0.16736497149411603, -0.022041788433919397, 0.4909515923037044, -0.36309611827518734, -0.19201607116449104, -0.41117207696728064, -0.05085157651675299, 0.0025384925641907525, 0.09502632640803954, -0.22539130519453573, 0.010682257693113983, -0.325717272613233, 0.5942882202900006, 0.8099288250332977, -0.3001095821317397, 0.02128623162903675, 0.20586535360085856, 0.24528797131734092, 0.39359350962672357, 0.1490509378559569, -0.0834923523072134, 0.132513216395114, 0.08057099650528485, 0.055110646253810104], [0.03891590055645102, 0.0478798330259426, -0.19109686675122117, 0.3281629337065542, -0.09906662835643829, 0.1941960449643699, -0.12058012862554356, 0.22636116557807245, -0.08065841392333105, -0.036882955390653956, -0.058494217869473765, -0.16024088107359527, 0.3637602650155786, -0.25363971369842253, 0.24973055853255383, -0.056093938602023406, 0.05042878660180432, 0.13586559724589664, 0.15539370517635376, 0.10959347703119122, 0.22033269419378196, -0.23371569132838393, 0.26591517684447163, -0.40329106395273334, 0.17384796329158658, -0.05007740156157882, 0.4172406088458651, 0.029037637122232802, 0.1137692444305235, 0.21595410894024789, -0.020829553688653534, 0.04606229821240442, -0.14942334575487679], [0.07434638089903867, -0.23462841187594266, -0.06957592313705611, 0.38920730203372345, -0.2520987805635489, 0.027499173722297286, -0.15863508142665125, 0.5841737784229728, -0.21487719882486314, -0.5675962481620886, 0.09833226880232945, -0.17131256167762257, 0.06900614771012771, 0.23872756945488044, 0.36626819479444184, 0.2406057513494802, -0.10521532918600227, 0.15599246049892213, 0.22096396031003285, 0.241864174981355, 0.5431354890447625, -0.4966126151369406, -0.5454867453219394, -0.16816925394800633, -0.21334893576351763, 0.057156275888882245, 0.2726787072552542, -0.18676894213260806, -0.26684372410392265, -0.019560782350423443, 0.21400984256158267, 0.09760637117124689, -0.13526815151680266], [-0.2016431934243469, 0.20943157764308534, 0.06508550306735576, 0.2210256345307683, 0.06047271046523748, -0.03593905428911082, 0.2142544895331154, -0.04877413510031159, 0.3073488354076247, -0.371318008608109, 0.20874336637893123, 0.27974781138424043, -0.16315742886592946, 0.03637644777901931, -0.03936438220748324, 0.3007010144558038, -0.03073830563568624, -0.19714893656303945, -0.08907564450240599, -0.0326726005004169, -0.411222839319402, -0.07172701507025332, 0.09705294238849577, -0.12819124614489918, -0.04216781522584967, -0.08055504520772191, 0.17384360592374426, 0.1104933639314137, -0.21762218521434504, 0.31982899717284025, 0.24986638345784828, -0.11114593194347873, -0.198849978396851], [-0.2573762016498979, -0.20083396275550347, -0.1272028240127618, -0.08799411413027462, 0.005853173353075055, -0.2520078204783692, 0.4351367436099859, -0.14672902726990597, 0.2519881467282325, -0.21130783975808642, 0.11685031610499469, 0.5756707603995631, -0.12693331972309368, 0.03947996388336146, -0.04688607106464203, 0.27271388778022493, 0.2096299714429451, -0.13197452115421632, 0.24397689879410606, -0.05711189678335599, -0.16917694991813798, 0.37176972870239067, 0.5054679449676847, -0.3124623950008224, 0.046720803119448796, 0.17132257060258677, 0.06491192215198414, 0.035618604757840705, -0.14896219559922866, 0.08486470776121059, 0.27026268095632405, -0.26572992607397, -0.28253821267224416], [0.26679233763337484, 0.2167364486492573, 0.052260854328372484, 0.0053224165736079, 0.013729150638369145, 0.07709136038296965, -0.12797609273741378, -0.03176591328132505, -0.20825133052133196, 0.04874755453425617, 0.08084501080740002, -0.06022435439643512, 0.1982609269495461, -0.15537484724477568, -0.18151034771074864, 0.02896847404609836, 0.13063997095790117, 0.21031241257427544, -0.0573440874896654, 0.13494514384893475, -0.00444360559737273, -0.022947176890675623, 0.11080472315241467, 0.08018968437439852, -0.1964591307941576, 0.18303951263143167, 0.1746661151495475, -0.07773656813687145, 0.04887316252216274, 0.0633811893994793, 0.03412766385086873, -0.06841226321908565, -0.08544526567683118], [-0.0031942588739306598, 0.14659112740742059, 0.06795001932430404, -0.04632679151076324, 0.09646233883104309, -0.35606782757875943, 0.14359571254651293, -0.21746422234726245, -0.04530511767539152, -0.13995873682826798, -0.16183518446511322, 0.14510334842231493, -0.05846265016398642, 0.04331298521633947, -0.005865072359898009, 0.05963010340289018, 0.00960273638253192, -0.1603740280235712, 0.1245333524308925, -0.06171957289516406, -0.19457273733246888, -0.053514395120739064, 0.18759497382928886, 0.10627771776418661, -0.0435815168009824, -0.0436572130398036, -0.04020438140217283, 0.2595934979451051, 0.04774193152894417, 0.053755205898883704, 0.12878543175398027, 0.02984864487831419, -0.03238026822758789], [-0.24206453380232293, 0.03992742541305263, 0.036508605755676694, -0.011264582350614923, 0.26132462386865085, -0.3000446456783955, 0.2546720495848352, -0.38015971825328065, -0.02610778702053535, -0.08556638625034967, -0.04991555195432846, 0.5850646334782708, -0.7894638737267872, 0.6426320985863895, -0.39887529122116133, 0.2696447588350211, -0.016594776762149033, -0.11376900835364631, 0.011610159330448054, 0.0032538777225273, -0.17292894691727478, 0.4808546609793847, 0.35011517268606385, 0.12905908657220347, -0.2446235437031834, 0.3571591291733097, 0.01576559637197369, 0.24830971926345308, -0.11557722325801818, -0.12997708701479813, 0.36976543006831225, -0.1069057976489554, -0.06550262347168107], [-0.2507455206615718, 0.054025142399934854, 0.34016713727924436, -0.28848371414670926, 0.414467930143703, -0.5863753261196787, 0.5661199482400979, -0.48318939763299634, 0.36760726970346896, -0.2654877277598313, 0.09647293572673184, 0.6391239552102946, -0.4691809239077578, 0.363145975775145, -0.3355018577146029, -0.13281701327209489, 0.1865357553175484, -0.24617112770213773, 0.12050070410029581, 0.16294993479395356, -0.6412270112188453, 0.7257834917179865, 0.41329796007100467, -0.12480907037435629, -0.3476580341476885, 0.1855863166710748, 0.08032268079518039, 0.04749865177293354, -0.14435768050238512, -0.2253802983213176, 0.07330347958614628, -0.4984499422975632, -0.03718337074042039], [-0.006888524685098343, 0.08201042913260985, 0.6532760930176247, 0.2896284502591283, -0.3289962070377771, -0.49600737696322245, 0.5900423896976179, 0.052903674556482344, -0.17758876917235297, -0.20580295052943012, 0.3316912056717199, 0.03580826053635033, 0.22304387988239618, 0.1475257358419596, 0.18072308537955006, 0.1418301070263663, 0.0729082120374236, -0.08485769202953693, 0.2544860399755363, -0.08377316811543334, 0.024130844740148007, -0.35524623557655066, -0.32792949299922897, -0.1379027722399638, -0.22231564023458772, 0.13137505825607565, 0.0399622333316677, 0.14149706241617632, -0.24624187775623058, -0.07248041726159489, 0.08593413956529984, -0.2334501345791035, -0.167895616091601], [-0.06691646766700832, -0.21793383591167184, 0.3753472817347447, -0.012452936123502996, -0.15086644052635198, -0.09092491211283897, 0.06437293002146365, 0.21213195224560213, 0.3191614546528767, -0.3371550420511048, 0.18697338691579146, 0.27795145158876783, 0.1453446615711544, 0.4154335673914282, 0.03745021956892989, 0.44937997376545724, 0.12975749542556314, -0.23443047107364814, 0.18970828572318232, -0.1659434879741563, -0.20712121128835234, 0.3699816177773735, -0.5280386715749382, 0.06389837851702454, -0.39186450970169007, 0.33061475549208996, -0.25738164389164403, 0.027286011745082238, -0.26263876283141696, -0.4155479849457188, -0.1583066102137047, -0.03337534137201362, -0.3932526917058902], [-0.16680146127376447, -0.29792490877950134, -0.1113321855603953, 0.011221337764912001, 0.27695960505080774, 0.09861723009215018, 0.0060569343434531174, -0.04154422595729257, 0.8725316408904217, -0.36281827608882733, -0.05078550888763705, 0.46457249463959494, 0.3709564600254791, 0.26287596679525255, 0.1623320281449438, 0.7703065926174358, 0.11548162918186056, -0.24283622778337827, 0.28680695569571835, -0.23305899789847223, -0.2852367312820765, 0.46712066229494087, -0.09978170395860966, -0.2403938703380978, -0.4007824003567175, 0.1642810228788473, -0.0051351535270195555, 0.04641558789192948, -0.3695997743107472, -0.40171051779722494, 0.0883911725182567, -0.6058409699583208, -0.27927796157597434], [0.029559907272621665, -0.26043280302125993, 0.1577002181612145, 0.012441685342712009, 0.13615287790921987, -0.06037559242208498, 0.18585898791398572, -0.10058375697708787, 0.3719037759581849, -0.29606207931963385, 0.045729646827626556, 0.10139251082098363, -0.011318400691709184, 0.015771602266504543, -0.16754285005343594, 0.33975931526802955, 0.24175453524944113, -0.09522854690193965, -0.07119681108496753, -0.18367568349631447, -0.07829923058798616, 0.3224347002487888, 0.3783780534675838, -0.04573998686592508, -0.11671240056188432, 0.01443687608786511, 0.013323515037194181, 0.06462078767558828, 0.006453815231488201, 0.03702897901225842, -0.16103785571685778, -0.36571561416179144, -0.3948484368192685], [0.06349891586406796, -0.1379208257717342, -0.26911132411906036, 0.04857232556637051, 0.3116249396790988, -0.0007588639424866655, 0.10481134680645524, 0.010228669818445627, -0.012361206648892833, 0.11488456037347107, -0.03628431802358142, 0.03342403925898787, 0.0402122257745017, -0.0835113067053811, 0.12400529369206535, -0.02186996958692608, -0.09446814493660559, 0.06706373044630044, -0.11230849772387966, 0.003522644671141031, -0.001139874580525443, 0.13573694572894726, 0.0593372791099941, -0.0031283698431429897, 0.10222078740003589, 0.17377594362716417, 0.06972628829398278, 0.0012940774804225759, -0.16397952904376994, -0.13313920788442157, -0.038153088044333455, -0.0761890252699104, -0.02337141287318075], [0.0006712543262329552, 0.07128883130064756, -0.00627104396131565, 0.06288803646771222, 0.0037252083087890016, -0.25323237196486104, -0.11342842928384123, -0.020182591811208912, -0.15063045955603566, 0.0663696878515726, 0.18851344974942064, 0.15681432415335417, -0.03096042910286348, 0.1903733053834048, 0.015221000099346805, -0.03908028694157465, -0.07574504185596886, -0.0402782062016158, -0.043603843714409646, 0.024714321304200183, 0.017351372413339984, 0.002467876944057165, 0.055056337505706814, 0.1467803929512899, 0.11532948417939742, -0.18060676006564277, -0.31672025334021536, 0.11658984953445838, -0.17483814549766058, -0.02596322074829636, -0.13804539449113096, -0.22522472010567218, 0.06253275515814755], [0.0015623896324859234, 0.03606552138179754, -0.21220404872476079, -0.15108886493765167, 0.16104741653435353, -0.3626542919407716, 0.15730647114674218, -0.1828469860132731, 0.1346286101930754, -0.09964724237317077, -0.16470675933596526, 0.3236814433127986, -0.203415919089796, 0.15375176616914307, -0.3242033559887878, -0.07757928807152813, -0.08808438446511282, -0.121775562405671, 0.28628615414595393, -0.19198276582720664, -0.3873212242390359, 0.38981769291216234, 0.10138961494319867, -0.03791435311592842, 0.036208030965449875, 0.0663959422802506, 0.11684090872153613, 0.10625712830422838, -0.10021726731903345, 0.2787517944521341, -0.023030436893595577, 0.014865573132682833, -0.04945511393911787], [0.2050669063275874, 0.7000389536022321, 0.5263842984877652, -0.3784149876404276, 0.34405375409743166, -0.40156062762080447, 0.812332325834488, -0.33212480069100947, -0.1955032989331566, 0.16760858651886903, -0.19596876075238534, -0.15292452333129727, -0.02240551686446938, -0.36790441731393936, -0.5447921610408746, -0.5840234693641446, 0.0031014231395618277, -0.011568408580013241, 0.11488670606657493, -0.36984766831152627, -0.5198958229040256, 0.41161994461166485, 0.18023330499626625, -0.0053960474864958195, 0.46405612813366054, 0.037912668135431066, -0.4416666294765709, 0.6529593311205585, 0.17949808835331882, 0.6543411120282309, -0.34160133383423535, 0.06479469794009174, 0.3970830383245958], [-0.2009151622920687, 0.7344082954787919, 0.8963324262209956, -0.029404090465572096, -0.3699759859955393, -0.8489055908953835, 0.4263514886496585, 0.14430803413813004, -0.20836760597277498, -0.4124992045284187, -0.10758897566803426, 0.32257958786896923, -0.0019575847163278643, 0.16831985779878397, -0.32084886151077696, -0.22060561544605625, 0.04150170513867365, -0.2410036386997407, 0.6622578505073726, 0.03860734911977922, -0.19038129258644051, 0.17047675128198306, 0.09068850842460306, 0.07642067934323517, -0.23274610266503093, 0.26389976424365336, -0.4515630587832775, 0.09257294961805554, -0.04744342362268698, 0.6123574098919186, 0.022206893040127386, -0.061937507058956634, 0.016942211255069988], [-0.26299368548244345, 0.6541201165643661, 0.48315509727541117, -0.10102487646504217, -0.18736396440136857, -0.4359288674567903, 0.5342359911762583, 0.05773487029710982, 0.03787461870767697, -0.5795846170657231, -0.03886276459753589, 0.15564367252049782, -0.19171716595759714, 0.45436652000468514, 0.024530113694808467, 0.18638415341970563, -0.12405603732877941, -0.15773739317361482, 0.49377368548965267, 0.03304432565150533, -0.11026166001206743, 0.09175397984670734, -0.2595429161392739, 0.1365940113325899, -0.24974789428415134, 0.337241771137212, -0.2618238655406583, -0.12370550941403585, -0.1016335062259442, -0.1280099482089372, 0.460431421974084, -0.18264816434434472, -0.25963203843247556], [0.16895163045904812, -0.38156664728325984, -0.6098828266977524, -0.32759613204273064, 0.5467569533987643, 0.18134628413422987, 0.13750287982469456, -0.32437970763946505, 0.3073743587654174, 0.3467406829139485, 0.33094458912889807, 0.3044289485608783, 0.1808553259211599, -0.0067411453827803825, 0.017547501690237312, 0.22796556959973385, -0.09989951094279212, -0.21975634932046445, -0.23915310929337633, -0.2621205713472202, -0.17116654495140882, 0.3720675679169043, 0.3723648037713619, -0.16563143741076697, 0.3275215711291024, -0.26961313280281185, 0.04880957720633289, 0.09050332881279671, -0.1501391754905707, -0.13781187763580646, -0.1560637961768777, 0.1375232931685441, 0.06807581309895841], [0.026962614564311784, -0.20014062096924173, -0.02590856685407983, -0.018601553765451594, 0.30712807592000413, 0.19661791409916446, -0.2582063559011072, 0.11741177568037928, 0.4747599388436882, 0.34123883658331317, 0.04617184729739683, -0.22773385346461036, 0.07748688483675639, -0.0873632120067111, 0.04879340244234582, 0.15776766952481985, 0.024800542613270138, -0.24151062909995946, -0.058395931040344656, -0.32549661046756834, -0.16689776933138814, -0.1197659996390937, -0.10243673465153257, 0.33326039818949554, 0.15910053321812356, -0.09161253524810277, -0.16316997052854368, 0.038564372904383686, -0.12307284831806585, -0.3034421249576691, -0.22561573188109138, 0.06547671054367563, 0.07459320523597182], [-0.024155982564342284, -0.11309390830998431, -0.08844010659845418, -0.024838331842461148, 0.03782009451439516, 0.11069283011085453, -0.10265133527774081, 0.19241045049834832, -0.04770989247503019, -0.0005593939865712666, -0.09776759748030879, -0.31153955391846994, 0.09535160543556577, 0.11055606150138744, -0.04224589133041401, 0.006518993324447288, 0.06955066918502124, -0.19006279583716745, -0.057138205115391444, 0.10552303900029157, -0.15415181961106975, 0.03314305134530029, -0.1856217327071357, 0.075102595397817, -0.017345568789212965, -0.18735979587570964, 0.13881969472843292, -0.10461680988100144, -0.10462791134303517, 0.01665704430745804, 0.14228417597415957, -0.12558577673439966, 0.013957793254442758], [0.05323475168651094, 0.0884655447787506, 0.01140528731408097, -0.044707802807938825, -0.10802424419217743, 0.014491878265499074, -0.1431377167831104, -0.36361350971261375, 0.05036848122432573, 0.11330238197612395, -0.29806718610029526, -0.128722689820105, 0.0783718533366005, 0.2512878676046476, 0.007729403668077194, -0.08964742673731774, -0.023539337649315022, 0.17581825518176694, -0.08263216174107851, -0.09477013521131357, -0.055871916424271015, -0.12760193493836738, 0.01753609162398794, 0.19958671929544647, 0.040525564533222376, -0.0367736664661974, -0.026028914608822284, -0.19688066935549844, 0.10973931850739034, -0.0049912343539796015, -0.01554737986744553, 0.4024032623222802, 0.034300029135486625], [-0.13858081900175145, -0.08377876984095019, 0.021710934977810445, 0.024718673680194456, -0.13545673055413532, 0.10193861022710278, -0.09506358682581653, 0.1412783263090854, 0.22614528805354067, -0.08198355179019079, 0.11801562537293771, 0.1174869137325342, 0.0029979969299975253, 0.09426597224242296, -0.1507930686359646, -0.017145977165893646, 0.15025207288365833, -0.06819311548228332, -0.07011016410636575, -0.06129587768581518, -0.0019545415524973814, 0.339333350449019, -0.03124573342844431, -0.08167926084729943, 0.14792946325506257, 0.04257867607499686, 0.1548540332528481, -0.13525104479517566, 0.046341849778940104, -0.053532348455580255, 0.22701531638032968, 0.11269027206270828, 0.27758724376593], [0.22829297254561545, 0.02888268278552186, -0.09053919209548929, -0.007162501628862619, 0.06366156601233329, 0.12703361778817798, -0.05438777746650213, 0.14384604333732162, -0.2163079618560579, 0.4045668927669155, 0.09080023699056994, -0.29707198741684276, -0.41096612584012127, -0.21878016745273451, 0.1551893157001471, -0.23417017409889979, -0.18745737929894676, 0.09915125591047157, -0.0720917855391615, 0.18209713870958888, 0.01849967180523894, -0.170563401322472, -0.0965920689397198, -0.1670638730404998, 0.3179178559414862, -0.09706083092534959, 0.27078509507789716, 0.19552718924198875, 0.34044527937978886, 0.05606611563044337, -0.004686928386996773, 0.12291644423408819, 0.13354852345146348], [0.18068911682656855, -0.03668873319637813, 0.5669091318563738, 0.1409508854962086, -0.3994673292216913, 0.1849986534808415, -0.14704406114933014, 0.5565433435334827, -0.481820875461584, 0.16946728756457854, -0.19507929907333413, -0.49671967799774625, 0.25410420154939717, 0.049263842535785626, 0.1190704096272429, -0.1752238166825061, 0.025620766063730975, 0.3006245009218638, 0.18025441684218607, 0.3118533080191133, 0.46689937755002847, -0.5105136173572105, -0.6679142408656003, 0.5167281069513772, 0.087118385672118, -0.030340555059083545, -0.2782444863824608, -0.16210733764848903, 0.0278655805024524, -0.2471112634500054, -0.03622963534008586, 0.07734983570451782, 0.15913504261468614], [0.04786559989935719, 0.3077590958251688, 0.34095914275699757, 0.03142514482906383, -0.2249488614965455, -0.14947600494186558, 0.002090034773810911, 0.07906396921775496, -0.49696578397035995, 0.19439432609598442, -0.22484001855289937, -0.08680079591949272, -0.24757362580386066, 0.39450809298710704, -0.13478881365906184, -0.30918197454148233, -0.06712349691854491, 0.11347598656457766, 0.17914899722551245, 0.14054669355337307, 0.009473480349811847, -0.41247909693296386, -0.007191368545763706, 0.37885706313542566, -0.11999285957715759, 0.09556559216325883, 0.02954696754848227, -0.03611865414440499, -0.06845680303299254, 0.0943114689522943, 0.3141316518906598, 0.23681315281342286, 0.10702005452573402], [0.5898419187695022, -0.6188742628704439, -0.03298446890832807, -0.1775526173991709, 0.013662050693674313, 0.5926467398192153, -0.28077489550563983, 0.021968259973422697, -0.051428344513210975, 0.7963805684199892, 0.26474121209981705, -0.3674677550239995, 0.13336034790819518, -0.1597378562892804, -0.13834027300592336, -0.30350672944542023, -0.21949147269023764, 0.451282164262092, -0.3695069669313113, -0.20552904493831295, 0.30364297839136895, -0.13151962586978133, -0.0005766278884642413, 0.15537271720532103, 0.2683538870516151, -0.309409809208899, -0.3518918772034083, -0.06934776481041259, 0.28554620090527666, -0.20663610217192055, -0.5899624311357223, 0.045257633283404784, 0.48826956748249556], [0.1706324203199649, -0.31002682351245103, 0.22695651841385323, -0.15823923382573757, -0.01336530335983763, 0.27673919920331486, -0.3051516161162555, 0.4604278121388139, -0.35956571280975236, 0.3699534424434801, 0.08841769933072881, -0.4154884789145778, -0.009351785609837085, 0.31498658022341625, 0.025748846714668552, -0.08536424888071559, 0.20857232152056565, 0.1670469492945774, 0.21423336402445048, -0.11282098387591617, 0.19092117554872115, -0.3073890963381402, -0.8144226978997753, 0.36284039288034264, -0.1492057189429117, 0.15709111447894925, -0.5021022284451125, -0.21807742881926392, -0.04494111877688724, -0.4800393187604058, -0.20726992954561432, 0.1772522242073479, 0.311246519066568], [-0.13114035151694303, -0.2467824827981489, 0.008200404115627087, -0.009883622038683405, -0.15572184524902502, -0.08831640274593443, 0.05160624930554985, -0.01849956567478126, -0.08798848961263463, -0.010319799179515721, 0.04843171462075225, -0.11545219630716257, 0.12021727776006798, 0.09718779673110813, -0.041560223027292675, 0.10626624711903479, 0.052577527522633886, 0.10680357195938633, 0.10634844919901973, -0.052335409417755344, 0.03134230432536255, -0.1202698601420313, -0.04138644439230836, 0.05968986478463926, -0.10842988110235051, 0.06642392136330054, -0.2812494698047047, -0.12328291971780997, -0.028160770458092746, -0.03165226744060564, -0.10381437961602154, 0.1386170418866231, -0.11528970902905207], [0.12103666463503897, 0.05281954239331464, -0.08173105195111073, 0.22253249789444157, -0.15018096184884952, 0.11541471896539594, 0.12320761661313184, -0.08366200849002811, 0.17326168812999437, -0.030951472256461814, 0.035396263406892906, 0.03206227081025356, -0.017892505606774214, 0.1020399422763622, 0.09943214467458042, -0.2177225213944125, 0.16333853407402552, -0.2070558890986224, 0.12928495144784308, 0.1420550931895189, -0.13557013903841533, -0.05224158677243299, -0.13851612703728894, -0.02675042670639494, -0.039088814204132995, 0.0981246297805372, 0.16528445595148858, 0.17348722263669972, -0.07068639156527426, -0.02651139486322423, -0.20903390909984937, -0.10038145854848916, 0.12049407736442484], [0.21353488512224236, -0.19048092575097442, -0.11125066091415643, 0.023849360218218586, 0.011448857354536273, -0.0907750167486014, -0.0018337955360404193, -0.05485089750925489, -0.015208384500814886, 0.0830073869949985, -0.017694624947630744, -0.073050795861032, -0.07751068462177986, 0.031056396153631635, -0.04800663300706651, -0.018168715228402386, 0.20727310165970603, 0.09742846944666429, -0.04718203310028169, 0.14836770116164055, -0.007471514640248249, 0.12425434110535431, 0.023801689278223875, -0.0035748346462358624, 0.02832661527411891, -0.15695140608896654, -0.10613041649763771, -0.2002052858965549, 0.020912494330190816, 0.1643389702664317, 0.3252815738716322, 0.09097063905226857, 0.07723429745196521], [-0.26075116659325703, -0.30047023696086117, -0.3565007956178132, 0.15324360656411445, -0.18575994403524437, -0.04444739542146365, -0.44860907094144065, 0.0981364785128191, -0.025912403577645866, -0.05002942459145376, 0.14073360965095755, -0.009537745582390294, -0.634030747946602, 0.329574318377811, 0.17790451676170027, 0.5246244667264994, -0.043704624394387215, 0.14308916993091594, -0.03402401198967577, 0.3954766072107478, 0.3817229829595048, -0.1889665294644519, -0.058152924838726326, 0.07932432872572412, -0.17182818310715978, 0.25334828073411986, 0.3615571409231567, -0.39998905322650546, -0.039521492756252954, -0.4223375623311203, 0.4513922797440233, -0.07870897127329643, -0.012100019580331411], [0.06165309889967789, 0.04323249529034464, -0.19451972272829895, -0.1336481747081232, 0.1367460293431672, 0.07211249425287819, -0.19806907086754666, -0.031339983636840194, 0.26513329197773006, -0.2088223861372954, 0.41077797063232113, -0.015025162116354277, 0.09408867370029211, -0.02387305304709073, 0.1606182642673564, 0.12094004122115261, 0.06243352893925372, 0.10611008534761449, -0.07750591586869414, 0.014084353384108912, 0.047104627148700895, -0.08618740313901455, 0.01489598016138126, 0.017549379848660476, -0.37988050000311946, -0.05481790967333068, 0.13439070555480936, -0.05613672658421014, 0.01034435049882389, 0.03523196036428182, 0.058309418308838484, -0.0423559087184572, 0.05630236102066083], [0.12626003440575592, -0.21219857467667047, -0.06964389065980321, 0.01356008634210371, 0.28737976016283445, 0.21787817162539427, -0.05875548147546588, -0.04122988972129122, -0.18541728782176495, 0.3645219634482129, 0.12276223332742707, -0.21003214139802834, 0.07135895413168711, 0.02220912928344246, -0.05883699548906094, -0.07985610416133107, -0.09326327398109821, -0.039050745431445266, -0.1841654252735113, -0.20553741330158676, -0.01655911381031763, -0.04977841967975113, -0.14932187730633198, 0.08204713656701175, -0.11916048873719755, -0.06522847242512557, -0.11483097202239646, -0.05925723643650045, 0.2601657761173774, 0.06662175583119573, -0.46993692398426584, 0.025557481385433317, 0.14770205497970534], [0.46427962338809164, -0.2707591727595951, 0.31752332892399293, 0.051917745352333344, -0.38945741893192937, 0.6523000834572718, -0.7115479762899296, 0.4611969615722038, -0.5249718207658471, 0.8424257723225268, -0.10525442913612065, -1.272574796911159, -0.07875262131297715, 0.4953183878038608, 0.27593755240271706, -0.2906409029629731, -0.08136703312684809, 0.5206221217254008, -0.2627340119877022, 0.1352798521068437, 0.5904306226303137, -0.3618759642171849, -0.4450636132441337, 0.7812320895382934, -0.12667676033454167, 0.03420415815964942, -0.5242927696081294, -0.5319997635259401, 0.17796784362679982, -0.44327940344476285, -0.4846973864293804, 0.16067557473815583, 0.8102331738977516], [0.2189521327261237, -0.09875991086178075, 0.3062318167607835, 0.17552913210742999, -0.2289653747400719, 0.08248359868322082, -0.35079115825483903, 0.3391233452145807, -0.5458323258432516, 0.07577935378661885, -0.05834847252442523, -0.37586109078403307, -0.03293766946358172, 0.33665023269340105, 0.21412130753527386, -0.10560781065847945, 0.06397168182648832, 0.2193062885999371, 0.12931285229450717, 0.07051494243001304, 0.06700808623793376, -0.4144993327743758, -0.4226281797898929, 0.5936576438346901, -0.050737625808122515, 0.26611855886192143, -0.14713429112461565, -0.33012908245642625, -0.10137469472091404, -0.25813744533621774, -0.02841330714621542, 0.338428618053121, 0.23915305191364947], [-0.026921343739407636, 0.07950496981605798, 0.22925731884332878, -0.12476890959263032, -0.4244917509857412, -0.09298848692731174, -0.157771462417345, 0.03155849877751697, -0.14656947391861458, -0.047801162901520554, 0.17492710505711323, -0.05212826524034474, 0.04288749982176393, 0.12729287414249174, -0.1225808485333221, 0.05383552160837761, -0.032057264238813346, 0.1326388122932858, -0.0798607673177711, -0.13715887360380916, 0.18965985301448404, -0.06848768172949612, -0.25981889015152476, -0.0022947832862477433, 0.11921780277041699, -0.12405484455070465, 0.14840685438199577, -0.18480118073986504, 0.0752905526895858, -0.0267845631449281, 0.08083265706235038, -0.0026137060933525405, 0.03960459619450056], [-0.03090803697452166, -0.10387902473018129, 0.12545605931906137, -0.005317195212839295, -0.00189184605592325, -0.17850305541075992, -0.26844908734863393, -0.15011006242560015, 0.42149522748404594, 0.0524070300716485, -0.024285303593276547, 0.052897592606257766, -0.15070846024956502, 0.21740991229872791, -0.22060906938122768, 0.16820347363490978, 0.10557881439420484, 0.028031233199540446, 0.08851403074317042, 0.057700933932833244, -0.016093685162600978, 0.19780467110086764, -0.11297080556026644, -0.06278049890658555, -0.09890411458958208, 0.2856527706420891, -0.13943955949130518, -0.22573365951021332, 0.057938543568492325, -0.09931871173651462, 0.007931774956716198, -0.015422530282405018, -0.06619899972032105]], "outputs": [[0.30297357264270836, 0.7919864957774155, 0.826689200742165, 0.6944456432078222, 0.2331977037256475, 0.23001780769150262, 0.7816096153917543, 0.6851636577163188, 0.7984918025498666, 0.13273481593136208, 0.5864551825569774, 0.7397229836247681, 0.7405823821397964, 0.3962137443413414, 0.7959242320968493, 0.7379628606643773, 0.5422301403987941, 0.3607697664803949, 0.7310239001894863, 0.43407688635473596, 0.35733896424540645, 0.5750822465981998, 0.2490411579631449, 0.1841956818639051, 0.393770726952228, 0.5224064638505814, 0.5912823115295498, 0.7167181330579581, 0.2940501001975427, 0.6152444530354454, 0.6409604318984421, 0.3519950076363744, 0.2979834089142834], [0.6352854825359189, 0.28998760342911717, 0.15804617844196675, 0.6297172995937279, 0.4821053192551946, 0.8384261951299444, 0.19284588096733973, 0.6665429095521198, 0.7027002634589682, 0.6714680539055747, 0.6375158986916383, 0.2831581769977942, 0.5102166504253877, 0.4402066561827325, 0.8313101729103182, 0.7189664138133397, 0.36705125768611585, 0.6351009256217931, 0.3314364897071049, 0.5063871571937941, 0.785905799800796, 0.32581153843788146, 0.34335015053266504, 0.36253160257034317, 0.4469541587610418, 0.42449728440678935, 0.794511436007113, 0.4149185948369404, 0.5883905976243337, 0.3875534317169065, 0.5613338797986664, 0.620470584575625, 0.4946818630336398], [0.31587571158457667, 0.7071913351716427, 0.8176692562202077, 0.288915793864935, 0.7247026054768014, 0.13221001845518401, 0.8575321709304486, 0.19069362948502352, 0.915023881546381, 0.2581994326283707, 0.6455805620454731, 0.9450442509616476, 0.1873691243785887, 0.8511024412407191, 0.22263231184592186, 0.8283140736454886, 0.5914254177204391, 0.24410365150745195, 0.7714454177803024, 0.38950860342138205, 0.1305900170088493, 0.9267407414314907, 0.6547058337680876, 0.43532371705836415, 0.17522729849318003, 0.8468486617855097, 0.3971076626226033, 0.6725548409193008, 0.42064786526101366, 0.3900237357849544, 0.7806370203455766, 0.21034781967217, 0.2787611388959863], [0.29488424524036144, 0.7729943212242724, 0.7399260614961455, 0.2971763039787064, 0.7865005075928505, 0.1390599868907339, 0.8854475570980102, 0.10568874582572872, 0.9078676655531938, 0.37790045953338186, 0.6165022258136749, 0.9550692315442498, 0.20770052217991655, 0.8152144869672464, 0.22473841618706655, 0.7524643874344233, 0.4714884967525019, 0.22754753156581187, 0.7254483864208784, 0.24948147184513172, 0.1024422403133251, 0.9251491436256278, 0.8355958377177264, 0.3183911075941996, 0.3256314718441887, 0.7996288966889915, 0.3920183316969174, 0.8131645098217881, 0.4433381234859661, 0.5824640109218269, 0.7240228931754433, 0.23726455600938764, 0.3008135485945754], [0.74834530508541, 0.17685591341385667, 0.07857070929439293, 0.5217738098090171, 0.6193997122125389, 0.935474573419066, 0.15799724685325114, 0.5631579941123525, 0.7262623997757636, 0.9090828356783694, 0.6901928782690291, 0.1919063481339412, 0.7398317689138225, 0.09883243069642615, 0.7976713224891822, 0.48035662092710324, 0.34121521240175745, 0.7182680581471916, 0.14896315476377214, 0.30238801031336915, 0.7644804389736216, 0.30268346962784937, 0.6324413247073272, 0.26656395613865685, 0.7930732235366741, 0.13839753235593832, 0.6977450566145111, 0.6124776792135845, 0.7225888292604328, 0.6147990688776862, 0.23177860219334057, 0.6999790537276943, 0.6684032810653141], [0.7845554720940114, 0.5830739230431619, 0.6218663772773987, 0.6168062740960099, 0.18703486324090068, 0.7128908947033903, 0.23045225355623591, 0.7696748706291173, 0.2819246973476027, 0.8558115610519662, 0.640945788929033, 0.16596028571684932, 0.7706879772794447, 0.23153031819229622, 0.7762049670825942, 0.2665202195291993, 0.31446948613297004, 0.7229232616725484, 0.42604114903944285, 0.40764207455870266, 0.8208815322941037, 0.1422165729387176, 0.21024479536351226, 0.4728758516343488, 0.6242588830332418, 0.24877142776395847, 0.3801081269581032, 0.5841324240174565, 0.6826831277864969, 0.6719431939641833, 0.2581859383241456, 0.8199907852095903, 0.7482626699738487], [0.3656211454704473, 0.8595641547637989, 0.855612710580859, 0.22998932050636672, 0.7986167568876605, 0.09082386759329432, 0.9461098714540429, 0.0880504537517098, 0.8530111080804361, 0.5223740462562568, 0.5811270231782104, 0.9251273208775243, 0.31680173659916927, 0.7872074815224964, 0.15215320539537455, 0.46432240963916355, 0.36729477639308755, 0.2832842910336626, 0.7889168079884288, 0.11717388150274695, 0.06943567649574006, 0.9273179238227509, 0.8899259721075885, 0.30986011857231094, 0.5250343705328594, 0.711190319514314, 0.22044628771198935, 0.9109186614448844, 0.409171717197819, 0.8389571127985677, 0.47638469044731774, 0.24555558487811632, 0.43885243614712377], [0.33862485983606017, 0.5178032757503502, 0.4684949940470831, 0.5888249180116429, 0.39471959241469273, 0.2674646614555679, 0.42066024290801063, 0.3054130838549544, 0.7495758205869675, 0.4685456714490161, 0.5347776421571272, 0.8560853193096332, 0.11710389748297133, 0.8205353304427132, 0.5106200353872186, 0.8439139180342814, 0.5459702521875224, 0.44046540994311956, 0.6127647069646466, 0.8039690334843332, 0.5117114065760453, 0.787486027474827, 0.5860075801981329, 0.33859617701264916, 0.21192068514364995, 0.8319657090164988, 0.8164378580462407, 0.3938659825554901, 0.4535303562340804, 0.17833839754991962, 0.9071532805198879, 0.4139399946137324, 0.3463111286096098], [0.544106416491485, 0.7423144127938545, 0.44363235881224616, 0.5567270584549082, 0.4194073980686906, 0.4708147473797207, 0.577583968828481, 0.564780040831796, 0.49247418009095084, 0.5607490568801713, 0.6293138550233651, 0.42420790981005707, 0.47945519494961697, 0.23210584701464718, 0.725901880030575, 0.4334993544690984, 0.39453909524246084, 0.5655081652026447, 0.4869659472225705, 0.48252037684535015, 0.5614643889702057, 0.3728098725711361, 0.4285912291692477, 0.20774814968929406, 0.6156714341798653, 0.44338475309088365, 0.7602834157636836, 0.6909077515866004, 0.6314971573332846, 0.6372117704409703, 0.6466268307977547, 0.683179334081968, 0.48942516835645494], [0.5215087907290039, 0.857704968633768, 0.9467984671995742, 0.7313150607339143, 0.10371234690929002, 0.2016961522198513, 0.6593532696965076, 0.8865485341072931, 0.15615592007232681, 0.3867561910915836, 0.5893431705895341, 0.17328413444260599, 0.6686690358864958, 0.7358628468579227, 0.7409724730774303, 0.34452074691944146, 0.32189287765682134, 0.6857166734697677, 0.8480727756702121, 0.5947725855508775, 0.7778885364556007, 0.09312284706126055, 0.08125932298639958, 0.6596150432413672, 0.30812266300897795, 0.7264716349386339, 0.3470101159492527, 0.4776487075282545, 0.5500858030024882, 0.7149391173892911, 0.4756830824509681, 0.6070440509460794, 0.45266576106111084], [0.8358074430628611, 0.2543385187052972, 0.3446352128484643, 0.4690198434031738, 0.5571471937167072, 0.8579828690333858, 0.2636342074249676, 0.522576155309742, 0.5882527551331238, 0.889751217443155, 0.7207672298132304, 0.2219967846999946, 0.7722245663320055, 0.26161150687457796, 0.792919642791229, 0.4585545333831072, 0.3683809262214165, 0.6701422708175276, 0.2933167031931137, 0.28683910327110695, 0.7139295222064658, 0.416833287183845, 0.3640470004388818, 0.25351751435218906, 0.6530524691888826, 0.22314959891811556, 0.565276403448616, 0.742136673195398, 0.6628911452980432, 0.50732982285215, 0.22585764163116392, 0.6564483405269599, 0.7387604054804808], [0.6033545664218373, 0.4100780213797899, 0.3636618378191058, 0.6759046394325091, 0.22209297549773216, 0.8176322829654213, 0.22924943472845818, 0.9091609101750205, 0.47633975475367285, 0.6230649919123534, 0.7157824743195478, 0.17555847668317126, 0.771927752436202, 0.42180549376440213, 0.8976855549136947, 0.6335159715057169, 0.34431609602048663, 0.7250266536046298, 0.4530509902812006, 0.5079909016927957, 0.8288726560656189, 0.09401343890183467, 0.09506410348262853, 0.5235471074504114, 0.5101767659534749, 0.3407540684826205, 0.5951053091335136, 0.3797382902468359, 0.40608573250614916, 0.3580870107940659, 0.457369453941878, 0.7289188583941644, 0.5219125959955334], [0.39263695104326574, 0.5948948884782757, 0.6646247852376362, 0.6163151048682648, 0.3115428752601624, 0.28038626486330764, 0.6209198302425172, 0.6091088031185993, 0.7335845759261638, 0.2553402231038676, 0.5825421138311241, 0.7323800237860684, 0.7120046499631253, 0.379121388795371, 0.6891377502573957, 0.6532306636200477, 0.5447798179241241, 0.4333034478702128, 0.6695131441708112, 0.4879694110972079, 0.44674236054685473, 0.6187763545265728, 0.34076202258446947, 0.21274505139991987, 0.35127707253689006, 0.49158123306471535, 0.5980099767864135, 0.6722530829333242, 0.37280509013543534, 0.5866685537830615, 0.5371000683698122, 0.42984040270533896, 0.3519608228245876], [0.28786373795908277, 0.8203113196452947, 0.7841375049794812, 0.2682866928367249, 0.8029435154922276, 0.10944106133315265, 0.9233815338170452, 0.09479252958287969, 0.9312196898808901, 0.3324395449765193, 0.6276056005155247, 0.9598457157439481, 0.26302475955022525, 0.8040447345914482, 0.18965705979913894, 0.7435913851405378, 0.5159786726260157, 0.18988616194903873, 0.7579711541437655, 0.2162904616334243, 0.07324478493116153, 0.933290881184672, 0.8182267102916012, 0.3045651187964137, 0.3297151530992329, 0.7751019714811265, 0.35086878949802225, 0.8528960982687259, 0.3688348575391046, 0.6332859217574449, 0.7418924866824662, 0.22830345356690435, 0.2886253442540659], [0.6753390829975177, 0.42064903660182856, 0.9078825940591084, 0.2709643423350777, 0.7072660163893952, 0.41819054583070997, 0.5653821495296075, 0.49286279394795013, 0.6866300248323361, 0.8660700936671744, 0.6380588856052193, 0.31664389917771507, 0.33492320876829407, 0.8576208850070661, 0.36568422782919324, 0.539264973607835, 0.558082717606105, 0.46091950680686167, 0.6907720733891689, 0.24272342216605017, 0.2530710596210398, 0.7682464508610302, 0.17873017011038675, 0.8208437769296344, 0.35491057270697096, 0.8264542342309187, 0.11144590301974419, 0.5652897961959488, 0.574990874276337, 0.18068334545895248, 0.23398508898627315, 0.447467068052303, 0.7691721616887517], [0.8577539931746179, 0.5178783139083549, 0.8122765378929669, 0.6838123682399497, 0.131340842531454, 0.5906376688943247, 0.15698593672613292, 0.8618380426602185, 0.07768540968404787, 0.9199849322496632, 0.5996408008778955, 0.0406992049931003, 0.29497703904084405, 0.6977845174857019, 0.6633956840453844, 0.2689751423660558, 0.37709185975076526, 0.8725588052364719, 0.5548773544903336, 0.7579064269222386, 0.8970001751196574, 0.09060951967287315, 0.10066701498885107, 0.8407981311512932, 0.3853370627175721, 0.6634213301191089, 0.3899458569808358, 0.23294839871556466, 0.7345838119874671, 0.44899166011317604, 0.32923842611450493, 0.8117730215825693, 0.8774837092026002], [0.7027362832942317, 0.2626246782094275, 0.7073041955730353, 0.21867453678584525, 0.8297581455369734, 0.5057091928983453, 0.49899441149835494, 0.3340260015614892, 0.784721757937867, 0.8862609973911245, 0.7421159369865588, 0.48156719492199607, 0.1809471121860381, 0.8048565096515085, 0.3268398634058082, 0.6597373362150014, 0.5754436520168179, 0.44455951379456, 0.4867143487130889, 0.30470460781917896, 0.2776772862750709, 0.8618528085377409, 0.31470335289039825, 0.6775711816974336, 0.2693786378959189, 0.7952091788522088, 0.26643269238587824, 0.5332789587290424, 0.6403464178104109, 0.13479989544991647, 0.2853416079291881, 0.41661237226568815, 0.7603491719948479], [0.4113584636661152, 0.7170364968102285, 0.7966940862557563, 0.7087020900489065, 0.21113081147476306, 0.17580277721692975, 0.7155685645816339, 0.7010462028123473, 0.6548896705734656, 0.22563078369946363, 0.6200106574487106, 0.6299687173068715, 0.4301767908405241, 0.6050387966631195, 0.6553282395789908, 0.7310003563221726, 0.5233240368196393, 0.5029706067347042, 0.7715710379585912, 0.6800908167553483, 0.5065198273357999, 0.4974762774659235, 0.2750425699751846, 0.32992009384734294, 0.2859375124623881, 0.6572077076158762, 0.6594897527161853, 0.5312150677670433, 0.3365823225284712, 0.5586026729377683, 0.707069474999538, 0.4171861727298321, 0.3291125242738681], [0.30378750535575655, 0.7609329891255776, 0.8602700184068903, 0.699382372344556, 0.2234106058306912, 0.10846472675117379, 0.8141046522090599, 0.7388245277796767, 0.6127206841370424, 0.1616125357947865, 0.5767309954826999, 0.6821658800862809, 0.3695334933516316, 0.739552825204372, 0.6147263784537186, 0.7013528245573409, 0.45201853791813706, 0.48144115069414267, 0.8391924552373562, 0.6280652831539331, 0.4554963689064711, 0.5240155973136149, 0.235722470905837, 0.3607503429467415, 0.2774567322793814, 0.7849158884887513, 0.6050747689557733, 0.5530410238289397, 0.34991713577977757, 0.5451459059030112, 0.722717143988455, 0.35655437492525877, 0.28178332314578614], [0.599692414167526, 0.5757614995454758, 0.23779908620369866, 0.23712402009633013, 0.8444144190018632, 0.6652760710482115, 0.6162205787637571, 0.1817410597354275, 0.8310458602360663, 0.836820091509593, 0.6313700121711905, 0.6703533055488529, 0.41150463457849085, 0.1631317402625253, 0.4681139123596795, 0.36719897564702325, 0.3662069531940308, 0.5192000674557431, 0.26453020311213404, 0.24348643083903004, 0.26569044655644647, 0.7636234395480067, 0.8503130695062154, 0.21816910652088858, 0.7814879864436945, 0.28383109287534874, 0.6302732541908764, 0.8641075366143626, 0.725095438175211, 0.7073405965711713, 0.4040779594067642, 0.5467362719698378, 0.6536367655487578], [0.66700622733739, 0.3468403404829882, 0.8660704575990225, 0.3184829553082832, 0.7310910794555393, 0.4585155605628518, 0.5335170094268924, 0.44925402714024293, 0.7419354203184093, 0.8757610768630069, 0.6540862667722758, 0.3640877945199736, 0.2841229997644176, 0.8509530363836186, 0.3804265439721588, 0.5976683831282509, 0.547931110409478, 0.48928534228447734, 0.6444069730586588, 0.2435807979559892, 0.2683388689131408, 0.7689433128480643, 0.22849051985721108, 0.7470295138402205, 0.34749490371924696, 0.8326614901101459, 0.17232922355919641, 0.6234191850546126, 0.5654216836382199, 0.17570678471133563, 0.2612515991889191, 0.4035015682974863, 0.7561761712877401], [0.6609533288889724, 0.22560159536581748, 0.34467296976043865, 0.4790413940823809, 0.5622588466673647, 0.8062197868967134, 0.20514093230216224, 0.5769937711886808, 0.6763119421840427, 0.8949539683167675, 0.7152442591639291, 0.2903048777413443, 0.6231945290202001, 0.5408932399541101, 0.746946276758658, 0.6391961478002278, 0.32601047764543833, 0.6835872230473148, 0.3418197886934152, 0.35638757957705364, 0.658909902624535, 0.4304048694368556, 0.33036987009160945, 0.4721043238055122, 0.5039595899692546, 0.5279399961369825, 0.522534891572825, 0.46442388772948157, 0.6078767767894532, 0.22773517613742458, 0.2758491615943334, 0.6368935892689588, 0.6610961971027296], [0.5973537794602091, 0.6526395201747393, 0.25035692208584437, 0.2387883229907621, 0.8380136670524461, 0.5527335231013402, 0.6764856585303208, 0.15413524238740597, 0.8236903475559176, 0.8299064998631995, 0.5863587043054312, 0.7402642269248717, 0.27127579342059827, 0.282650403681906, 0.3517749265932438, 0.37479732598629384, 0.36598690136104095, 0.4835695857270371, 0.313929880981063, 0.29515159828325144, 0.23084301273156896, 0.803178366682051, 0.864458981764458, 0.2942178256041668, 0.7603172060236145, 0.34603720601229637, 0.6083211582602858, 0.8378208046529626, 0.6890394496658533, 0.6994411447068992, 0.4958474790221431, 0.5549277876663112, 0.6389846497004816], [0.7609622669713628, 0.19427182072147814, 0.17338169421122993, 0.6414093718938105, 0.5652872969746413, 0.9121840858537049, 0.09457910732669648, 0.6133410581123824, 0.6946318601391246, 0.8769345994886657, 0.6606516242941284, 0.18131564468059064, 0.6035285207339792, 0.2939660332702679, 0.7771593224153925, 0.5655454916151937, 0.47136075395734484, 0.6786347598500161, 0.23800576156947667, 0.4506960222053399, 0.7016088973794395, 0.33364167762089975, 0.5039182894764259, 0.34906957533502114, 0.5968944191376134, 0.26069114427342227, 0.6780428781497495, 0.48852269826488237, 0.5755364403636971, 0.40025181330210796, 0.30444102002824697, 0.6793962829101906, 0.7390786837355964], [0.2658833199834636, 0.7980881574813924, 0.8365174990613158, 0.3081981583513938, 0.7617508398315471, 0.0780230256723826, 0.9523620161457604, 0.09670459930792744, 0.9039134375597003, 0.3128789136931568, 0.6332148432098322, 0.9624417233588902, 0.3387047264370942, 0.8193115610466957, 0.17291356016654694, 0.6859168328296451, 0.48555191945652243, 0.21867569944665513, 0.8296058408761462, 0.1959392640307617, 0.07677021674871645, 0.9235069125111586, 0.8141394919760314, 0.21994875596504412, 0.3866596191435176, 0.809886223649812, 0.33145596319894755, 0.8690504986237138, 0.35232302810123556, 0.7067571885557351, 0.6789314373734726, 0.19987652793050628, 0.2590950307118651], [0.8426230573515794, 0.4698350537610299, 0.8844148109341589, 0.7100484196287389, 0.09017401004328508, 0.6255431046694271, 0.133612383416732, 0.950688154277704, 0.056941988435547056, 0.915500582122942, 0.6494227060691231, 0.023646921793056868, 0.29573735136122675, 0.8006505625867821, 0.770661317472705, 0.3366640763191908, 0.38641540083061526, 0.8923316952609531, 0.632662263197004, 0.7910765674189326, 0.9335575115897071, 0.05443474025413275, 0.028750307481670075, 0.8788076015555282, 0.320236719697391, 0.714630619170157, 0.3765038432511354, 0.13867714362165862, 0.6873463182705042, 0.2882947950961491, 0.3637713739823352, 0.8255170004086895, 0.8872809197683391], [0.4505570242004896, 0.6000824408314341, 0.4880269878447515, 0.5378366662414201, 0.5028417367882619, 0.44246968972363604, 0.5336064999295671, 0.41763547681455926, 0.8870706040153942, 0.23963199855784453, 0.6389243371140642, 0.809296107569445, 0.5525906092385432, 0.6496831400280407, 0.6004063576153102, 0.7973825340695925, 0.5762653366386811, 0.3973392145258932, 0.673823696170402, 0.4754222684783774, 0.4301239510403712, 0.6312095019679201, 0.4935139959466884, 0.2415976085507298, 0.22733782992628734, 0.5616311916712843, 0.6972181182481678, 0.6187715205759794, 0.3749480364613717, 0.5237923563245982, 0.7760527792535852, 0.38804016299465055, 0.26261092039871137], [0.4435287192083262, 0.6685775241739036, 0.4853932052779081, 0.6817160405352946, 0.25046237130865295, 0.32454406688293425, 0.297596873791983, 0.40902471112554467, 0.5730684655817972, 0.6710752589743486, 0.5521748820573944, 0.729127142584778, 0.24123515989294136, 0.5245757875696916, 0.587140685184665, 0.700735436337868, 0.4788690783056536, 0.5471670649883137, 0.5883586390051816, 0.7550814400855327, 0.6653836624733879, 0.5238113900339546, 0.6088485144887545, 0.29171142384613313, 0.4468322011758006, 0.7048338957138284, 0.7967247285152391, 0.47039435972724597, 0.6305865200326798, 0.44521070663241474, 0.8435043214523593, 0.6231268112308318, 0.500674684139592], [0.28237893443578466, 0.8326691741690366, 0.8421839623687217, 0.7474777402461666, 0.13767681921392086, 0.231972516641309, 0.7829097845803363, 0.7869213498030394, 0.6752103243245299, 0.0991922812392185, 0.6271676665876007, 0.6884462864314776, 0.822591417220557, 0.4118554723290784, 0.8699827325394349, 0.6599211186044437, 0.5288878932615949, 0.44286271383031967, 0.7824786542055587, 0.46475480126434154, 0.4532874685361114, 0.33140108592276546, 0.18432204576416142, 0.1864448740475321, 0.37162334783179196, 0.4648538598912133, 0.6056050675329454, 0.7172452920575626, 0.2645833377714162, 0.7549894414776996, 0.6667600752540831, 0.3978977094166013, 0.2917356733886344], [0.6041528119515673, 0.23590934991416118, 0.23199074866239947, 0.3920290269703916, 0.7207682103943013, 0.5941251927610556, 0.36006862657286515, 0.18162192138337116, 0.8630279549451237, 0.8179920169228398, 0.734667426619264, 0.8313206290669841, 0.3759020227478593, 0.6374207403092254, 0.5263821648227707, 0.772591417651839, 0.42371211504790757, 0.4213253157950904, 0.31908159718534945, 0.40998752644313374, 0.39867766335605387, 0.8260247712064179, 0.7173223099162135, 0.2663572212947441, 0.3696077206376483, 0.5762814002566321, 0.6780335076385177, 0.5561922476586125, 0.5713185950087566, 0.22632686325602416, 0.5339783372014224, 0.4514664470829316, 0.5087927013342495], [0.6807103283727843, 0.37843782400592757, 0.16224525015406543, 0.31702573957765884, 0.7726159787174881, 0.7166175085693364, 0.42401588835286036, 0.24208578485880233, 0.7506582545308166, 0.894889909055437, 0.6231055427930531, 0.5615630389952538, 0.2951401651042674, 0.25194110015778926, 0.4306575568912164, 0.3973344753420292, 0.38626747056919486, 0.5763033185484112, 0.21287990835300682, 0.30903611823067545, 0.41844665711432594, 0.7028602515803886, 0.8173389475720167, 0.3489144367725183, 0.7710836077245954, 0.3002836011395021, 0.6047352633264507, 0.7225032517536174, 0.7426461363871507, 0.5974648299718542, 0.3506390586939279, 0.631241157781256, 0.6992708077905513], [0.3433951463682419, 0.5481385891455003, 0.5994444634567122, 0.39233134617036036, 0.7434554262844331, 0.25659164472817103, 0.830735468128192, 0.16482974554457033, 0.9405583244131835, 0.29479013852006575, 0.7398822102300808, 0.9431171158937619, 0.38543204331650055, 0.8205146151469461, 0.3823329676082743, 0.8436110640588627, 0.5651412531301213, 0.24565985099280693, 0.6683139665100115, 0.29454089881064194, 0.16890850866630663, 0.8577803602574523, 0.6628770093298204, 0.23761923907321036, 0.18825470812407033, 0.6963868842048421, 0.5761032211038601, 0.7353270780318684, 0.35723527093308655, 0.46801990710302105, 0.7509798330549068, 0.20979767616466147, 0.2066721510685763]], "delta": [[0.008404138486414364, -0.1065424699434134, -0.1267160089256058, 0.1059129149834746, -0.045437406307756105, 0.15266666609858368, -0.11406169051286259, 0.12897204900368348, 0.009980809577466521, -0.008250089305010215, 0.044131029869802, -0.06254619938464731, 0.07400146349013016, -0.08054913252937418, 0.12819896024593744, 0.07308870909087078, -0.01918040887617177, 0.0729644840953103, -0.07572636806941871, 0.1330538345656159, 0.1602101094568408, -0.16896170350431952, -0.04265539579559362, -0.08034459772886168, 0.019873403219416486, -0.048018911084696844, 0.22920938815212374, -0.0533962852678795, 0.03912679977629118, -0.08479072596288406, 0.08870901555583498, 0.002707099346625716, -0.001812726563065506], [0.012754099187002418, -0.04927667571476857, -0.10665948362722653, 0.0704741864285596, -0.01056724094430691, 0.06808977228714723, -0.059820670121151415, 0.031496129136134414, -0.01077524740967824, 0.0497248142737463, 0.02606029426582272, -0.030582466857189947, 0.040679306449611, -0.12699964845384304, 0.062189462997920886, 0.013913887044339334, -0.034109652676853404, 0.060303134468733754, -0.09046499990867017, 0.13279143032329696, 0.08404775102879626, -0.10775675423485002, 0.06874593769922115, -0.13629408548836, 0.053953599406484594, -0.04911098875210893, 0.13342625059808613, -0.005348363391085737, 0.10046380758381171, 0.004227796404264699, 0.08750823106278578, -0.0002746363791497845, 0.03211173266463745], [0.004691593514397049, -0.1544775270007648, -0.1165033445141866, 0.07578547446921861, -0.037214217686682476, 0.09077476771559889, -0.07659230803940009, 0.0839122098459219, 0.014528027008072632, -0.03664397984747156, 0.039525101039296254, -0.01012112690434951, 0.07051887795349943, -0.018218816487888582, 0.12036426488819897, 0.08144299533981081, -0.0038847363817660976, 0.029140839142811525, -0.04085593154015556, 0.08745712146617848, 0.06681288323802659, -0.0321367794994713, -0.07532847387695059, -0.09501044344264423, -0.006671643308282008, -0.019614272993097544, 0.18001205556492306, -0.06890374175755996, 0.0015278362892072479, -0.09497092909552651, 0.04873539824982021, -0.00573906687124733, -0.030003522546985458], [0.005829592402062902, -0.13719210370639326, -0.16650321832118045, 0.07164388396940877, -0.02293035088163793, 0.10129249154687484, -0.06797689730331852, 0.04633506302011887, 0.01721289840718471, -0.02869792016083684, 0.035827422094170704, -0.00884875382039465, 0.07126004445059322, -0.03488932191718296, 0.11731026831571373, 0.10187702615835179, -0.001942432916632346, 0.028869938153452557, -0.05428319847142873, 0.06443341040888417, 0.05123428750499847, -0.030800317012540566, -0.0341572572187542, -0.09218531425113116, -0.0020103059320701368, -0.0307348872239656, 0.18362304326098694, -0.040299821999823716, 0.006404192142329331, -0.08801881000875161, 0.04905431572171706, -0.003028368501723687, -0.024755420052171614], [0.0014463429579997134, -0.011212121818021626, -0.030586810800375352, 0.09105462685025757, -0.05983097810268303, 0.014863737881853434, -0.030221482097478117, 0.07265253165335096, -0.035343305432506744, -0.0035831309649273667, 0.024806919280190583, -0.017631908947657267, 0.04033305336688035, -0.016812063549456666, 0.07408420252168618, 0.03681973620622326, -0.032662342871543834, 0.04323872179562364, -0.0243961430825947, 0.11749199908869375, 0.09802990713878924, -0.11409346857266851, -0.003299743511710778, -0.07943650374640768, 0.011605868265559725, -0.0056322672269947405, 0.1461675850158506, -0.04250312736739689, 0.05410218718003241, -0.006869480052369791, 0.0828757055155107, -0.005312704156706782, -0.0006279914918635546], [-0.010233422804474984, -0.12348351452073679, -0.27602520767148797, 0.07776275879435862, 0.0036652425987967452, 0.1368018026941446, -0.09487642227395517, 0.020386905652762632, 0.04966982848690258, -0.0010623199838927257, 0.0301377452484149, 0.01046817429412499, 0.0695482914010088, -0.09991016371790787, 0.10326181021631296, 0.0943455805934908, -0.020313773359268643, 0.02954122774050001, -0.09997176928750386, 0.10557588060315745, 0.07779698988873113, -0.04502449020384933, 0.061055569308847646, -0.19809197168376438, 0.037410214574492506, -0.058961041054415256, 0.25778172835747143, -0.01870150042802575, 0.04789689280851721, -0.004193153666108686, 0.08502399278015337, -0.009623193142022781, -0.0341050718810637], [0.02453978053971314, -0.0679038285927835, -0.08707204788397896, 0.03626247973583973, -0.008592086001528186, 0.05698006716465611, -0.02673273365235643, 0.02651507045622586, 0.009355074723452123, 0.02252801885508782, 0.027298529914576947, -0.018447315418916893, 0.0708993871406533, -0.061226991381249006, 0.063790210908328, 0.06224355005440035, -0.013358781680803176, 0.03219026667250592, -0.0473884451599858, 0.02519374773290979, 0.026962691954162076, -0.02550048314844817, -0.010914344138761493, -0.07807404850721648, 0.030658373678284376, -0.044872516188401636, 0.0925093012831149, -0.006699760595964534, 0.03290242703958253, -0.02396001150298831, 0.023775022047294862, 0.010643377444009847, 0.012579418339141866], [0.03196825185149763, -0.1424770286916493, -0.2924285204830722, 0.10233190656078785, -0.05714523375962144, 0.18985527609024758, -0.19660833167905803, 0.10486383476061463, -0.007643578539581324, 0.03863556106710842, 0.04813835637535388, -0.05992737606625381, 0.058452735031169836, -0.12168961546311483, 0.21562906702779255, 0.03724335018292084, -0.045151078034731285, 0.07410326351430745, -0.12707799953104967, 0.06287159608860408, 0.20249912941339965, -0.1289931940209943, -0.025054551512168753, -0.16100588928222284, 0.06391268807418932, -0.06394059477196809, 0.15297043189942652, -0.015065986332008919, 0.06965896587303588, -0.011076810878087777, 0.02565216370144715, 0.05530950980335066, 0.006683780459227255], [0.03621719564276061, -0.15856352741546467, -0.29926631544835997, 0.12821202472361276, -0.054305653714250945, 0.2839385647933985, -0.24517967143567732, 0.14690299379564029, 0.008380530537630878, 0.05068318123668867, 0.049620477043148016, -0.12677133563157, 0.0803907043671914, -0.08494053693941865, 0.1730342966475827, 0.09882746638194885, -0.014902288083072838, 0.10144002567362811, -0.1479165631394916, 0.15496797311877109, 0.2220574171082261, -0.18742148649120374, -0.03937632710055199, -0.08431316246318499, 0.03313239358560639, -0.06931141313620404, 0.19745820083600613, -0.07323802671602772, 0.07039980682536952, -0.1088953244558642, 0.08565448098748135, 0.021295364786472107, 0.020009786073506133], [0.029417447024042444, -0.011001863689828448, -0.03344694300630397, 0.03861724678002356, -0.006403179842588266, 0.06374645603112099, -0.04800344951733465, 0.014227698081625892, -0.025687143824992806, 0.037668096104156355, 0.025317594707523185, -0.02257921127984792, 0.06850341333086643, -0.11518849601552585, 0.08028729673500141, -0.020540844841306728, -0.05782583691045635, 0.059395045104656936, -0.04398260265930049, 0.11134552671345882, 0.07491954236472621, -0.04058125582063704, 0.019691618559015172, -0.13807913150470597, 0.07420589024624603, -0.04804506546568777, 0.18122445552895816, 0.008336049719243859, 0.0927576787708078, 0.038490685751705826, 0.08588331394954922, 0.030452345716323843, 0.025819298810398135], [-0.0032081372726267547, -0.05448908266982059, -0.1847574446270806, 0.1085757463656262, -0.05352774513100071, 0.06278266686170708, -0.0849422578010414, 0.07589370390084016, -0.010044936994777931, -0.002733086191373364, 0.02635401875222323, -0.01950931308282519, 0.053534342229659165, -0.07812242815290192, 0.1007352015958024, 0.0732747695695161, -0.03204790798947313, 0.054992887629378984, -0.06910202792289472, 0.11877426537162744, 0.13085604370637458, -0.14472354404874355, 0.02453497390603594, -0.11983002989900461, 0.03204944938084143, -0.03154510753219893, 0.2426078257549961, -0.03159801317516731, 0.06129900153745614, -0.01014660030448753, 0.09053380081362347, -0.0022016259265133275, -0.012479975850387055], [0.01760651033602695, -0.12039555880569693, -0.2522853906159423, 0.049482961008665644, 0.012195870271427833, 0.10915690243017852, -0.11037775317674225, 0.007278580237862427, 0.02790254454751337, 0.06438597640891638, 0.017627790331502857, -0.0258128011642848, 0.04106002339036362, -0.1614196756521888, 0.044951980507876584, 0.051939389668004876, -0.02067990580128589, 0.04032634382837863, -0.12111736977795944, 0.07701710534033572, 0.06552324675439318, -0.0307886834141031, 0.027417387350933912, -0.15290545382434068, 0.06743865078855392, -0.07894583968003085, 0.2024520260071252, 0.003595863826046291, 0.06806598049700152, -0.007213957548966876, 0.05565608150219038, 0.016839153628445576, 0.011574284079046405], [0.02248618761055657, -0.17181947197442857, -0.23779428782474857, 0.12201239270464634, -0.05188092590620064, 0.20376570663992208, -0.19343392709878945, 0.1416863406800083, 0.004480861970407394, 0.016516253506740432, 0.046364839752401715, -0.08491843076432665, 0.08057160724086379, -0.11417047548922395, 0.18270327573103015, 0.07991977812112175, -0.02252100710938018, 0.09195474741728243, -0.11045651696346276, 0.1455193595158087, 0.19919749149847726, -0.18522822260572938, -0.03558565509056344, -0.09845330286008976, 0.035553075242785476, -0.06926590681433267, 0.24992018599567253, -0.05547910254562827, 0.06493253317859182, -0.0815382163992274, 0.0914811352107264, 0.014330113566561565, 0.01354411785116484], [0.004157552219059704, -0.11009601450355916, -0.13895525573559447, 0.06231118796395694, -0.019073926607896682, 0.07784760224321484, -0.043469161619931355, 0.04004603655598984, 0.01409660575043674, -0.03058506918527177, 0.03542698787820754, -0.006785524286546377, 0.08321419906402361, -0.03406364611222359, 0.09834696823612295, 0.10171569837364461, -0.0023624395327576674, 0.021407356960932655, -0.04629853869938915, 0.05319609830917669, 0.0350986343179026, -0.0253554787391279, -0.03547897449058104, -0.08771138938896689, -0.001908932479767381, -0.03190263769631033, 0.16477368153433172, -0.03027578502225584, 0.0035381238907733034, -0.08012056998703015, 0.0441049284491667, -0.00466479733742058, -0.025805174308405742], [0.03719541450374918, -0.06675887896939642, -0.05617960744202261, 0.06779475231118433, -0.031135274617978423, 0.13708262849256955, -0.10299135186196508, 0.09428494343425635, -0.03864015220272719, 0.02430440984500552, 0.04697868790108404, -0.06870949079603464, 0.08260798656517775, -0.055371822119983045, 0.13807910517550462, 0.011172675169415967, -0.04783816031751453, 0.07873650140993343, -0.08149526287759912, 0.10970761587855668, 0.1264176311137541, -0.12061887219290385, 0.003583516358473286, -0.07357953395875547, 0.04393495512352503, -0.029380850051091707, 0.0747137086971209, -0.03033778702917677, 0.1140603917953831, -0.008883471119739436, 0.05577575580367858, -0.001077358496794047, 0.031990894645310644], [-0.000937182047719275, -0.07643537393491462, -0.13924801855527202, 0.04765656732987881, -0.011420144080509427, 0.14386317268229282, -0.06313056514808131, 0.013062535691346923, 0.0017699135185902807, 0.005873876695693669, 0.009298564645487587, -0.0059362659927059925, 0.04854855328032422, -0.13925837130696522, 0.08917999155482956, 0.03240779277498825, -0.027168529927019888, 0.016596895390022005, -0.07575856484039543, 0.06726557805009958, 0.03688608293660405, -0.033078613674141215, 0.01954696755402248, -0.08138073886433925, 0.06050673340357034, -0.06399944530902503, 0.18818110607846766, 0.009089681173836291, 0.03858631626342895, 0.038039679197242715, 0.06606928165039354, 0.026800095509889873, 0.0016234510227851754], [0.0389097742757638, -0.07808397843639826, -0.18974822815568776, 0.0643695967542697, -0.024002310380959426, 0.18792514439303726, -0.15464345191193773, 0.09227301199215278, -0.028556644866129383, 0.022170766137207847, 0.038380435201814125, -0.0959425583005963, 0.06897210810517607, -0.09703160821139903, 0.15837204067325264, 0.02678807195431041, -0.04707598545706285, 0.09137472473340034, -0.11583256657047464, 0.12397920202490045, 0.15184968459910358, -0.08890385197496174, 0.009641493684363248, -0.12700235483112182, 0.04943554382477027, -0.05202697944327282, 0.18347104875796272, -0.03778037571112816, 0.09847408732404325, -0.006415849093738808, 0.06667967849233519, 0.020956528616826797, 0.020214378963570392], [0.021286208805586414, -0.09898255171632674, -0.1513179862085239, 0.09416994415457193, -0.04356997063220292, 0.11393350590738692, -0.12006519596840981, 0.10714262715648419, -0.008758099757872584, 0.005600480765497853, 0.045066584590332553, -0.08255332552366218, 0.09530316276763899, -0.12605593640071364, 0.17504412999397315, 0.04649515905634271, -0.0453189248685269, 0.08439917444075619, -0.08167608876548103, 0.11221148347762083, 0.1786019280651914, -0.17889319609996399, -0.022520744176083428, -0.14527632069394428, 0.05729979133895628, -0.05617281596482586, 0.22807744631287977, -0.03823146233865813, 0.05768398748360885, -0.053396895353690056, 0.08929428187514196, 0.03039014523606589, 0.003869978092509529], [0.015517706967965178, -0.0811865742876433, -0.09580852198983089, 0.09639597313661008, -0.05646289600800158, 0.06915585522609038, -0.07764257485954863, 0.11004515098716866, -0.014804287940533529, -0.008931264611688536, 0.04738242286149463, -0.07570650620838569, 0.10073503818378943, -0.08636490818320479, 0.18374787885383978, 0.05290958613601374, -0.04612456810581363, 0.07675176652397098, -0.05148722590973668, 0.11374791057786823, 0.17339211632518514, -0.17956282922187322, -0.04240958719430475, -0.14126483345561455, 0.05081724270384643, -0.035256616086825274, 0.22532649522437997, -0.0414979600013086, 0.044747380082539805, -0.053174498766546424, 0.08608055670138094, 0.02876518838545206, -0.0037270710872068296], [0.03932274965748583, -0.17233779174636335, -0.1826859857800262, 0.07050947084045195, -0.03653595987994052, 0.2344009569998781, -0.1861828724342845, 0.08998634433319698, -0.0024513545639950497, 0.016587266177819217, 0.04198024510596613, -0.12295132685277041, 0.09822509074393411, -0.0773812147143659, 0.19764756874354666, 0.05377109373022118, -0.03277225465488465, 0.09273143085035906, -0.09611877434925621, 0.07301038916187157, 0.14043204458350156, -0.13469722238193804, -0.03440868603184315, -0.08886459946595537, 0.053347224815239375, -0.06185083291297652, 0.21201898734897445, -0.020688751700345284, 0.03172614729589082, -0.06450593121246222, 0.05947618102951061, 0.06536324988830859, 0.01563275777323482], [0.03854268482784786, -0.07633486308485835, -0.09046497939576904, 0.07856113346807317, -0.03016204644814979, 0.1613680920637459, -0.12177326927147078, 0.09965061709192755, -0.030032703348700333, 0.022770592773156403, 0.04796644172099329, -0.0791597972831836, 0.08720741985785382, -0.06708387986513607, 0.15597196523917609, 0.02057439484580306, -0.048936304180496965, 0.08316970471780638, -0.09710444442523637, 0.10710376881804991, 0.13909933895815532, -0.1258780706143637, 0.005211410634957122, -0.10510022616944477, 0.05143169857402165, -0.03609368929692748, 0.11882386373797975, -0.02861260005393268, 0.11150226380488645, -0.00900581041992059, 0.06039084431684659, 0.0048641546239068315, 0.027682072805297265], [-0.005894265378389792, -0.07452914085062586, -0.2392631251222799, 0.11504541213722246, -0.04328783677674882, 0.11463459055839617, -0.09318088490764707, 0.07599356128703603, 0.007837765637844626, 0.00494106989659365, 0.02666249706313449, -0.03626146266719143, 0.06846106894002889, -0.14641242768433105, 0.1253029410395219, 0.06678655277765376, -0.028139626125778586, 0.0631914765243502, -0.09999686331725796, 0.14175223060702505, 0.14818513113143675, -0.15720525948537126, 0.043852836852094915, -0.190842720942871, 0.05182845234110082, -0.06496391570395864, 0.27875217133509766, -0.025966784672068793, 0.07835664320133441, -0.007290135587132775, 0.09899848905751199, 0.0036766486943794864, 0.00047821217877296924], [0.047767199484120434, -0.16818579484495638, -0.20665433273224745, 0.06665837559807623, -0.03302648111271903, 0.27927543239397273, -0.18997378096178624, 0.07586268192830055, -0.005862982901624044, 0.02815635628040301, 0.04091530838770624, -0.11567780712654797, 0.08947910524833777, -0.13724536225233464, 0.18628452539879378, 0.048581249334067274, -0.03422518462910195, 0.097283628039949, -0.11487562336026423, 0.07851839473058142, 0.131706742686468, -0.12141071493714356, -0.025602438006546584, -0.11355139673885714, 0.06419610900203163, -0.08689331328256684, 0.22245167518265974, -0.01999784443243872, 0.041149786065286485, -0.05212441546872653, 0.04887214335169241, 0.07298248690275423, 0.02285232451000731], [-0.007018104331245224, -0.03414200456871906, -0.08705884327916408, 0.09254677277775389, -0.05129087358861558, 0.03108126062282872, -0.026110277870154675, 0.06959868180473187, -0.013253760903871483, -0.007383107156725386, 0.02595486680625551, -0.00914280832590158, 0.0542240640359029, -0.051852499406372383, 0.08730857412371229, 0.058639095406558414, -0.028711208309283295, 0.049686218818166754, -0.04249056050181742, 0.15178981862025454, 0.11422153954695671, -0.11938154186748055, 0.020000211532686746, -0.11985856374726733, 0.011394616995379166, -0.01480665566330908, 0.18441274650690453, -0.0451915599902152, 0.06713748380036895, -0.011931270055984296, 0.10424063184029779, -0.016890828336720214, -0.004999211295729572], [0.003950242414744961, -0.116286129255296, -0.10693605685927902, 0.06637377843388795, -0.023852874662294663, 0.055964287308350166, -0.026237955425722992, 0.041569096414747334, 0.01789959797284841, -0.03183201279619829, 0.035340503347803, -0.006494016402156944, 0.09788792113620227, -0.032462926717045676, 0.09052933382197897, 0.10968320310032136, -0.004119908597243735, 0.023436294512334564, -0.03359729646237415, 0.048632250955291036, 0.03568019504031431, -0.029150946352172306, -0.03762775925857937, -0.07134161157814685, -1.0100524071396288e-05, -0.027476898344453774, 0.15533316574822859, -0.02557054010248288, 0.0035470727347296964, -0.06685952807000542, 0.047955400422831446, -0.004240162834444542, -0.02293324966942221], [-0.00027989599892830314, -0.08853339026405188, -0.09118746054039506, 0.04368846856524964, -0.008925303878876798, 0.14840966963988333, -0.05599818486570006, 0.007535164281894613, 0.0024549430636622563, 0.0035884397342213757, 0.009204119636916301, -0.004254018280982093, 0.0520147344544502, -0.1026724913889207, 0.07401783004851108, 0.0383752307089552, -0.025637977901153377, 0.014463363830970992, -0.07093550217478387, 0.050610270464431104, 0.02331394454245934, -0.019953885072865815, 0.003914993708375036, -0.062392245729542654, 0.057678505358289354, -0.05936937628682148, 0.1790085027627804, 0.005754522529067703, 0.03064903824030411, 0.02190140591878773, 0.0606077076923687, 0.028244967942444348, 3.838185043776505e-05], [0.029495409005017726, -0.15673387326481267, -0.26048982758608713, 0.11637100626131008, -0.06603207414833946, 0.2413761226811772, -0.20689841612744217, 0.13555600610221957, -0.005392587289718794, 0.024474107862565733, 0.037599125809896425, -0.07460720396919089, 0.11043879387794504, -0.1320755898784738, 0.1984279110823579, 0.052285819820129226, -0.026562667397150637, 0.07905061471495657, -0.10108765153757895, 0.12966604944625673, 0.19909634138695853, -0.18450211731278815, -0.04489084734631089, -0.10537387037650767, 0.035767585691274084, -0.08152973902466872, 0.20209893519240962, -0.04461706461059717, 0.06509109572569716, -0.04874506215140323, 0.05355721151113899, 0.02967010650045113, 0.015919961602196626], [0.04293365064598772, -0.15494927806468756, -0.30490939845414533, 0.11439980704966538, -0.05863256953361479, 0.2503204026808714, -0.2011772396261982, 0.15308166353542502, -0.024276828131905764, 0.0512293663388822, 0.05083459824552615, -0.12231456798721911, 0.08461794990707155, -0.18063582965982639, 0.2297390664257774, 0.055917214010730285, -0.037272123500043976, 0.11064117275611837, -0.14779743526823544, 0.10711013196119795, 0.21059968939267623, -0.2350112631615766, -0.03802181122424017, -0.13508547337600268, 0.07863328246986456, -0.08351617988758926, 0.1829108325807146, -0.05245830798815853, 0.0792837246365849, -0.05993492389518607, 0.04611466051831128, 0.048862704956232635, 0.028004732452796735], [0.015124696959990162, -0.07764608136519557, -0.11623528763533725, 0.08282822722276836, -0.021898146486062513, 0.138891792308822, -0.10678041502832937, 0.0819120957945185, 0.005251383003170351, 0.000436584372247262, 0.04006054741119683, -0.06268963669711308, 0.042437062102237154, -0.08504952788690238, 0.07909030466691865, 0.05913494484832759, -0.02545239838854259, 0.08463863666576124, -0.07183396840171677, 0.13587333078860123, 0.1574688095506017, -0.1369983829331036, -0.015967479560016793, -0.07664401606807732, 0.027611930002929844, -0.04494500752315974, 0.2254805366127008, -0.05082955737696036, 0.045326501608094975, -0.06401682565696001, 0.08914432994997319, 0.010859319002279967, 0.004298320589424448], [0.04698803297510147, -0.10975351527490239, -0.1741403614154724, 0.11698347986690764, -0.07484488064824354, 0.24389572592336528, -0.21371372560012228, 0.09480792945944777, -0.033188810985482695, 0.026007363458939843, 0.02730999690345796, -0.08760385094486996, 0.09852750886553828, -0.1292288115590009, 0.2089996181609806, 0.033831827546355664, -0.03251382237904848, 0.11631209739507518, -0.09590235274880862, 0.16504030437434627, 0.21640995670103397, -0.13450173456119, -0.050071061937602704, -0.08870921054514305, 0.04096721752179511, -0.07328220455505487, 0.22527437285399973, -0.08206921443861262, 0.07705223152122068, -0.03252804396693306, 0.08922938857983315, 0.05759656527504826, 0.03419901063251885], [0.03347309375151304, -0.1544521487967053, -0.1254230424781375, 0.0976629380625499, -0.057482029566466246, 0.1946430717303288, -0.18475118525917872, 0.12073044621725801, -0.010914091021034784, 0.0053818518149472494, 0.04876258456872024, -0.13099763013734075, 0.07861438702451148, -0.0842275674877049, 0.19866811860507078, 0.06410114902505147, -0.033033711557792625, 0.09173463910690602, -0.07759560688121352, 0.1073679721496958, 0.18884276801704286, -0.16074471011743563, -0.05113584135400884, -0.11036094588898379, 0.040710314813671614, -0.046678554335200184, 0.2227479357255726, -0.05293044011115817, 0.03634969528471384, -0.09330848027045911, 0.07957153297244446, 0.047224138278674596, 0.011503185586672696], [0.00235973355436131, -0.2113436348021534, -0.23762271820966932, 0.10223558850003692, -0.04123161680685555, 0.18299511325746176, -0.10583662744720447, 0.08163766594108654, 0.012266085978950413, -0.039642975609720466, 0.03468687619866604, -0.01286204635508636, 0.12538327660612447, -0.042269014604963975, 0.19023247667963458, 0.08345384860703035, -0.00598740305266009, 0.03612831209387817, -0.06691590403320924, 0.08598807908625515, 0.09429984361595738, -0.06865581197349624, -0.06942554272581053, -0.09452786226716592, 0.0011440094187064912, -0.04767163169992221, 0.22657641261734288, -0.0593722731482075, 0.0038572919133250706, -0.09604778655875412, 0.06079819613860388, 0.00014413940671612952, -0.026830252046449395]], "gradient": [[0.0, 0.0, 0.0, 0.0, 0.0, 0.0, 0.0, 0.0, 0.0, 0.0, 0.0, 0.0, 0.0, 0.0, 0.0, 0.0, 0.0, 0.0, 0.0, 0.0, 0.0, 0.0, 0.0, 0.0, 0.0, 0.0, 0.0, 0.0, 0.0, 0.0, 0.0, 0.0, 0.0], [0.004260496820144416, -0.039847226149944896, -0.06938521410504267, 0.028927658215214036, -0.011615096981663466, 0.06250245489057282, -0.04118506317562522, 0.022284034526797468, -0.001044863240165981, 0.006598207281578025, 0.009577988162172715, -0.014454091347725665, 0.022973497327601306, -0.04729720918587715, 0.04954528528991407, 0.017192050568635656, -0.011717297585250872, 0.018207875267980563, -0.03672992529005591, 0.028972798128132523, 0.03945161147280567, -0.03631696074290872, -0.00046740904744930643, -0.042131926299357775, 0.02296312118500142, -0.024408051201498773, 0.07197868400647375, -0.0047642194628145715, 0.01995290302699172, -0.0007873532877527146, 0.022036777272148533, 0.012036485455080988, 0.002205116915131891], [0.21159655413667705, -1.1916896587571504, -2.0079527577505893, 0.9484623124722211, -0.39073589628809374, 1.718605355633998, -1.4053011657573014, 0.8802997136405935, -0.03676735037773952, 0.23407979291840092, 0.3731896860126295, -0.6639387492388138, 0.7547176680326886, -1.2408265292807839, 1.5243994800811405, 0.5629054156569351, -0.34033649120918347, 0.7447436231829561, -1.0483891029459433, 1.1667323277307466, 1.49926807677625, -1.3540275981123797, -0.0870377810912695, -1.2855998229068841, 0.544111522076759, -0.6444706239607506, 2.1837280413271025, -0.32670237182248046, 0.6613974841637219, -0.34305426843080633, 0.782624338847879, 0.2769004141237708, 0.10560431672028868], [0.47743734742462474, -2.652812154296453, -4.127531193933251, 2.1180026515990535, -0.8993273164590603, 3.677608068436007, -2.9725715631861096, 1.9818249713064728, -0.12614509970147206, 0.3148537254911726, 0.8794984954612026, -1.3828861725021564, 1.8468272324307575, -2.4314955597024754, 3.4759386520966475, 1.287455065598804, -0.7624716211953467, 1.6563201740252023, -2.1225051625832303, 2.671707602466043, 3.2564262342732575, -2.8714318629661175, -0.28653764910450064, -2.8376717957918487, 1.0478113125385564, -1.309004067042021, 4.894875731531403, -0.823698206094167, 1.450253328976834, -0.86476491450204, 1.7742893334804346, 0.5095033987567668, 0.16625767339185907], [0.42856380520394904, -2.5722915585511466, -4.050025336088893, 2.1236279640074036, -0.9006116587131615, 3.3974135821225797, -2.7627524045502985, 1.9540407568912543, -0.06562516874901189, 0.23618450013058825, 0.8820283253591157, -1.2674516565742546, 1.8321891416442306, -2.2309942389296493, 3.3320042659591373, 1.4420902973954386, -0.6826837680227645, 1.5785398438096208, -2.001965591399034, 2.5727408632643387, 3.141039805376928, -2.8148415170403474, -0.3192955599882632, -2.737904482845419, 0.9203671247163049, -1.224150117222603, 4.7591286255775, -0.8511977366755261, 1.3387838447974636, -0.9732277198934987, 1.7284612696909385, 0.41234276876194975, 0.09968921503260338], [0.18896852638561917, -1.1410477832526549, -2.1082129417930706, 1.0591563990592854, -0.4648137927652663, 1.6644340079806035, -1.4496107087433, 1.0012088760548754, -0.01550579584969136, 0.1664359166966659, 0.3966098628090134, -0.6239256030347873, 0.7323096546655209, -1.090246894596554, 1.538744413970047, 0.6660203846524638, -0.3018912125423762, 0.7954918269058114, -0.9980921862763483, 1.2793000501054965, 1.6858185671042203, -1.4925118200441856, -0.12425494525048453, -1.256824460764392, 0.419890968807726, -0.5814206007646328, 2.231927348450182, -0.45897064191549974, 0.6404818063636537, -0.4421136834984827, 0.8126839334082763, 0.20149486064674954, 0.05483819530491937], [0.04446403080230685, -0.2378952895766443, -0.43716465747377004, 0.20213179797317896, -0.08881376999910995, 0.3535599768666067, -0.3069395241054691, 0.20615890878309864, -0.007316367969332836, 0.039470714860612995, 0.07961406573359887, -0.13525379716802663, 0.13584010521360626, -0.23225133038817705, 0.318271385610093, 0.11914260542767185, -0.0594901578721988, 0.16314881517709234, -0.20564194630504629, 0.23106127626672926, 0.3414960966844594, -0.30610182104708983, -0.035456453158752406, -0.23420237464894472, 0.09108644571511376, -0.12059794904803296, 0.41592197124453445, -0.08796469081085227, 0.12231140961607778, -0.08876709689991993, 0.13805231541620244, 0.05110146628109157, 0.016103297433458817], [0.0, 0.0, 0.0, 0.0, 0.0, 0.0, 0.0, 0.0, 0.0, 0.0, 0.0, 0.0, 0.0, 0.0, 0.0, 0.0, 0.0, 0.0, 0.0, 0.0, 0.0, 0.0, 0.0, 0.0, 0.0, 0.0, 0.0, 0.0, 0.0, 0.0, 0.0, 0.0, 0.0], [0.0, 0.0, 0.0, 0.0, 0.0, 0.0, 0.0, 0.0, 0.0, 0.0, 0.0, 0.0, 0.0, 0.0, 0.0, 0.0, 0.0, 0.0, 0.0, 0.0, 0.0, 0.0, 0.0, 0.0, 0.0, 0.0, 0.0, 0.0, 0.0, 0.0, 0.0, 0.0, 0.0], [0.04687756975737729, -0.41724171035479884, -0.7546135800429141, 0.3645868644356022, -0.15259455128370955, 0.6242637086623386, -0.458780767027751, 0.3092807132020284, -0.014929153601637884, 0.058408389397128044, 0.12560110013479003, -0.19049162681321077, 0.29046482714244093, -0.510862100333084, 0.5697840474769499, 0.21459477904161064, -0.13555782624572682, 0.24168980480728053, -0.38470613412260757, 0.43307846469824696, 0.5219698703717504, -0.5095202266540754, 0.0007781559606810165, -0.5070709551591257, 0.22233685457285873, -0.2520938674703683, 0.865976910817077, -0.10113361769469904, 0.24617373800825582, -0.06573386874533749, 0.31394557796820216, 0.09589416933895611, 0.020945788985468082], [0.40904247977235986, -2.470859313913208, -3.9663392916197564, 2.0394559383871065, -0.9113895242963941, 3.472028233322063, -2.842372677131643, 1.9454807794751277, -0.10829936010547166, 0.26885985732375994, 0.8082065034984008, -1.3334260285307444, 1.6724109195457626, -2.2146958924741567, 3.291399193799493, 1.2542635868064154, -0.675321134692979, 1.5430801856409768, -1.9839112088402324, 2.4958723129091487, 3.1376637539748744, -2.8469925561093525, -0.26987550823879175, -2.591372961273111, 0.9277525860450938, -1.196585391243099, 4.536802667808524, -0.8143412171150511, 1.2923501794939671, -0.8507776383598924, 1.6473351562610643, 0.47228240490916845, 0.13056944675316232], [0.49791230952536125, -2.836325607929864, -4.166794159014769, 2.093731766326135, -0.8822617440809422, 3.7785030747456787, -2.9592814371828347, 1.9957475944544445, -0.06492597926248894, 0.22395376862781746, 0.9174485674333946, -1.3947784318123289, 1.964895371990524, -2.2718355794323783, 3.559129815498226, 1.457427747906876, -0.6930183617428818, 1.6215304106228354, -2.0932242595782453, 2.5405311859420405, 3.1275159377571664, -2.7152586383291664, -0.4395250676278225, -2.768723790692298, 0.9604062406224788, -1.2945967188099017, 4.840848445829649, -0.8780500835450935, 1.3198304913991594, -1.064525342796436, 1.6865395497678297, 0.4915718848947043, 0.11010967652261991], [0.33234009054698643, -1.860790270297741, -2.832183819299964, 1.431404680279559, -0.5582519511786898, 2.514584993252533, -1.9378894859477318, 1.258476334206332, -0.03304597074798734, 0.24371170247044494, 0.6189247587908739, -0.9684348487219656, 1.328571240184462, -1.853706824403345, 2.3556610092669588, 0.9743287286888835, -0.5426840922175874, 1.1417263988280735, -1.4913498113225496, 1.7996955662570402, 2.1222638023433325, -1.945861285182374, -0.14162032869744776, -2.103527169855146, 0.8251763322647717, -0.9840248759520482, 3.596190173307327, -0.4850735201359009, 0.9762927949486014, -0.5940558241388187, 1.284561590690897, 0.40786622431105624, 0.11938297378060014], [0.23607096485354995, -1.467138841510603, -2.3596965686637943, 1.2308378730972407, -0.5128371088529731, 2.020848875344785, -1.7316362536273382, 1.1754992008222005, 0.002956320544751097, 0.1897369732741644, 0.49115665874877057, -0.8692807086828769, 0.939520974291919, -1.3098631473982587, 1.8249874182447592, 0.8202294134621189, -0.3811789010898421, 0.9732448271905928, -1.1803174769867555, 1.5732136000522505, 1.9504098861444297, -1.7997756077232574, -0.14340771334597296, -1.5466995438186217, 0.5372450311924198, -0.7153089346627991, 2.8784418243708023, -0.5147503311416851, 0.7388376624691931, -0.6204669380421538, 1.0726322148896772, 0.26853003439887946, 0.07366224617114706], [0.05166432961342995, -0.45195745663438086, -0.7705819397212449, 0.39539543550812356, -0.16298975174687735, 0.6060728629938031, -0.5177885496395275, 0.37063674752433157, 0.012852879934738683, 0.027946415292532126, 0.143825792854613, -0.20772110013228756, 0.2844938766293524, -0.37120694726287107, 0.52685210871599, 0.2696297899792758, -0.09985908713713187, 0.2764511444657901, -0.3440391258211078, 0.48555635912821626, 0.5949944904325498, -0.5513398276705479, -0.05510173467287089, -0.42760689697626436, 0.12852028259179013, -0.21060215942596072, 0.8945156078870704, -0.16839498866203392, 0.20937076770461202, -0.19603573497978566, 0.3170381369985268, 0.04783000944098312, 9.597641486880186e-06], [0.0, 0.0, 0.0, 0.0, 0.0, 0.0, 0.0, 0.0, 0.0, 0.0, 0.0, 0.0, 0.0, 0.0, 0.0, 0.0, 0.0, 0.0, 0.0, 0.0, 0.0, 0.0, 0.0, 0.0, 0.0, 0.0, 0.0, 0.0, 0.0, 0.0, 0.0, 0.0, 0.0], [0.0, 0.0, 0.0, 0.0, 0.0, 0.0, 0.0, 0.0, 0.0, 0.0, 0.0, 0.0, 0.0, 0.0, 0.0, 0.0, 0.0, 0.0, 0.0, 0.0, 0.0, 0.0, 0.0, 0.0, 0.0, 0.0, 0.0, 0.0, 0.0, 0.0, 0.0, 0.0, 0.0], [0.09859025430373923, -0.7136761096072356, -1.2143725532540448, 0.5691579467788864, -0.25808441501686197, 1.0009291014744173, -0.7849133162918221, 0.5195978625347212, -0.02405900381630174, 0.073974640757281, 0.21253551959414438, -0.3287849037600098, 0.4771713412952172, -0.7169679584619625, 0.9568338021441987, 0.3547833708593087, -0.19842167477504735, 0.40349148481661723, -0.571422834450619, 0.6645540020892114, 0.856889603632504, -0.7970232427893029, 