{"net_structure": [64, 32, 16, 10], "learning_rate": 0.01, "loss_name": "CROSS_ENTROPY", "layers": [{"activ_func_name": "SIGMOID", "is_last": false, "weights": [[0.062089269126404084, -0.017283037646398082, 0.08096106726258656, 0.19037873205100317, -0.029269171840416996, -0.02926711961864757, 0.19740160193842393, 0.0959293411441136, -0.058684298241869014, 0.06782000544824558, -0.05792721160155778, -0.05821621919628211, 0.030245283945754264, -0.23916003058222474, -0.2156147290641291, -0.07028594115512159, -0.12660389004180297, 0.039280916574409235, -0.11350300944015136, -0.17653796266691144, 0.18320609611519426, -0.028222037560816957, 0.00844102558599048, -0.1780935232766821, -0.06804784056564783, 0.01386532371373326, -0.14387419717778785, 0.046962252293208995, -0.07507983623985062, -0.0364617187241596, -0.07521332652867461, 0.23153477306361722, -0.0016871530922417401], [-0.272079926955828, -0.107274810990011, -0.26820490328594093, 0.31309177478588796, -0.5018774873608333, -0.05572257535466856, -0.3129528478866571, 0.2692944488154479, 0.06774811051564672, -0.06499968311068093, -0.10237608517709854, -0.14946181311889778, -0.11282921538944525, 0.34162418989867765, 0.19103837590720793, 0.24214862938183518, -0.20726902056045604, 0.17699200062173318, -0.05720684892446304, 0.4364469845047046, 0.17928077423273056, 0.15515380056484387, -0.29864183698093794, 0.015111168486099625, -0.4572491247849214, 0.2352177791413845, 0.3204760591743284, -0.46187975321343494, -0.16031706042663763, -0.5549031047881922, 0.19593193036069198, 0.09556527039290469, 0.1380370447490817], [-0.3769340565387972, -0.7295669701380184, 0.08543645543037937, 0.24888533390650922, -0.3392134105574376, 0.9755090065572767, -0.2311355693164127, -0.8860040090080206, 0.19202898265450577, 0.2353341974945801, -0.12845554941717752, 1.073747138669215, -0.9136418889152894, 0.04434973828233816, -0.6711110699098433, 0.8532392609428685, 0.3734921769179237, -0.8630035017377358, -0.3487008805772169, 0.7055349080357816, 0.714087581870977, -0.315722783410628, -0.18041460145949528, 0.0005261524908987075, -0.48720278347237106, 0.8245489904005158, 0.4700565717638376, -0.46427731790654675, 0.13004343980524688, -0.6724533885965386, 1.14819657649453, -0.07713056269000926, -0.4578482120219219], [-0.5636561795377006, -0.4941807781313868, -0.9118868091150726, 0.6205381011078959, -0.643999646098095, 0.0567518962157148, -0.69829631798944, -0.018133233839066988, 0.8598822279189294, -0.15265902651784505, -0.24441223320773542, -1.1314972227412377, 0.83287388646475, -0.6205556546528505, 1.709142599883414, 0.3000478677936315, 0.4213058110724418, -0.07320657829611295, -0.40386236878502113, 0.40734082016494516, 1.108747410022863, -0.8933455942711717, 0.07759503310402231, -0.6329500801565401, -0.4318517280911584, -0.3515026880700895, 0.6594569199119082, 0.03522778709432542, -0.05985490550409389, 0.5766754875538784, -0.3020262869581747, -0.6168853762653868, -0.6617031237668005], [-0.36621879003806485, -1.0714523035284147, -1.2368090834087584, 1.1085518996217631, -0.4789644903294721, 0.6520650614830894, 0.21813194537224734, 1.1099289728789823, 0.7780669567501529, 0.20963009862973708, 0.17408959086024986, -0.9376779826563134, 0.6420198048421024, -0.34283176045713404, -0.12937928465199422, -0.04572439352838034, -0.0734249107083138, 0.18832565176256208, -0.9136524692883355, 0.2565677918291775, -0.8738867842978283, 1.2408920640329386, -1.202376174256559, -0.611363176035135, 0.9796106231402452, -0.18679345210429357, 0.36428932047707935, 0.44337264784798586, -0.6123976245216081, -0.7544498798508553, -0.40675956304706945, 0.6061912224079999, 0.511312106038579], [0.1546187479144081, 0.559290316879658, -0.7336780408523806, 0.13500134181636614, -1.1687553536057187, 0.5836732573140346, -0.5715218245830102, 0.31718061684082044, -0.6875057528170849, 0.6546763192033788, 0.7987225961360408, 0.5139105723194901, 0.55959683054732, 0.9984508017329274, 0.9269750959103349, -0.030461560963107613, -1.032737924046706, -0.07279149368673764, -0.31441963058361216, 0.7319793808639762, 1.2680910252550261, -0.2860326659713923, -0.008306547080906281, 0.2136533387307592, -0.8127261608024795, -0.25020783303715244, 0.8723186156600982, -1.0906874066170098, -0.11922494078010692, -0.6649412964830462, 0.7398153975652696, 0.3136977322186613, -0.4034053553501942], [-0.6385390084737371, -0.1128690681194858, -0.5843902459915103, 0.5039336724578867, -0.32320279299642024, 0.9752485670619739, -0.6352621763176328, 0.3050933391790601, 0.8050678634790341, -0.5459248325958111, -0.07075184338143084, 1.4355395743423085, -0.024118210351199817, 0.6225647230608382, 0.3988756984106408, 0.939673938088926, 0.05203777167406513, -0.16704883217631591, 0.02845139462979242, 0.7370781937814525, 0.7250521650285815, -0.20556602321773934, -0.2179529282058112, -0.23797594360075014, -0.5821875123165735, 0.1317423910910477, 0.5611082006015505, -0.46986899900577017, -0.4187182984030115, -0.5991422154936868, 0.6794583056624461, -0.16909018333983955, -0.6880590827585452], [0.05982004181134008, 0.05187078339883639, 0.3956522800356646, 0.4116461077750923, -0.119956443198714, -0.3081876019919771, 0.3337981358752371, 0.32753348845652314, 0.12680147447690376, -0.5011008260346399, 0.015614346310148533, 0.05452499576836208, 0.44472447801704196, -0.0450749785449266, 0.1397428994059759, -0.13913600053048236, 0.007457624632794553, 0.278829659868362, 0.39225843609984135, -0.21185229299518696, 0.12557495046063855, 0.22348514176860043, -0.48050592938339715, -0.19624635107405985, -0.1108354673760931, 0.12055164141600425, -0.255192553858914, 0.13126514117531515, -0.179625955452828, 0.10464063191500203, -0.23422465498513068, -0.4210114993602014, -0.19184167926857787], [-0.019116980455766368, -0.13420510620446227, 0.20904108449055614, -0.21027993881084403, -0.043582660131815366, -0.003590217955528691, 0.2681031240323785, -0.23076881009423827, 0.1557318990746891, 0.004175106863164732, -0.07353590518641022, 0.06876189282647811, 0.05281167553629362, -0.16744812379214036, -0.01554958138566938, -0.05487374164886567, -0.015055406158352885, 0.062012431193389124, 0.18737119971137411, -0.20447693654485583, 0.26287358901582764, -0.22965252111740556, 0.02545355327670059, 0.0390302492938727, 0.11694557005553465, -0.11014260736871893, -0.02768937598020752, 0.011095142453548614, -0.06314886781270093, 0.16780211748293858, 0.023027059105261424, -0.07406420577730177, 0.09210978229057859], [0.16710839530707963, -0.3624139454723705, -0.03583978656841379, 0.42415390946161796, -0.7400250054030438, 0.4006542949265447, -0.2537187127013169, 0.2997419241147065, -0.03207339001424346, 0.15828313095597105, -0.11635383917742449, -0.4045365737466018, 0.5842376547053642, -0.1543360338185899, 0.31796772725685807, 0.1711631180613396, 0.2416844668479277, 0.33477748832318455, -0.05522188166188297, -0.0046541993099644624, 0.5375117426889183, -0.3258907985159855, -0.9695078084927222, 0.38694895106883204, 0.13142991752419447, -0.23142885238298408, 0.007699166387410192, 0.13042164203539822, -0.2680527174698837, 0.5147013262968724, -0.35869019940822955, 0.323867767768369, 0.2088942363810567], [0.0007975939832457287, -0.9923218713159621, -0.3969446926978829, 0.4922453565419544, -0.6128343238754739, 0.5320339635742977, -0.043109912387801194, 0.10844981381168643, 0.2075871790032648, -0.00045991205062448294, -0.2887751219106486, 0.4021163194345273, 0.29490449139428543, -0.03664151344057563, -0.11037035183756312, 0.5531020792688617, 0.25371692918336786, -0.8145798113114864, -0.4072619097591562, 0.034727684047210376, 1.1669588473728947, -0.6869483741620386, -1.0465820553088392, -0.6902364996643785, 0.8120529329336393, 0.1358818626587374, -0.04410886763374052, 0.0789574726404855, 0.30146606491032707, -0.411534317668023, 0.3042638861168668, 0.45604381662927485, 0.24857711917172662], [-0.4732056722517969, 0.07670126037036783, -0.6813738075185507, 0.3438788734104073, 0.0837973156423736, 0.6874035726432154, -0.00013528224824648665, -0.5352490574084361, 0.92213577326235, 0.16796785796034702, 0.37813095946164843, 0.5627835412594572, 0.11778621536252462, 0.008327853847302136, 0.4557169805899151, 0.7435683729381443, -0.11689587735794432, -0.29902718751978985, -0.6474189267356835, 0.005547464249806149, -0.2327606095787383, -0.13006275509913334, -0.26992346880615503, -1.089138481944685, 0.2238262572833457, -0.4383359294037344, 0.6291013933305019, -0.4284153429294331, 0.09666420109534679, -0.3788034198518076, 0.6630727930599823, -0.09274159937094034, -0.36107009714330335], [-0.8555234140669752, -0.33035213642723543, 0.8718621367239919, 1.1969458760343115, -0.7521685610767562, 1.793082737008108, -0.20323207879262803, 1.3163055289800376, 0.3536736542767159, -0.9224237856849137, -0.8668895141219586, -0.4215291769137765, 0.012906847674712639, 0.13584903212523433, 0.5468684480158681, 0.1757471844327155, 0.6506067344763019, 0.585948055591033, 0.18398101165232444, 0.6099205564070647, 0.1592207195094854, -0.6494676013584302, -1.4496434341007216, 0.9579944725645346, -1.1301855060882056, -0.766847094033312, 0.2177099011784941, 0.03336620001486706, -0.6557440743590129, -0.04202981480927135, -0.41255148539283926, -0.20158883372385553, -0.23871376771048278], [-0.219605753475198, -0.33728564797192684, -0.10557992459396057, -0.28701220217072404, -0.09769064049103134, 0.8828569899635633, 0.3861615204060488, 0.4068659853662301, -1.0254956882719732, 0.8280487492075975, 0.2299728134666987, 0.8078695264277713, -0.06545301502596002, -0.4621446874327463, -0.49125120776389075, -0.27582400240968635, -0.14771497177549403, -0.41288640994352127, -0.33507645650150786, -0.14722285343621544, 0.6778921374708643, -0.8272583129903024, 0.6229099924691868, 0.7604061833038253, 0.4871014212342519, -0.6314333140662127, -0.19110532023358087, 0.6578805894616224, 0.12556809709869987, -0.6302386579465931, -0.05368010411065352, 0.20991007181688132, 0.4482198977369276], [0.08955871552847107, -0.11878229893062468, -0.33497105317410714, 0.18404450680529244, 0.002867754028146801, 0.6965095856100271, -0.014701808068919303, 0.5198767861872684, -0.02440091620849309, -0.09091617423399447, -0.07636353524812191, 0.19738324276041966, 0.5603660789930134, -0.35787502694791135, -0.0695539278150136, 0.004592349060868753, 0.4175505791987781, -0.07497537926987315, -0.18396963463835173, -0.3084362484786793, 0.19131234653823684, -0.35379962137719295, -1.0742143267109143, -0.13205672690374795, 0.5419634708503988, -0.024522156969373935, 0.16170968136059077, 0.14630809418707266, 0.03468990838528686, -0.09210086697789403, -0.29041488280341854, 0.3504642484534162, 0.932691553057204], [0.1315275382240655, -0.04424227343755814, 0.343523457588528, -0.03489158247882275, -0.33102423589397506, -0.017553746801621733, 0.4367675880154306, 0.09215729384631488, 0.08782149133819674, -0.29235391335547145, -0.036322264820309, -0.0663010598042646, 0.1333386715090654, 0.07553411882568217, 0.017503303104267714, -0.08681840582646447, 0.028951513456731255, 0.03507495267080062, 0.1320700451285508, -0.13497746628354257, 0.10923208058771773, -0.0245396316022669, -0.5469493643328392, 0.003828608553269892, 0.048099945819655335, -0.21736307621891843, -0.11188254037591393, -0.012271670297409432, -0.09993726347271194, 0.06477073663996592, -0.39903893489797126, -0.2083503196817197, -0.039530579130159685], [0.03365753324036908, 0.040018093645363045, 0.08246098603569671, -0.20491472072700398, -0.07843446737600027, -0.23464830356374505, -0.16142913220162936, -0.013899288997081974, -0.18880657607059922, -0.07481207738074609, 0.14209813146315764, -0.09358566760018479, 0.1376657781822513, -0.07175912040378554, 0.17785944084389294, 0.1633348468284216, -0.38543910314534363, 0.012873211361026366, 0.1326201669656322, 0.08555086542528814, 0.15863870039618824, -0.21949346199275516, 0.05373477808004644, -0.02072460780682139, -0.016559163732967418, 0.02547392308860386, 0.03947263351404781, -0.11677644720266221, -0.06334140352566682, 0.024580171531820166, 0.08644894227336115, -0.08303301734076553, -0.0712424197790576], [0.1560018053576666, 0.5892582485558948, -0.8719094653214403, 0.23160330327097306, -0.6128010922526432, -0.16960723350482523, -0.6355601939932262, -0.1566645309614732, -0.07909902812838411, 0.46792191345516165, 0.1359450976392539, 0.0973783157168974, 0.5040381579637443, -0.1687588411419408, 0.18731315156280376, 0.2467655449080362, -0.08561301214011978, 0.185801659097938, 0.0037815140211529476, -0.5091713979767869, 0.23118032587080456, -0.1299739706205489, 0.46482565398412246, 0.2769939466912525, -0.023550537107128552, -0.757448960196186, -0.21143238959107327, 0.7025071349373938, 0.0798358158708253, 0.5186571820747502, -0.2426425340799389, 0.07017934682027759, -0.24787172965189821], [0.47314416323493924, 0.24935247594988424, 0.1106175162255731, -0.5976844939717624, -0.016364502286203765, 0.5182690211144796, 0.2591648896332813, -0.9126963212537198, -0.32495743936080396, 0.7459809911683508, -0.38253767813148326, 0.9097222801281646, -0.9796712792764437, -0.39485742904353893, -1.1860319557226842, 0.17137886982636197, 0.1525308978056143, -0.5320943258050794, -0.6977915018226695, -0.8188004480709389, 0.5192617449426605, -0.27894293554350547, 0.5220225366616366, -0.4905322497585622, 1.0798997036990599, 0.40412815257205936, -0.806278838368076, 0.3550741714393809, 1.2244127852136488, -0.17066727509119234, 0.610556585669579, 0.04589422083109433, 0.33033502819339733], [-0.23630867900273714, 1.6021461141935696, 0.523622614884582, -0.9098537850948276, 0.7640155968819964, 0.5329730900428379, 0.08761155573751091, -2.1109408563848686, -0.1494285884057722, -0.011038756063552663, 0.1351077169819654, -0.17546403569160507, -1.2031083064349357, 0.34182342502595725, 0.22142697846284992, -0.5058005055037769, -0.7947231301913856, 0.41672731542960995, 0.5940566820683181, -0.047672389672473635, -0.6782281661945164, -0.5089073113273946, 1.8606047790510971, -0.33781112603678004, -1.3226343468258919, -0.4473177370307578, -0.12600637425776307, 0.04268698935921048, 0.26767334815266325, 0.8323941509717854, 0.23413388922838982, -0.6127077850265044, -0.9667093569289601], [0.559681726682414, 0.2851454829142818, -0.26447098135813946, -0.1037018494442837, 0.2596591036596422, 0.336503085060764, -0.36925841047590824, 0.7646949853555931, -0.2898567244248016, -0.119153588753486, 0.3951439091773267, -1.3588639467947345, 1.142346311621144, -0.2754519250131888, 0.5474213931219816, -0.2879313399835228, -0.22110615683717225, 0.5624792319073935, 0.6751377945431052, -0.21810246487288623, 0.7521989701113311, -1.5538730141971695, 0.38719427487536645, 0.6871590449864557, 0.0796046016267155, -1.1801568950965067, -0.20320192893200525, -0.2764406327785501, -0.5685922052259559, 0.7320782668501713, -1.5256327654518036, 0.36478040583194477, -0.8055983896514998], [-0.4476594281607825, -0.08574842032862261, -0.1565366265517455, -0.25502410600297143, 0.7118400032086923, 1.6754009920572752, -0.3466333271823998, -0.12771177650830706, 0.3042226670559409, 0.029430493406728937, -0.48560821989691544, -0.35051582912389906, 0.44595317578753196, -2.3851424255126292, 0.576843848573149, 0.11175884772941194, 0.7480868027377081, -0.5797076207717431, 0.19812492783611327, -1.3657968675632621, 1.0577585896709158, -1.4371492722481671, 1.8024918483584305, 0.25482217735528334, 0.8177903768798677, -0.9740603480563665, -0.19682290576428846, 1.5475802991634005, -0.13006350145658144, 1.0483259105204343, -1.277523060485323, -0.4478299548733694, 0.3686638707184522], [0.45239963944896483, 0.3535577138394447, 0.36092857606855444, 0.07344273784365905, 0.11733540196969651, 0.3410344455473575, 0.33146254250921403, 0.7307182909092584, -0.3179448728467712, -0.16417970314337213, -0.04056218678049082, -0.6185986218410826, 1.0371174258705846, -0.46145043097243, 0.2399377705866014, -0.7173501524542407, 0.253073207451128, 0.31971706262329647, 0.5472935170222055, -0.9871298930279717, -0.10101817515344987, -0.8562574984243637, -1.067268909039985, 0.17957863280009603, 0.24043328501181443, -0.6301310363174998, -0.8430833215740348, 0.6744019769482741, -0.2938071263051032, 1.1372637405981554, -1.3829052098401813, 0.39451103056210163, 0.5135582859111889], [0.13912949582114917, 0.003481954484566503, 0.20321740538851743, 0.3088946617080898, -0.06473497498944362, -0.02400329670067866, -0.0047038110037565615, 0.05266789492121814, 0.2003315937972378, -0.12155886005511111, 0.22332730444998836, 0.09866509983910227, -0.03058016846697167, 0.1594311516530681, 0.1202792161454925, -0.011711282155205461, -0.20059856380563218, -0.03975609324943104, 0.111993802164932, -0.03183797786774494, 0.04704437400977582, 0.024473214366760157, -0.26056829850302854, 0.05669075039653044, 0.02241384106003522, 0.09713463163758955, 0.016916788199624617, 0.11701053361984023, 0.009708712688263179, 0.04544252047715043, -0.26345498509632587, 0.03796193376454184, 0.012523045009133895], [0.013212026185242701, -0.09401568751263001, -0.13349990542894563, 0.13180718515676562, -0.026748387719399244, 0.04673259035495687, -0.03679525359740405, 0.0007604963693698492, 0.11202763114624467, -0.09676820974270821, -0.0015670635705756053, -0.03980003044323845, -0.050271182305382925, 0.007958427265311244, 0.06531191038037439, -0.048453974762433974, 0.14165466767001114, -0.07369605087387522, 0.021883402622366474, -0.025250303158260563, 0.19568001461201687, 0.0009004450176255108, 0.15698947943079483, -0.18271119631074753, -0.055773561538699855, 0.1134576440880222, 0.005115691411329742, 0.11638426358724425, -0.07342526158003716, 0.2043629418066846, 0.3020333700042155, -0.07621182637738794, -0.10604206667857642], [-0.12104506553165906, 0.4841834794181658, -0.6551856072691866, -0.4295584612254526, 0.30042295431244986, -0.4874652762309814, -0.2608044783918502, -0.8408411795086236, 0.02280043927412681, 0.22622639213621631, -0.4137237914618037, 0.9238542764536396, -0.7537158162999088, -0.07467565070327767, -0.4755631711617199, 0.4307591043355953, 0.14500381925342512, -0.15209328100983635, -0.1557646465332517, -0.32923768201034215, -0.7781620142674743, 0.8444869005145266, 1.7444374105563785, -0.21191095855762887, -0.1824675693178634, 0.13629672986277427, -0.2586675034438861, 0.23631119533972783, 0.4715023200513455, -0.037997892392145495, 0.3659834741341601, -0.47676117705234894, -0.08771486372398896], [-0.7421434940877741, 0.44828583674450206, -0.5036880782274992, -0.3079858818459244, 0.4445933723144636, -0.33863200731158194, 0.19744624757682327, -1.5315412308486942, 0.6039056200890641, -0.3029546464483268, 0.19235106802490934, 1.117801910844222, -0.2994285743510226, -0.5585690147133108, -0.19775051733190066, 0.8175060566512079, -0.23647282904912648, -0.25075961902860927, -0.2682112948096084, -0.5475386701200435, -0.1843927115946659, 0.4924930141190942, 1.8591048372098395, -1.1307940232701146, -0.23248930057527098, -0.23651384189307834, 0.25848395358626386, 0.7355241545441318, 0.17471505598904133, 0.4116930701861461, 0.7952593619773856, -0.38583336128692985, -0.8066658959596903], [0.7578650272381241, 1.0350866180566796, -0.4126410256113207, -0.8066826001207843, -0.10995903192515169, -1.2212823201772582, 0.23627943892951797, -2.0240727038759116, -0.5274303655487028, 1.0236318613307058, 1.097327930126843, -0.36995867222569867, 0.04684797059944195, -0.783243102371377, -0.12672967910069696, -0.6859656484795666, -1.0833817642952164, -0.09652813830805833, -0.5159274693635036, 0.5786557856647254, 0.9851998116930707, -0.6238905611577125, 1.3959084834120152, -1.5766272471949883, 0.3665168821973746, 0.3129587143788818, 0.3287051673247031, -0.16075476262325203, 0.9160170048546663, 0.7281811478155783, -0.14587685676008302, 0.4515029542141009, -0.8281986612272587], [0.41157098323708263, 0.254488259266343, -1.2455863682345942, -0.358354050941729, 0.04837616014364528, -1.4495459096115582, -0.4022598964279622, 0.31922768699685566, 0.07514612009204323, -0.5064311280256397, 0.6491352479380308, 0.5157093061542711, 0.5887945472103158, 0.7638356757408572, 0.5858148998625047, 0.6651459372301227, -0.9260645091483508, 0.526440122487114, 0.3984771565897553, 0.6316918003829669, 1.9851397396643333, -0.8531173973738911, 0.2526217324419218, -0.19787501009441663, 0.008386396144028516, 0.8356790572651416, 0.2563632876441086, -1.0244210234168591, -0.5982532598802879, -0.019655280266681056, -0.09284755656526551, 0.11465601398115609, -0.23144557864553822], [-0.35414462034717803, -0.15708783438533422, 0.7743999440379113, -0.07038187247396578, 0.4273332459947594, 1.4719860801175872, -0.28328397442783104, -0.10084796933988699, 0.3806180464723338, -0.3139940747913632, -0.21635524252772265, -0.43723453912727783, 0.015455327285516305, -0.2955502478027747, 0.039642194947431444, 0.4290226203660502, 0.6869858167308502, -0.3482572867889626, -0.035859648340000744, -0.6597374218716264, 0.044273969604976746, -0.6606150394945097, 0.5305247480701905, 0.37119895689033605, -0.13436813221062255, -0.2742661840323446, -0.15976302864783895, -0.020483478466333815, -0.19354110236975935, 1.1361336316925166, -0.6610938781599522, -0.49733314506159304, 0.4704249319287123], [-0.45372762450900705, 0.035667174498967426, 0.45877322397362025, -0.11717553946054524, 0.5275281571395741, -0.3844330476436679, 0.8961288457166648, 0.14458356492424249, 0.6413625139317354, -0.7191287335613185, -0.05166249134659625, 0.8618447845499102, -0.09100565444148329, -0.7475954397445383, -0.18409913772485767, 0.3916603395665553, 0.8177811141727955, -0.5200287230573399, 1.4186522432146518, -1.3399143309073578, -0.8264728960502348, 0.6640826456492422, 0.15373695319016809, -0.39775825250515306, 0.17026060241256813, -0.05321523239176303, -0.47423364216712816, 1.058481956755964, -0.8147138134774059, 1.2029553634980323, -0.7171092722217418, -0.6038662930226221, -0.7839201811646462], [0.2703212409758398, 0.22274981356704432, 0.06224984044179454, 0.001548522454707874, 0.015318942077503941, 0.06570188169403388, -0.12424351452487456, -0.03303395015698503, -0.20989086893339873, 0.050475956093200304, 0.0804921148864928, -0.05851129730218311, 0.19654497588888545, -0.1487667201784721, -0.18540035565584517, 0.02320937265269567, 0.12955268496271885, 0.21293031325726797, -0.05061132512975698, 0.1338776051841955, -0.008027014710450685, -0.019820811710467956, 0.11107133531205234, 0.08206898336827347, -0.2003652685908259, 0.1866036035914347, 0.166046960326232, -0.07768273303898322, 0.048004917616503516, 0.06489232727265123, 0.031043179090474816, -0.07053052104805635, -0.0858821999522715], [-0.0031942588739306598, 0.14659112740742059, 0.06795001932430404, -0.04632679151076324, 0.09646233883104309, -0.35606782757875943, 0.14359571254651293, -0.21746422234726245, -0.04530511767539152, -0.13995873682826798, -0.16183518446511322, 0.14510334842231493, -0.05846265016398642, 0.04331298521633947, -0.005865072359898009, 0.05963010340289018, 0.00960273638253192, -0.1603740280235712, 0.1245333524308925, -0.06171957289516406, -0.19457273733246888, -0.053514395120739064, 0.18759497382928886, 0.10627771776418661, -0.0435815168009824, -0.0436572130398036, -0.04020438140217283, 0.2595934979451051, 0.04774193152894417, 0.053755205898883704, 0.12878543175398027, 0.02984864487831419, -0.03238026822758789], [-0.13818193094620118, -0.37948902842831495, 0.3845778664464818, 0.21876593511197717, 0.22348567616691495, -0.172087059903673, 0.5934679275011974, -0.16922589817058056, -0.06531758301132012, -0.4784577562757133, 0.04940344806722588, 0.30226867210697506, -0.7643308228268084, 1.0984231666491604, -0.38308723550657553, 0.27382819725978086, -0.11914094733257131, 0.06540989033829424, 0.030185593771220005, 0.055475439021976394, -0.9302317107071756, 1.078927299681748, -0.0761841709090873, -0.11537589139233795, -0.10322051351485083, 0.2990482910117207, 0.07179415866597667, -0.030389257974198426, -0.48581524407105364, -0.6739374285269389, 0.4302169193813397, 0.031101538030503525, 0.43150376408020563], [-0.2154522323340562, 0.3298965916168478, 0.7425738051782612, -0.23935384183911884, 0.41506305386812337, -1.3594161307436703, 0.44092745804895106, -1.051702824261922, 0.13241469067653416, -0.4258925956390107, 0.36298676578745975, -0.14255293955763101, -0.6234542870657914, 0.009451834032179725, 0.37080126810266006, -0.13968302063503196, -0.34711068815627794, 0.21121480183844163, -0.002419057170245375, 0.6415027640471035, -0.9835200738125488, 1.1321170648392165, 0.6231149313810105, -1.2256752432301454, -0.5679640567363675, 0.34887089888959577, 0.23492355828754022, -0.1806596502830163, -0.24022196342665567, -0.12188543230066569, 0.17111446066109162, -0.37230923611317185, -0.32246454043447315], [0.5439447700941403, -0.5942681102311564, 0.9844423248416032, 0.5510987263468095, -0.8993103886162129, -0.7044734508819727, 0.6810816344213454, -0.4681759064415969, -0.8993563273441274, -0.10342958431831077, 0.4909007678123047, -1.0356302484556623, 0.4504982879450982, -1.5374980776518412, 0.5336464903782263, 0.040452570303561725, -0.04702303422210981, 0.14265827240662773, -0.5809308505140439, 0.3386852152012499, 0.8646320696411449, -0.8498167647079016, -1.4978439617416999, -1.223404153255137, 0.4502653011518372, 0.5153652041348211, 0.26588715383351424, 0.6416405412547455, 0.5352387396715952, 0.1731976248727944, -0.5306012488601595, 0.46087708566973035, 0.006626710192452363], [0.48293646321886013, 0.1336199968998385, 0.26922135112099865, -0.3189912997196996, -0.7645147014592032, -1.7941396951963122, 0.7990432188825606, 0.8712059955287503, -0.4114327502871554, -0.9268701145427972, 0.6387497876726932, 0.45902045732569535, 0.9437805864110571, 0.49623122823172955, 0.20143466521446407, -0.12101475877459435, -0.5189047313950126, 0.2942825706624028, 0.8114083488988618, -0.34403655802906885, 0.6335325848973604, 0.31512043724838673, -1.348087378018394, -0.03270987983155129, 0.24853736410969077, 0.5031102902322037, -0.16656629473942836, -0.3287394508965618, -0.5367122590423684, 0.028889586373809166, -0.8501881328583958, 0.3361852828310543, -0.34986279258788117], [-0.38631847665162167, 0.44402678033561643, 0.6687289184642594, -0.5452794848820245, 0.8148459830061094, -0.42675818179516223, 0.049152930676743804, 0.5661280182991152, 0.9389011328551297, -0.5581501315702994, -0.1464612593650089, 1.0908619235354602, 0.8148682737810444, 1.016263671587567, -0.08378741696555732, 0.18475270382154713, -0.06532047721450408, 0.09141110581502843, 0.9157373838452928, -0.4501720988899417, -0.7105074001190929, 0.7708852908724156, 0.04257316866699415, 0.5778240000411886, -0.9517241925673045, -0.6557552087222744, -0.2644798410487046, -0.32355214660740034, -0.9828503134440723, 0.3945162102044459, -0.11231144088441411, -1.0462439947977231, -0.3610250715482709], [-0.8023573017896671, -0.6399168329571004, -0.0007963238120510899, 0.26111764161025974, 0.526840066760541, -0.447529727513205, 0.10070552330291625, 0.09324262271622566, 1.1057783394803222, -0.9285749493106826, -0.28037370221241303, 1.0188083147215279, -0.383662745496601, 0.8367590558171667, -0.47126952236055625, 1.2424613984558102, 0.5906873823980862, -0.20329119274433555, 0.5606481502450291, 0.17636363137482758, -0.83707033480739, 1.1990888923277683, 0.6192599647335881, -0.07487814611803405, -1.0463996163206162, 0.07348787264363447, 0.4397166489840058, -0.025072360215166487, -0.7688204499094082, -0.5944406069380165, 0.613096254756408, -1.0914675475995768, -0.8020662740446914], [0.06349891586406796, -0.1379208257717342, -0.26911132411906036, 0.04857232556637051, 0.3116249396790988, -0.0007588639424866655, 0.10481134680645524, 0.010228669818445627, -0.012361206648892833, 0.11488456037347107, -0.03628431802358142, 0.03342403925898787, 0.0402122257745017, -0.0835113067053811, 0.12400529369206535, -0.02186996958692608, -0.09446814493660559, 0.06706373044630044, -0.11230849772387966, 0.003522644671141031, -0.001139874580525443, 0.13573694572894726, 0.0593372791099941, -0.0031283698431429897, 0.10222078740003589, 0.17377594362716417, 0.06972628829398278, 0.0012940774804225759, -0.16397952904376994, -0.13313920788442157, -0.038153088044333455, -0.0761890252699104, -0.02337141287318075], [-0.0014218672015021273, 0.07642054357507361, -0.008062153857376545, 0.06043284038831359, 0.00835496747179683, -0.2516440199212916, -0.11176029539300128, -0.01929907740655636, -0.13519764887442368, 0.06129450283930194, 0.19701518709091684, 0.15945734715046297, -0.0165012906495593, 0.18384675466944092, 0.02283609510148225, -0.03559234261548883, -0.07679550812085308, -0.04227290378972172, -0.036874839904605605, 0.011831062989139766, 0.016721945722750133, 0.001791082411485093, 0.059991411360329046, 0.13962965534860775, 0.11443326642072478, -0.19340874048070167, -0.3185559194551523, 0.12698320709110544, -0.18469998535543639, -0.009637519509891052, -0.1513938624046034, -0.2333550449398475, 0.045455930935307705], [-0.12159808757819111, 0.1486826858206473, -0.3527353423489718, 0.03725441156181137, 0.4655575161406813, -0.5194436504241965, 0.4776535548717026, 0.021149318419950578, 0.907545586485028, -0.5318933038811303, 0.09760921592252994, 0.4277686759297782, 0.23974450749415477, -0.06883548998009616, -0.08639352490072376, -0.03672600121880839, -0.09859052572734756, -0.08382041995233874, 0.7660733836256037, -0.686481939171166, -0.7695258233798234, 0.6863210674796636, 0.13180046051131064, -0.6312696685575182, 0.2604406065316803, -0.39090329818236746, 0.2222408293269541, 0.5387103288188873, -0.8034408939701058, 0.907852538776955, -0.6065635862555612, 0.012624150032778805, -0.3949828011105853], [0.7887381993493477, 0.37472905713237153, 1.9373486691218975, -0.359345849988075, 0.7667891872997532, -0.5507300580170612, 1.7147469838967506, -1.1362323032875117, -1.2469762403403242, -0.5741596343759627, -0.7180225939287628, -0.9575210982707131, -1.2276041357305558, -0.27393723201648296, -0.6610878144603705, -1.4122513793854325, 0.011650970895958167, 0.6569185135577674, -0.03724034819573339, 0.5449631329652649, -1.2876870203189996, 0.8111822617114195, 0.42819437425690937, -0.8983353598175902, 0.2738861841252601, 1.3767974040479194, -0.8528487991030227, 0.05827974169756493, 0.32821678337913146, -0.07055238144094098, -0.50492432962515, 0.04812639157649956, 1.8329758040977155], [0.12344552003066024, 0.12566632392128305, 3.498186722000125, 0.1739808665040307, -0.9281169923495527, -1.588482066238831, 1.5372091721149297, -0.5464982578660798, -0.978556109584371, -1.5611997377370614, -0.9099605956381341, 0.17273100277771225, -1.4147652735494844, 0.4155462780170496, -0.7486910935827983, -0.9344115040636193, 0.4909052084940352, 0.37767893710856043, 1.7993831799023716, -0.009993497067508449, 0.05948013439951591, 0.1845711276319337, -0.595014089153218, 0.42695972093424167, -1.225924083306679, 1.25085025665314, -1.1361329257762953, 0.2322803123971869, 0.06089075139528435, 0.7762300445383088, -0.6715143163211496, -0.6051159512819256, -0.014679794258545993], [0.0022359713487692307, 0.7217048653861411, 1.5496233921933298, -0.39952767619207646, -0.7052784711770638, -0.8760129216788904, 1.5639400888362585, 0.541261226069686, -0.035291797879342376, -0.5275923485895297, 0.5664277585906186, 0.34536708393126314, -0.14607236137289414, 0.13286436006954763, -0.559467084412327, -0.3926582837538258, -0.5309667295019154, -0.34838061192673103, 0.764025373776853, -0.4982279374257359, -0.6931726008124726, 1.1603444835846217, -0.3757179775456781, 0.015889821089324796, 0.3038015628304583, -0.2938015357409242, -0.10365057945727582, 0.4338164177289083, -0.08732388558884438, 0.3957768842877438, -0.009885335230927533, -0.16940422740474928, -0.7939945074120907], [-0.25202085127890383, -0.4463819332011319, -0.4836767778669518, -0.34809463124120893, 1.1583751818303225, 0.19973819333568477, 0.14880983412298218, 0.47066217115227543, 1.0408260494464956, 0.022514558435307377, 1.096973046434075, 0.869996075783326, 1.4565377658032268, -0.23024646363140225, 0.03877594919571865, 0.1856905413443786, -0.6036724176805506, -0.3384841269345233, -0.5731414571344854, -0.37982090727694395, -0.6208449778464711, 0.8681399269195553, -0.3292491998457812, -0.5425001776548057, 0.7067436839567703, -1.5892195030504654, 0.5103857504464191, 0.201400600391893, -0.9687224992416706, -0.6053074490943465, 0.3890650911610099, 0.19548442138829394, -0.4802590010842468], [-0.2959151139836963, -0.9121918340119208, -0.52091882343543, -0.06693250764486984, 1.146290596089443, -0.5844416093264264, 0.1727592562624963, -0.07364215079663465, 0.880966602220876, 0.1456477017916917, -0.0457462294365197, 0.08561736370097948, 0.4865177169545926, 0.35584575974305205, -0.6412397926601662, 0.4190788809761264, 0.016964561055504344, -0.14222420869255228, -0.456866618265836, -0.6172185695134217, -1.1287751084569968, 1.0849114141684906, 0.048831617022332886, -0.23285707724819915, 0.8512291936618906, -0.16110250463585676, 0.17621258546642074, 0.10404766495835985, -0.5008068433782141, -1.038201328803469, -0.03257348969217775, -0.07982397927447576, 0.7098249265040332], [0.0037671453468233335, -0.1328819227162923, -0.060421699837688414, -0.05656777926550031, 0.08213123003782424, 0.06331347600436393, -0.0724806392107507, 0.1472583470587185, -0.09302259032842909, 0.019394297068995443, -0.12432743046846631, -0.2878199428281207, 0.030428626519948914, 0.14000136612396288, -0.1114403892389624, -0.028591984171055653, 0.062097411183646714, -0.17869907864768153, -0.07746754276952812, 0.11360402948770364, -0.21640316500407594, 0.10294616808446104, -0.15109703382050213, 0.08478491936997713, -0.0009701759765380686, -0.1380786719967937, 0.11206638456373923, -0.1124824454766296, -0.07720773464001462, -0.04369682364551678, 0.1534773416801932, -0.13317873433932753, 0.06564117843321256], [0.0462450394279097, 0.0828032532673705, 0.023338209395203827, -0.03419037436104769, -0.11267910819499088, 0.011205017063434883, -0.1516912220425052, -0.34289724414693185, 0.059418366948353465, 0.10516664954365265, -0.3002346606941275, -0.13286962840135114, 0.08335596599721502, 0.2750060022418883, 0.00887868823419614, -0.08471563787685998, -0.01560873348442396, 0.17689361043531499, -0.07172591999781879, -0.08498151187889892, -0.05700305113555208, -0.12438879875447151, -0.0026399575538166306, 0.21499067414453082, 0.021267551830596615, -0.03125495691562145, -0.03508478856757303, -0.21300459409160277, 0.09563378293789057, -0.015751644024651113, -0.019108496199917734, 0.39633205360507207, 0.0301079805902184], [-0.1465347059632217, 0.15712138073388263, 0.30907404863974314, 0.03961368728743451, -0.1980603169868141, 0.0005923563243710785, 0.005795035227864031, 0.4031183045568341, 0.44681366434977543, -0.18585519545728232, 0.2565252456623383, 0.16461425455802217, 0.040024240777781765, 0.06925382754491123, -0.28627958100312784, -0.10365884109236682, 0.11627826484870166, -0.14131217918462158, 0.3118617179326306, -0.21505270113128502, 0.07066427682279162, 0.2689587595293781, -0.24541119258319063, 0.04152194067267794, 0.20185717969314818, -0.058717077802045686, -0.03259643879185059, 0.12377856994018904, -0.31173033751936696, 0.43636713229130836, -0.061014057885776886, 0.1944534593963558, 0.04888507716965809], [0.26394127566339287, -0.2555586591756069, -0.052079651979215894, 0.5236116630803038, 0.5487643935324351, 0.3538664267791031, 0.8578090015184648, 0.1598975693477944, 0.3118148764032743, 0.9503842286811802, 0.041790513778510306, -0.30390037966086697, -1.1922530319915827, -1.1823123122342536, 0.044997526987308405, -0.48998994317835465, 0.19941011288896304, -0.5938166394459035, -0.056604043627121174, 0.3253950973288398, -0.17880296792463646, -0.15349278115825418, -0.8790628111895662, -0.21596910154266452, 0.9737352382084419, 0.5977611233762012, -0.09707943131918094, 1.1120995894094996, 0.0823752132653933, -0.048623839042031734, -0.2726077682834158, 0.26612304507901136, 0.4766316272232681], [-0.1368453637697109, -0.6562790845978795, 0.34906263524124487, 0.574561515666988, -0.43646501636746166, -1.2235901052856264, 0.2794757311186156, 0.031122998076574634, -0.24489833705405717, -0.2439265559552409, -1.0287618316820066, -0.3566622796336867, -1.042247948523947, 0.5564468990617641, -0.38113980575246315, -0.08549990579457034, 0.8506779378524345, 0.4892108867385766, 0.8306184215700126, 0.3927025664722872, 0.1512110765608819, 0.3601183066607389, -0.09233747750772818, 0.16826955804220434, -0.4837086768253412, 0.6383609724827182, -0.5986409508459316, -0.7853707708275419, 0.21577855873643442, -0.7997413787078741, -0.2169608846289688, -0.5061725949738789, 0.7357486846900855], [-0.22869389025290152, 0.5511597458631329, 0.3896405290520846, 0.11276365438499718, -0.44034666479294643, 0.6269745203123257, -1.2971949072334674, 0.5536489342600065, 0.228516571286368, 0.9959363049196678, -0.3233810424447772, 0.016333922987313915, -1.3746287224978166, 1.14987756663331, -0.44114914633082464, -0.7426290312521239, -0.06152336005159515, 0.10336354289515169, 0.25090389271158475, 1.015476736837815, -0.4938040004811386, -0.07464749662409331, 0.6816232726527555, 1.390360427800946, -1.4770379488035883, 0.004692039208401942, 0.015206000769205237, -0.5338395155280096, 0.16544721566931542, -0.2539506168593688, 0.6620974358949014, 0.022505314941414594, -0.33328871097177243], [0.8143858546599523, -0.8601035688650362, 0.5135131096070252, -0.17824431478733305, 0.4289291048176316, 0.221970562177272, -0.5737250250276091, -0.09698899165000194, -1.288673789244052, 2.1470307607423886, 0.11703611477738841, -0.5700989718055248, -0.2999618683112055, 0.13822574765439777, -0.8422355636367099, -1.3069543879344505, -0.23800263871755667, 0.585157028928111, -0.7606421476103888, 0.4244299902143146, -0.21426082027276827, 0.25029403656235466, -0.38553281557528174, 0.7917245028825503, 0.09298444893482692, -0.036990323320658235, -0.4171492033302458, -0.3143585924635513, 0.7870975702708884, -0.9681543482243474, 0.5652338477076467, 0.35169079037369955, 1.0334227413184873], [0.2502470710691157, -0.9546516183887317, -0.6414492120457388, 0.07701907843251392, 0.6562798234327188, 0.38978785909358366, -0.8011369535183327, 0.38632796280526177, -0.7221945600998281, 1.096544349052427, 0.08510312335056455, -1.2467617439392498, 0.8002666521101398, 0.3109296157343308, 0.19894796464504483, -0.32091407237592157, 0.23670749158292603, 0.6547397357108432, -0.645067699999288, -0.9163989906995774, -0.2759842630291067, 0.19823263156162324, -1.0690198084875253, -0.3835840430979126, 0.9784048055137216, -0.36159203519671884, -0.1224459656633086, -0.5508376714318585, 0.23668742446504776, -0.22199880990143755, -0.496221365107659, 0.49769701467225363, 0.8249455038483896], [-0.16824113737482935, 0.3065290753057007, -0.057934627161030754, -0.12584064914329082, -0.32435161580690364, -0.24989509833561868, -0.18901381428506242, -0.1539991409904704, -0.10511551277745985, 0.08954936535788076, 0.13572177591532808, -0.1266241136398332, 0.21831966153314664, 0.0737816852368331, 0.4068137795213246, 0.05854475246414103, -0.039244665368847326, 0.18955336782618507, 0.4093089698359781, -0.02047029259097261, 0.3236419819263744, -0.40645526135509463, 0.4366577744969551, 0.020354232506232594, -0.4432998145276271, -0.0730966282120884, -0.24474516474614594, -0.10188136584820541, 0.045741364144264794, 0.6077960848337383, -0.0740493316186361, -0.05688289732756796, -0.6743750703846435], [0.12063078355686255, 0.04790976969025142, -0.08082636565334163, 0.22591110551606775, -0.15181328051432857, 0.11741028464664097, 0.11746073922472154, -0.07629253162411113, 0.1722639549474065, -0.031251461791086094, 0.032657933710133084, 0.027732367138128607, -0.01922131647805822, 0.10783704345341719, 0.09965521748597582, -0.2181707571942069, 0.1660671135197135, -0.20529583140759924, 0.12807348395121718, 0.14750933296980304, -0.13460059209637656, -0.053177298527763955, -0.14498543149087423, -0.02050289459218898, -0.04313053083903519, 0.10025428933435668, 0.16402455847720912, 0.1663944544455521, -0.07117460902957616, -0.03401493136207139, -0.20834000646789125, -0.09966904534134088, 0.12434749479167219], [0.12687151216845896, -0.34946021339822514, -0.17205594594655468, 0.217232572385132, -0.20972138743352362, -0.023228999660453057, -0.29779115217610713, 0.13493518546009503, -0.04272712596507593, 0.12461470194057371, -0.06424961217469158, -0.08816266707019742, -0.14685778708753677, 0.35989743228113824, -0.057409739766992464, 0.11078206586874831, 0.19458809693856938, 0.1988745634025718, -0.0969238186923967, 0.6483454664990547, 0.06510832841290362, 0.15776229366882596, -0.2927862880507319, 0.15035105161022186, -0.31688632426996527, 0.03570024362844345, 0.044875379123062234, -0.642980109904013, -0.033859596663209784, -0.24235953881270964, 0.6491131335040948, 0.1120487517561247, 0.1300319779133207], [-0.7286973635383275, -0.9856080381404405, -0.45640042409514986, 0.6679146000916404, -0.5102620886640068, 0.678866646620513, -1.1464901801718328, -0.12771260277112928, 0.635148901250245, 0.02990935750563823, -0.023059278507897085, 0.33492285464850374, -0.5143624030108667, 0.07674286074163297, 0.14113321385437555, 1.0865077680433597, 0.18586871178544964, -0.39120206711403144, -0.12120739977570211, 0.6544878629596653, 1.0411347972380007, -0.683646573644785, -0.32347138166511763, 0.0642372113944313, -0.4832187908585778, 0.36363283406484426, 0.7160643555302991, -0.6458143854434, -0.3392632902796233, -0.37908206017381557, 0.5908150238944362, -0.17051014711011822, -0.6604653769591042], [-0.05373855225024308, -0.46383658793388377, -0.2881628873575101, -0.10165233880490517, -0.062410390115312894, -0.29994445851694695, -0.3500805138784682, -0.5029876815488716, 0.36183479789628215, 0.5340856802933843, 0.03861298676341146, -0.22884929682611715, -0.40163910287905463, 0.48933090721655415, -0.1372607739921469, -0.0979221146885452, 0.24180128870315182, -0.07838898385339314, -0.8943045269355048, 0.2950607245584188, 0.38576232346476275, -0.3359026627790651, 0.12008981486991771, -0.6085969554704469, 0.18046509603121974, 0.2762411453164916, -0.2879819728837352, -0.13098973530830113, 0.8653462072398779, -0.5217629155547888, 0.49284484331516093, -0.12293759905012089, 0.7465885260215072], [0.4263649328523987, 0.5676816685279351, 0.1448576865704267, -0.17684078536487693, 0.6622554094111477, 0.1888920100902333, -0.06956651330199584, -0.439676962315292, -0.7426311009268657, 1.354861483511011, 0.4353435561945272, -0.437376346660148, -0.07827007451743577, 0.8354767659881817, 0.025827674389744797, -0.9009507757668936, -0.8094408872238675, 0.5829948848204882, -0.7236754865820039, -0.05599517740362468, -0.7191264200768656, 0.057351197799262545, 0.1483093168969062, 0.0028446348670352205, 0.04099324823062346, -0.24776282423602106, -0.39594188808466657, -0.18539211863729602, 0.7456372395849645, 0.6424281026447194, -0.19238347368440564, 0.28759254429065756, 0.12667331930476786], [0.44277753521041635, 0.25124810619917876, -0.22054638822478084, -0.007777953411060973, 0.18051123162671862, 0.06924317395008553, -1.1686629905984145, 0.11775188899407606, -1.0824423894140336, 1.8079172075805228, -0.32840188149399885, -1.2976465242113724, -0.17271765330113692, 1.288847287205342, 0.4169042392495344, -0.828268929722519, -0.039089197546827284, 0.9106317553729383, 0.08945956370733422, -0.04466718557352324, 0.00110468766568823, 0.08705873872501109, 0.5298186482901536, 1.1545624342357355, -0.25763709369755833, -0.05686457691013115, -0.39091462141313893, -1.2845118283093886, 0.6365900991974174, 0.11864384560446546, -0.12308151110729391, -0.0226570892396292, 0.3025323585196294], [0.45094676072780293, 0.09681138215991872, 0.42069433416069496, 0.10829717591422805, 0.07327099236294111, 0.9013580684324713, -1.0364592575726115, 0.14441151824239798, -1.0345447048916736, 0.8096833535777173, -0.5392181361617748, -0.8252627353907765, -0.42157454546317963, 0.8499127156292027, 0.29650992076955435, -0.7171258521437229, 0.563467932488182, 0.7386272478581758, 0.33942967210557407, -0.7346966433421744, -0.38868783046691213, -0.31730113690423767, -0.06220915192684115, 0.6967712671645918, -0.05956571620720586, 0.17142735516923183, -0.5310283871641152, -1.1232556970085803, 0.5929642109055488, 0.8421949524801502, -0.6974872970645737, 0.2699469207138503, 0.469515401446485], [0.17448993834316814, 0.4090132884698641, 0.7780190614404593, -0.23459200500980665, -0.6953077889029048, -0.12614852089967718, -0.3504858374887967, -0.09070754179634248, -0.8179108037412725, 0.12035912592905944, -0.167985029878226, -0.05144753230937965, -0.5859674827037881, 0.5359856990060523, -0.12127182267872506, -0.3034214118925669, 0.13405806492779668, 0.41341290812539044, 0.2328394649168932, 0.10579131258224118, 0.2637761198556415, -0.3380311189168925, -0.32503901546898933, 0.4677027202326025, -0.4554295494054081, 0.2716093177621601, -0.2119144383215678, -0.3699395250106145, 0.3227264410100681, 0.37135862503019723, 0.1837357506914109, -0.14517508497676435, 0.18102655357766176], [0.12206712253789777, -0.5388645424001389, 0.678056133834966, 0.06051239583371746, -0.03436962590891746, 0.5764193629575147, -0.12729852741536588, 0.07897614119893646, 0.2547913366607414, 0.2909946697429761, -0.1363317232860251, -0.12927462586949404, -0.3217217300819939, 0.04663054227419299, -0.7553423452165849, -0.025074859937059903, 0.31956282134884945, 0.04868598564935846, -0.17399613901266126, -0.468064508205732, -0.11543520807748212, 0.30857741247818476, -0.5354374351431964, -0.06890947371363429, 0.5594075508481938, 0.18894346809061455, -0.38549909873891575, -0.1487541688693519, 0.09284530413594175, -0.06132376150902608, -0.6312430366003224, 0.041739289102362014, 0.18443733479352953]], "outputs": [[0.6251235049459252, 0.7784003066939037, 0.9965039597605657, 0.766509292340623, 0.16028621420118808, 0.057168685515186224, 0.9738398698721679, 0.005590881331415493, 0.1901523663405104, 0.4310469055781642, 0.5707641334335621, 0.011680450579867822, 0.015277105908071074, 0.2780705947192309, 0.6992759825913776, 0.038447687188654725, 0.1914787192964586, 0.9514860725593016, 0.6153439367660929, 0.9594847236612117, 0.8385670364712628, 0.08625994203321317, 0.5913890646694973, 0.005768794637799903, 0.12224289112091773, 0.8778571858941004, 0.22834658305352704, 0.35636144283729215, 0.8426341580222837, 0.8641882132976203, 0.03394814273530052, 0.3188626086263466, 0.22808272925928674]], "delta": [[2.2684844579456223e-06, -6.365667437245075e-06, 1.305242230652061e-07, -2.881211502754091e-06, 4.285893664088276e-06, 1.4385042986498574e-06, 1.8423900398198357e-06, -3.137708391420926e-07, 1.980643319177678e-06, 3.759898998104823e-06, 1.4584350171359767e-06, 2.3444084831534595e-07, -3.832582482651707e-07, -9.138023583959792e-06, -1.011905547616532e-05, -1.7293529065070858e-07, 2.108588301529402e-06, -2.110888242734244e-06, -3.4246748556641555e-06, -2.4419521436424574e-06, -8.755463882094267e-06, 4.698948533634534e-06, -6.2040456694343456e-06, -3.264757236662463e-07, 7.90214923674457e-06, -1.0874231018064266e-06, -1.349539329979615e-06, 1.0459223705043357e-05, 2.577644926095498e-06, -1.1092251604579618e-07, -1.1277359586033e-06, 2.9797404832783893e-06, 6.4069141564766455e-06]], "gradient": [[0.0, 0.0, 0.0, 0.0, 0.0, 0.0, 0.0, 0.0, 0.0, 0.0, 0.0, 0.0, 0.0, 0.0, 0.0, 0.0, 0.0, 0.0, 0.0, 0.0, 0.0, 0.0, 0.0, 0.0, 0.0, 0.0, 0.0, 0.0, 0.0, 0.0, 0.0, 0.0, 0.0], [0.0, 0.0, 0.0, 0.0, 0.0, 0.0, 0.0, 0.0, 0.0, 0.0, 0.0, 0.0, 0.0, 0.0, 0.0, 0.0, 0.0, 0.0, 0.0, 0.0, 0.0, 0.0, 0.0, 0.0, 0.0, 0.0, 0.0, 0.0, 0.0, 0.0, 0.0, 0.0, 0.0], [1.417802786216014e-07, -3.978542148278172e-07, 8.157763941575382e-09, -1.800757189221307e-07, 2.6786835400551724e-07, 8.990651866561609e-08, 1.1514937748873973e-07, -1.9610677446380787e-08, 1.2379020744860488e-07, 2.3499368738155144e-07, 9.115218857099854e-08, 1.4652553019709122e-08, -2.395364051657317e-08, -5.71126473997487e-07, -6.324409672603325e-07, -1.0808455665669286e-08, 1.3178676884558764e-07, -1.3193051517089025e-07, -2.1404217847900972e-07, -1.5262200897765358e-07, -5.472164926308917e-07, 2.936842833521584e-07, -3.877528543396466e-07, -2.0404732729140394e-08, 4.938843272965356e-07, -6.796394386290166e-08, -8.434620812372594e-08, 6.537014815652098e-07, 1.6110280788096863e-07, -6.9326572528622615e-09, -7.048349741270625e-08, 1.8623378020489933e-07, 4.0043213477979034e-07], [1.7013633434592168e-06, -4.774250577933806e-06, 9.789316729890457e-08, -2.1609086270655684e-06, 3.214420248066207e-06, 1.0788782239873931e-06, 1.3817925298648767e-06, -2.3532812935656944e-07, 1.4854824893832586e-06, 2.8199242485786173e-06, 1.0938262628519826e-06, 1.7583063623650948e-07, -2.87443686198878e-07, -6.853517687969844e-06, -7.5892916071239904e-06, -1.2970146798803143e-07, 1.5814412261470518e-06, -1.583166182050683e-06, -2.5685061417481166e-06, -1.831464107731843e-06, -6.5665979115707e-06, 3.5242114002259006e-06, -4.653034252075759e-06, -2.448567927496847e-07, 5.926611927558427e-06, -8.155673263548199e-07, -1.0121544974847112e-06, 7.844417778782518e-06, 1.9332336945716236e-06, -8.319188703434714e-08, -8.458019689524751e-07, 2.234805362458792e-06, 4.805185617357484e-06], [1.5595830648376153e-06, -4.376396363105989e-06, 8.97354033573292e-08, -1.9808329081434375e-06, 2.9465518940606896e-06, 9.88971705321777e-07, 1.266643152376137e-06, -2.1571745191018867e-07, 1.3616922819346537e-06, 2.584930561197066e-06, 1.002674074280984e-06, 1.6117808321680033e-07, -2.634900456823049e-07, -6.282391213972357e-06, -6.956850639863658e-06, -1.1889301232236215e-07, 1.449654457301464e-06, -1.4512356668797928e-06, -2.354463963269107e-06, -1.6788420987541894e-06, -6.019381418939808e-06, 3.2305271168737424e-06, -4.265281397736113e-06, -2.2445206002054434e-07, 5.432727600261891e-06, -7.476033824919183e-07, -9.278082893609853e-07, 7.190716297217308e-06, 1.772130886690655e-06, -7.625922978148487e-08, -7.753184715397688e-07, 2.048571582253893e-06, 4.404753482577694e-06], [1.417802786216014e-07, -3.978542148278172e-07, 8.157763941575382e-09, -1.800757189221307e-07, 2.6786835400551724e-07, 8.990651866561609e-08, 1.1514937748873973e-07, -1.9610677446380787e-08, 1.2379020744860488e-07, 2.3499368738155144e-07, 9.115218857099854e-08, 1.4652553019709122e-08, -2.395364051657317e-08, -5.71126473997487e-07, -6.324409672603325e-07, -1.0808455665669286e-08, 1.3178676884558764e-07, -1.3193051517089025e-07, -2.1404217847900972e-07, -1.5262200897765358e-07, -5.472164926308917e-07, 2.936842833521584e-07, -3.877528543396466e-07, -2.0404732729140394e-08, 4.938843272965356e-07, -6.796394386290166e-08, -8.434620812372594e-08, 6.537014815652098e-07, 1.6110280788096863e-07, -6.9326572528622615e-09, -7.048349741270625e-08, 1.8623378020489933e-07, 4.0043213477979034e-07], [0.0, 0.0, 0.0, 0.0, 0.0, 0.0, 0.0, 0.0, 0.0, 0.0, 0.0, 0.0, 0.0, 0.0, 0.0, 0.0, 0.0, 0.0, 0.0, 0.0, 0.0, 0.0, 0.0, 0.0, 0.0, 0.0, 0.0, 0.0, 0.0, 0.0, 0.0, 0.0, 0.0], [0.0, 0.0, 0.0, 0.0, 0.0, 0.0, 0.0, 0.0, 0.0, 0.0, 0.0, 0.0, 0.0, 0.0, 0.0, 0.0, 0.0, 0.0, 0.0, 0.0, 0.0, 0.0, 0.0, 0.0, 0.0, 0.0, 0.0, 0.0, 0.0, 0.0, 0.0, 0.0, 0.0], [0.0, 0.0, 0.0, 0.0, 0.0, 0.0, 0.0, 0.0, 0.0, 0.0, 0.0, 0.0, 0.0, 0.0, 0.0, 0.0, 0.0, 0.0, 0.0, 0.0, 0.0, 0.0, 0.0, 0.0, 0.0, 0.0, 0.0, 0.0, 0.0, 0.0, 0.0, 0.0, 0.0], [0.0, 0.0, 0.0, 0.0, 0.0, 0.0, 0.0, 0.0, 0.0, 0.0, 0.0, 0.0, 0.0, 0.0, 0.0, 0.0, 0.0, 0.0, 0.0, 0.0, 0.0, 0.0, 0.0, 0.0, 0.0, 0.0, 0.0, 0.0, 0.0, 0.0, 0.0, 0.0, 0.0], [1.417802786216014e-07, -3.978542148278172e-07, 8.157763941575382e-09, -1.800757189221307e-07, 2.6786835400551724e-07, 8.990651866561609e-08, 1.1514937748873973e-07, -1.9610677446380787e-08, 1.2379020744860488e-07, 2.3499368738155144e-07, 9.115218857099854e-08, 1.4652553019709122e-08, -2.395364051657317e-08, -5.71126473997487e-07, -6.324409672603325e-07, -1.0808455665669286e-08, 1.3178676884558764e-07, -1.3193051517089025e-07, -2.1404217847900972e-07, -1.5262200897765358e-07, -5.472164926308917e-07, 2.936842833521584e-07, -3.877528543396466e-07, -2.0404732729140394e-08, 4.938843272965356e-07, -6.796394386290166e-08, -8.434620812372594e-08, 6.537014815652098e-07, 1.6110280788096863e-07, -6.9326572528622615e-09, -7.048349741270625e-08, 1.8623378020489933e-07, 4.0043213477979034e-07], [2.2684844579456223e-06, -6.365667437245075e-06, 1.305242230652061e-07, -2.881211502754091e-06, 4.285893664088276e-06, 1.4385042986498574e-06, 1.8423900398198357e-06, -3.137708391420926e-07, 1.980643319177678e-06, 3.759898998104823e-06, 1.4584350171359767e-06, 2.3444084831534595e-07, -3.832582482651707e-07, -9.138023583959792e-06, -1.011905547616532e-05, -1.7293529065070858e-07, 2.108588301529402e-06, -2.110888242734244e-06, -3.4246748556641555e-06, -2.4419521436424574e-06, -8.755463882094267e-06, 4.698948533634534e-06, -6.2040456694343456e-06, -3.264757236662463e-07, 7.90214923674457e-06, -1.0874231018064266e-06, -1.349539329979615e-06, 1.0459223705043357e-05, 2.577644926095498e-06, -1.1092251604579618e-07, -1.1277359586033e-06, 2.9797404832783893e-06, 6.4069141564766455e-06], [2.2684844579456223e-06, -6.365667437245075e-06, 1.305242230652061e-07, -2.881211502754091e-06, 4.285893664088276e-06, 1.4385042986498574e-06, 1.8423900398198357e-06, -3.137708391420926e-07, 1.980643319177678e-06, 3.759898998104823e-06, 1.4584350171359767e-06, 2.3444084831534595e-07, -3.832582482651707e-07, -9.138023583959792e-06, -1.011905547616532e-05, -1.7293529065070858e-07, 2.108588301529402e-06, -2.110888242734244e-06, -3.4246748556641555e-06, -2.4419521436424574e-06, -8.755463882094267e-06, 4.698948533634534e-06, -6.2040456694343456e-06, -3.264757236662463e-07, 7.90214923674457e-06, -1.0874231018064266e-06, -1.349539329979615e-06, 1.0459223705043357e-05, 2.577644926095498e-06, -1.1092251604579618e-07, -1.1277359586033e-06, 2.9797404832783893e-06, 6.4069141564766455e-06], [5.671211144864056e-07, -1.5914168593112687e-06, 3.2631055766301526e-08, -7.203028756885228e-07, 1.071473416022069e-06, 3.5962607466246436e-07, 4.605975099549589e-07, -7.844270978552315e-08, 4.951608297944195e-07, 9.399747495262058e-07, 3.6460875428399417e-07, 5.861021207883649e-08, -9.581456206629268e-08, -2.284505895989948e-06, -2.52976386904133e-06, -4.3233822662677144e-08, 5.271470753823505e-07, -5.27722060683561e-07, -8.561687139160389e-07, -6.104880359106143e-07, -2.1888659705235667e-06, 1.1747371334086335e-06, -1.5510114173585864e-06, -8.161893091656158e-08, 1.9755373091861424e-06, -2.7185577545160665e-07, -3.3738483249490375e-07, 2.614805926260839e-06, 6.444112315238745e-07, -2.7730629011449046e-08, -2.81933989650825e-07, 7.449351208195973e-07, 1.6017285391191614e-06], [0.0, 0.0, 0.0, 0.0, 0.0, 0.0, 0.0, 0.0, 0.0, 0.0, 0.0, 0.0, 0.0, 0.0, 0.0, 0.0, 0.0, 0.0, 0.0, 0.0, 0.0, 0.0, 0.0, 0.0, 0.0, 0.0, 0.0, 0.0, 0.0, 0.0, 0.0, 0.0, 0.0], [0.0, 0.0, 0.0, 0.0, 0.0, 0.0, 0.0, 0.0, 0.0, 0.0, 0.0, 0.0, 0.0, 0.0, 0.0, 0.0, 0.0, 0.0, 0.0, 0.0, 0.0, 0.0, 0.0, 0.0, 0.0, 0.0, 0.0, 0.0, 0.0, 0.0, 0.0, 0.0, 0.0], [0.0, 0.0, 0.0, 0.0, 0.0, 0.0, 0.0, 0.0, 0.0, 0.0, 0.0, 0.0, 0.0, 0.0, 0.0, 0.0, 0.0, 0.0, 0.0, 0.0, 0.0, 0.0, 0.0, 0.0, 0.0, 0.0, 0.0, 0.0, 0.0, 0.0, 0.0, 0.0, 0.0], [0.0, 0.0, 0.0, 0.0, 0.0, 0.0, 0.0, 0.0, 0.0, 0.0, 0.0, 0.0, 0.0, 0.0, 0.0, 0.0, 0.0, 0.0, 0.0, 0.0, 0.0, 0.0, 0.0, 0.0, 0.0, 0.0, 0.0, 0.0, 0.0, 0.0, 0.0, 0.0, 0.0], [4.253408358648042e-07, -1.1935626444834516e-06, 2.4473291824726143e-08, -5.402271567663921e-07, 8.036050620165517e-07, 2.697195559968483e-07, 3.454481324662192e-07, -5.883203233914236e-08, 3.7137062234581465e-07, 7.049810621446543e-07, 2.7345656571299564e-07, 4.395765905912737e-08, -7.18609215497195e-08, -1.713379421992461e-06, -1.8973229017809976e-06, -3.242536699700786e-08, 3.9536030653676294e-07, -3.9579154551267073e-07, -6.421265354370292e-07, -4.5786602693296073e-07, -1.641649477892675e-06, 8.810528500564752e-07, -1.1632585630189397e-06, -6.121419818742118e-08, 1.4816529818896067e-06, -2.0389183158870498e-07, -2.530386243711778e-07, 1.9611044446956294e-06, 4.833084236429059e-07, -2.0797971758586785e-08, -2.1145049223811876e-07, 5.58701340614698e-07, 1.201296404339371e-06], [2.2684844579456223e-06, -6.365667437245075e-06, 1.305242230652061e-07, -2.881211502754091e-06, 4.285893664088276e-06, 1.4385042986498574e-06, 1.8423900398198357e-06, -3.137708391420926e-07, 1.980643319177678e-06, 3.759898998104823e-06, 1.4584350171359767e-06, 2.3444084831534595e-07, -3.832582482651707e-07, -9.138023583959792e-06, -1.011905547616532e-05, -1.7293529065070858e-07, 2.108588301529402e-06, -2.110888242734244e-06, -3.4246748556641555e-06, -2.4419521436424574e-06, -8.755463882094267e-06, 4.698948533634534e-06, -6.2040456694343456e-06, -3.264757236662463e-07, 7.90214923674457e-06, -1.0874231018064266e-06, -1.349539329979615e-06, 1.0459223705043357e-05, 2.577644926095498e-06, -1.1092251604579618e-07, -1.1277359586033e-06, 2.9797404832783893e-06, 6.4069141564766455e-06], [2.126704179324021e-06, -5.9678132224172575e-06, 1.2236645912363073e-07, -2.70113578383196e-06, 4.0180253100827585e-06, 1.3485977799842413e-06, 1.727240662331096e-06, -2.941601616957118e-07, 1.8568531117290732e-06, 3.5249053107232716e-06, 1.3672828285649782e-06, 2.1978829529563683e-07, -3.5930460774859753e-07, -8.566897109962304e-06, -9.486614508904987e-06, -1.621268349850393e-07, 1.9768015326838147e-06, -1.9789577275633537e-06, -3.210632677185146e-06, -2.2893301346648036e-06, -8.208247389463375e-06, 4.405264250282376e-06, -5.816292815094699e-06, -3.0607099093710593e-07, 7.408264909448034e-06, -1.019459157943525e-06, -1.265193121855889e-06, 9.805522223478147e-06, 2.4165421182145295e-06, -1.0398985879293393e-07, -1.057252461190594e-06, 2.79350670307349e-06, 6.006482021696855e-06], [2.835605572432028e-07, -7.957084296556344e-07, 1.6315527883150763e-08, -3.601514378442614e-07, 5.357367080110345e-07, 1.7981303733123218e-07, 2.3029875497747946e-07, -3.9221354892761574e-08, 2.4758041489720977e-07, 4.699873747631029e-07, 1.8230437714199709e-07, 2.9305106039418244e-08, -4.790728103314634e-08, -1.142252947994974e-06, -1.264881934520665e-06, -2.1616911331338572e-08, 2.635735376911753e-07, -2.638610303417805e-07, -4.2808435695801944e-07, -3.0524401795530717e-07, -1.0944329852617833e-06, 5.873685667043168e-07, -7.755057086792932e-07, -4.080946545828079e-08, 9.877686545930712e-07, -1.3592788772580333e-07, -1.6869241624745187e-07, 1.3074029631304196e-06, 3.2220561576193726e-07, -1.3865314505724523e-08, -1.409669948254125e-07, 3.7246756040979866e-07, 8.008642695595807e-07], [0.0, 0.0, 0.0, 0.0, 0.0, 0.0, 0.0, 0.0, 0.0, 0.0, 0.0, 0.0, 0.0, 0.0, 0.0, 0.0, 0.0, 0.0, 0.0, 0.0, 0.0, 0.0, 0.0, 0.0, 0.0, 0.0, 0.0, 0.0, 0.0, 0.0, 0.0, 0.0, 0.0], [0.0, 0.0, 0.0, 0.0, 0.0, 0.0, 0.0, 0.0, 0.0, 0.0, 0.0, 0.0, 0.0, 0.0, 0.0, 0.0, 0.0, 0.0, 0.0, 0.0, 0.0, 0.0, 0.0, 0.0, 0.0, 0.0, 0.0, 0.0, 0.0, 0.0, 0.0, 0.0, 0.0], [0.0, 0.0, 0.0, 0.0, 0.0, 0.0, 0.0, 0.0, 0.0, 0.0, 0.0, 0.0, 0.0, 0.0, 0.0, 0.0, 0.0, 0.0, 0.0, 0.0, 0.0, 0.0, 0.0, 0.0, 0.0, 0.0, 0.0, 0.0, 0.0, 0.0, 0.0, 0.0, 0.0], [0.0, 0.0, 0.0, 0.0, 0.0, 0.0, 0.0, 0.0, 0.0, 0.0, 0.0, 0.0, 0.0, 0.0, 0.0, 0.0, 0.0, 0.0, 0.0, 0.0, 0.0, 0.0, 0.0, 0.0, 0.0, 0.0, 0.0, 0.0, 0.0, 0.0, 0.0, 0.0, 0.0], [1.2760225075944125e-06, -3.5806879334503547e-06, 7.341987547417843e-08, -1.6206814702991762e-06, 2.4108151860496553e-06, 8.091586679905448e-07, 1.0363443973986575e-06, -1.7649609701742707e-07, 1.114111867037444e-06, 2.114943186433963e-06, 8.203696971389869e-07, 1.318729771773821e-07, -2.1558276464915853e-07, -5.140138265977383e-06, -5.691968705342993e-06, -9.727610099102357e-08, 1.1860809196102888e-06, -1.1873746365380122e-06, -1.9263796063110875e-06, -1.3735980807988822e-06, -4.924948433678025e-06, 2.6431585501694254e-06, -3.4897756890568192e-06, -1.8364259456226355e-07, 4.44495894566882e-06, -6.11675494766115e-07, -7.591158731135335e-07, 5.883313334086888e-06, 1.4499252709287177e-06, -6.239391527576036e-08, -6.343514767143563e-07, 1.676104021844094e-06, 3.603889213018113e-06], [2.2684844579456223e-06, -6.365667437245075e-06, 1.305242230652061e-07, -2.881211502754091e-06, 4.285893664088276e-06, 1.4385042986498574e-06, 1.8423900398198357e-06, -3.137708391420926e-07, 1.980643319177678e-06, 3.759898998104823e-06, 1.4584350171359767e-06, 2.3444084831534595e-07, -3.832582482651707e-07, -9.138023583959792e-06, -1.011905547616532e-05, -1.7293529065070858e-07, 2.108588301529402e-06, -2.110888242734244e-06, -3.4246748556641555e-06, -2.4419521436424574e-06, -8.755463882094267e-06, 4.698948533634534e-06, -6.2040456694343456e-06, -3.264757236662463e-07, 7.90214923674457e-06, -1.0874231018064266e-06, -1.349539329979615e-06, 1.0459223705043357e-05, 2.577644926095498e-06, -1.1092251604579618e-07, -1.1277359586033e-06, 2.9797404832783893e-06, 6.4069141564766455e-06], [1.7013633434592168e-06, -4.774250577933806e-06, 9.789316729890457e-08, -2.1609086270655684e-06, 3.214420248066207e-06, 1.0788782239873931e-06, 1.3817925298648767e-06, -2.3532812935656944e-07, 1.4854824893832586e-06, 2.8199242485786173e-06, 1.0938262628519826e-06, 1.7583063623650948e-07, -2.87443686198878e-07, -6.853517687969844e-06, -7.5892916071239904e-06, -1.2970146798803143e-07, 1.5814412261470518e-06, -1.583166182050683e-06, -2.5685061417481166e-06, -1.831464107731843e-06, -6.5665979115707e-06, 3.5242114002259006e-06, -4.653034252075759e-06, -2.448567927496847e-07, 5.926611927558427e-06, -8.155673263548199e-07, -1.0121544974847112e-06, 7.844417778782518e-06, 1.9332336945716236e-06, -8.319188703434714e-08, -8.458019689524751e-07, 2.234805362458792e-06, 4.805185617357484e-06], [0.0, 0.0, 0.0, 0.0, 0.0, 0.0, 0.0, 0.0, 0.0, 0.0, 0.0, 0.0, 0.0, 0.0, 0.0, 0.0, 0.0, 0.0, 0.0, 0.0, 0.0, 0.0, 0.0, 0.0, 0.0, 0.0, 0.0, 0.0, 0.0, 0.0, 0.0, 0.0, 0.0], [0.0, 0.0, 0.0, 0.0, 0.0, 0.0, 0.0, 0.0, 0.0, 0.0, 0.0, 0.0, 0.0, 0.0, 0.0, 0.0, 0.0, 0.0, 0.0, 0.0, 0.0, 0.0, 0.0, 0.0, 0.0, 0.0, 0.0, 0.0, 0.0, 0.0, 0.0, 0.0, 0.0], [0.0, 0.0, 0.0, 0.0, 0.0, 0.0, 0.0, 0.0, 0.0, 0.0, 0.0, 0.0, 0.0, 0.0, 0.0, 0.0, 0.0, 0.0, 0.0, 0.0, 0.0, 0.0, 0.0, 0.0, 0.0, 0.0, 0.0, 0.0, 0.0, 0.0, 0.0, 0.0, 0.0], [0.0, 0.0, 0.0, 0.0, 0.0, 0.0, 0.0, 0.0, 0.0, 0.0, 0.0, 0.0, 0.0, 0.0, 0.0, 0.0, 0.0, 0.0, 0.0, 0.0, 0.0, 0.0, 0.0, 0.0, 0.0, 0.0, 0.0, 0.0, 0.0, 0.0, 0.0, 0.0, 0.0], [0.0, 0.0, 0.0, 0.0, 0.0, 0.0, 0.0, 0.0, 0.0, 0.0, 0.0, 0.0, 0.0, 0.0, 0.0, 0.0, 0.0, 0.0, 0.0, 0.0, 0.0, 0.0, 0.0, 0.0, 0.0, 0.0, 0.0, 0.0, 0.0, 0.0, 0.0, 0.0, 0.0], [1.7013633434592168e-06, -4.774250577933806e-06, 9.789316729890457e-08, -2.1609086270655684e-06, 3.214420248066207e-06, 1.0788782239873931e-06, 1.3817925298648767e-06, -2.3532812935656944e-07, 1.4854824893832586e-06, 2.8199242485786173e-06, 1.0938262628519826e-06, 1.7583063623650948e-07, -2.87443686198878e-07, -6.853517687969844e-06, -7.5892916071239904e-06, -1.2970146798803143e-07, 1.5814412261470518e-06, -1.583166182050683e-06, -2.5685061417481166e-06, -1.831464107731843e-06, -6.5665979115707e-06, 3.5242114002259006e-06, -4.653034252075759e-06, -2.448567927496847e-07, 5.926611927558427e-06, -8.155673263548199e-07, -1.0121544974847112e-06, 7.844417778782518e-06, 1.9332336945716236e-06, -8.319188703434714e-08, -8.458019689524751e-07, 2.234805362458792e-06, 4.805185617357484e-06], [2.2684844579456223e-06, -6.365667437245075e-06, 1.305242230652061e-07, -2.881211502754091e-06, 4.285893664088276e-06, 1.4385042986498574e-06, 1.8423900398198357e-06, -3.137708391420926e-07, 1.980643319177678e-06, 3.759898998104823e-06, 1.4584350171359767e-06, 2.3444084831534595e-07, -3.832582482651707e-07, -9.138023583959792e-06, -1.011905547616532e-05, -1.7293529065070858e-07, 2.108588301529402e-06, -2.110888242734244e-06, -3.4246748556641555e-06, -2.4419521436424574e-06, -8.755463882094267e-06, 4.698948533634534e-06, -6.2040456694343456e-06, -3.264757236662463e-07, 7.90214923674457e-06, -1.0874231018064266e-06, -1.349539329979615e-06, 1.0459223705043357e-05, 2.577644926095498e-06, -1.1092251604579618e-07, -1.1277359586033e-06, 2.9797404832783893e-06, 6.4069141564766455e-06], [7.089013931080069e-07, -1.989271074139086e-06, 4.078881970787691e-08, -9.003785946106534e-07, 1.3393417700275863e-06, 4.4953259332808044e-07, 5.757468874436986e-07, -9.805338723190393e-08, 6.189510372430244e-07, 1.1749684369077572e-06, 4.557609428549927e-07, 7.32627650985456e-08, -1.1976820258286585e-07, -2.855632369987435e-06, -3.1622048363016625e-06, -5.404227832834643e-08, 6.589338442279382e-07, -6.596525758544513e-07, -1.0702108923950486e-06, -7.63110044888268e-07, -2.7360824631544585e-06, 1.4684214167607918e-06, -1.938764271698233e-06, -1.0202366364570197e-07, 2.469421636482678e-06, -3.3981971931450833e-07, -4.217310406186297e-07, 3.268507407826049e-06, 8.055140394048432e-07, -3.466328626431131e-08, -3.524174870635313e-07, 9.311689010244966e-07, 2.002160673898952e-06], [0.0, 0.0, 0.0, 0.0, 0.0, 0.0, 0.0, 0.0, 0.0, 0.0, 0.0, 0.0, 0.0, 0.0, 0.0, 0.0, 0.0, 0.0, 0.0, 0.0, 0.0, 0.0, 0.0, 0.0, 0.0, 0.0, 0.0, 0.0, 0.0, 0.0, 0.0, 0.0, 0.0], [0.0, 0.0, 0.0, 0.0, 0.0, 0.0, 0.0, 0.0, 0.0, 0.0, 0.0, 0.0, 0.0, 0.0, 0.0, 0.0, 0.0, 0.0, 0.0, 0.0, 0.0, 0.0, 0.0, 0.0, 0.0, 0.0, 0.0, 0.0, 0.0, 0.0, 0.0, 0.0, 0.0], [0.0, 0.0, 0.0, 0.0, 0.0, 0.0, 0.0, 0.0, 0.0, 0.0, 0.0, 0.0, 0.0, 0.0, 0.0, 0.0, 0.0, 0.0, 0.0, 0.0, 0.0, 0.0, 0.0, 0.0, 0.0, 0.0, 0.0, 0.0, 0.0, 0.0, 0.0, 0.0, 0.0], [0.0, 0.0, 0.0, 0.0, 0.0, 0.0, 0.0, 0.0, 0.0, 0.0, 0.0, 0.0, 0.0, 0.0, 0.0, 0.0, 0.0, 0.0, 0.0, 0.0, 0.0, 0.0, 0.0, 0.0, 0.0, 0.0, 0.0, 0.0, 0.0, 0.0, 0.0, 0.0, 0.0], [0.0, 0.0, 0.0, 0.0, 0.0, 0.0, 0.0, 0.0, 0.0, 0.0, 0.0, 0.0, 0.0, 0.0, 0.0, 0.0, 0.0, 0.0, 0.0, 0.0, 0.0, 0.0, 0.0, 0.0, 0.0, 0.0, 0.0, 0.0, 0.0, 0.0, 0.0, 0.0, 0.0], [1.9849239007024196e-06, -5.56995900758944e-06, 1.1420869518205534e-07, -2.5210600649098297e-06, 3.750156956077241e-06, 1.2586912613186253e-06, 1.6120912848423562e-06, -2.7454948424933104e-07, 1.7330629042804684e-06, 3.28991162334172e-06, 1.2761306399939796e-06, 2.0513574227592771e-07, -3.3535096723202436e-07, -7.995770635964817e-06, -8.854173541644656e-06, -1.5131837931937002e-07, 1.845014763838227e-06, -1.8470272123924635e-06, -2.996590498706136e-06, -2.1367081256871503e-06, -7.661030896832483e-06, 4.111579966930218e-06, -5.428539960755053e-06, -2.856662582079655e-07, 6.914380582151498e-06, -9.514952140806233e-07, -1.180846913732163e-06, 9.151820741912937e-06, 2.255439310333561e-06, -9.705720154007166e-08, -9.867689637778875e-07, 2.6072729228685906e-06, 5.606049886917065e-06], [2.2684844579456223e-06, -6.365667437245075e-06, 1.305242230652061e-07, -2.881211502754091e-06, 4.285893664088276e-06, 1.4385042986498574e-06, 1.8423900398198357e-06, -3.137708391420926e-07, 1.980643319177678e-06, 3.759898998104823e-06, 1.4584350171359767e-06, 2.3444084831534595e-07, -3.832582482651707e-07, -9.138023583959792e-06, -1.011905547616532e-05, -1.7293529065070858e-07, 2.108588301529402e-06, -2.110888242734244e-06, -3.4246748556641555e-06, -2.4419521436424574e-06, -8.755463882094267e-06, 4.698948533634534e-06, -6.2040456694343456e-06, -3.264757236662463e-07, 7.90214923674457e-06, -1.0874231018064266e-06, -1.349539329979615e-06, 1.0459223705043357e-05, 2.577644926095498e-06, -1.1092251604579618e-07, -1.1277359586033e-06, 2.9797404832783893e-06, 6.4069141564766455e-06], [8.506816717296084e-07, -2.387125288966903e-06, 4.8946583649452286e-08, -1.0804543135327842e-06, 1.6072101240331035e-06, 5.394391119936966e-07, 6.908962649324384e-07, -1.1766406467828472e-07, 7.427412446916293e-07, 1.4099621242893086e-06, 5.469131314259913e-07, 8.791531811825474e-08, -1.43721843099439e-07, -3.426758843984922e-06, -3.7946458035619952e-06, -6.485073399401572e-08, 7.907206130735259e-07, -7.915830910253415e-07, -1.2842530708740583e-06, -9.157320538659215e-07, -3.28329895578535e-06, 1.7621057001129503e-06, -2.3265171260378795e-06, -1.2242839637484236e-07, 2.9633059637792133e-06, -4.0778366317740995e-07, -5.060772487423556e-07, 3.922208889391259e-06, 9.666168472858118e-07, -4.159594351717357e-08, -4.2290098447623753e-07, 1.117402681229396e-06, 2.402592808678742e-06], [0.0, 0.0, 0.0, 0.0, 0.0, 0.0, 0.0, 0.0, 0.0, 0.0, 0.0, 0.0, 0.0, 0.0, 0.0, 0.0, 0.0, 0.0, 0.0, 0.0, 0.0, 0.0, 0.0, 0.0, 0.0, 0.0, 0.0, 0.0, 0.0, 0.0, 0.0, 0.0, 0.0], [0.0, 0.0, 0.0, 0.0, 0.0, 0.0, 0.0, 0.0, 0.0, 0.0, 0.0, 0.0, 0.0, 0.0, 0.0, 0.0, 0.0, 0.0, 0.0, 0.0, 0.0, 0.0, 0.0, 0.0, 0.0, 0.0, 0.0, 0.0, 0.0, 0.0, 0.0, 0.0, 0.0], [0.0, 0.0, 0.0, 0.0, 0.0, 0.0, 0.0, 0.0, 0.0, 0.0, 0.0, 0.0, 0.0, 0.0, 0.0, 0.0, 0.0, 0.0, 0.0, 0.0, 0.0, 0.0, 0.0, 0.0, 0.0, 0.0, 0.0, 0.0, 0.0, 0.0, 0.0, 0.0, 0.0], [0.0, 0.0, 0.0, 0.0, 0.0, 0.0, 0.0, 0.0, 0.0, 0.0, 0.0, 0.0, 0.0, 0.0, 0.0, 0.0, 0.0, 0.0, 0.0, 0.0, 0.0, 0.0, 0.0, 0.0, 0.0, 0.0, 0.0, 0.0, 0.0, 0.0, 0.0, 0.0, 0.0], [0.0, 0.0, 0.0, 0.0, 0.0, 0.0, 0.0, 0.0, 0.0, 0.0, 0.0, 0.0, 0.0, 0.0, 0.0, 0.0, 0.0, 0.0, 0.0, 0.0, 0.0, 0.0, 0.0, 0.0, 0.0, 0.0, 0.0, 0.0, 0.0, 0.0, 0.0, 0.0, 0.0], [1.2760225075944125e-06, -3.5806879334503547e-06, 7.341987547417843e-08, -1.6206814702991762e-06, 2.4108151860496553e-06, 8.091586679905448e-07, 1.0363443973986575e-06, -1.7649609701742707e-07, 1.114111867037444e-06, 2.114943186433963e-06, 8.203696971389869e-07, 1.318729771773821e-07, -2.1558276464915853e-07, -5.140138265977383e-06, -5.691968705342993e-06, -9.727610099102357e-08, 1.1860809196102888e-06, -1.1873746365380122e-06, -1.9263796063110875e-06, -1.3735980807988822e-06, -4.924948433678025e-06, 2.6431585501694254e-06, -3.4897756890568192e-06, -1.8364259456226355e-07, 4.44495894566882e-06, -6.11675494766115e-07, -7.591158731135335e-07, 5.883313334086888e-06, 1.4499252709287177e-06, -6.239391527576036e-08, -6.343514767143563e-07, 1.676104021844094e-06, 3.603889213018113e-06], [2.2684844579456223e-06, -6.365667437245075e-06, 1.305242230652061e-07, -2.881211502754091e-06, 4.285893664088276e-06, 1.4385042986498574e-06, 1.8423900398198357e-06, -3.137708391420926e-07, 1.980643319177678e-06, 3.759898998104823e-06, 1.4584350171359767e-06, 2.3444084831534595e-07, -3.832582482651707e-07, -9.138023583959792e-06, -1.011905547616532e-05, -1.7293529065070858e-07, 2.108588301529402e-06, -2.110888242734244e-06, -3.4246748556641555e-06, -2.4419521436424574e-06, -8.755463882094267e-06, 4.698948533634534e-06, -6.2040456694343456e-06, -3.264757236662463e-07, 7.90214923674457e-06, -1.0874231018064266e-06, -1.349539329979615e-06, 1.0459223705043357e-05, 2.577644926095498e-06, -1.1092251604579618e-07, -1.1277359586033e-06, 2.9797404832783893e-06, 6.4069141564766455e-06], [1.1342422289728112e-06, -3.1828337186225374e-06, 6.526211153260305e-08, -1.4406057513770455e-06, 2.142946832044138e-06, 7.192521493249287e-07, 9.211950199099178e-07, -1.568854195710463e-07, 9.90321659588839e-07, 1.8799494990524115e-06, 7.292175085679883e-07, 1.1722042415767298e-07, -1.9162912413258535e-07, -4.569011791979896e-06, -5.05952773808266e-06, -8.646764532535429e-08, 1.054294150764701e-06, -1.055444121367122e-06, -1.7123374278320778e-06, -1.2209760718212287e-06, -4.377731941047133e-06, 2.349474266817267e-06, -3.1020228347171728e-06, -1.6323786183312315e-07, 3.951074618372285e-06, -5.437115509032133e-07, -6.747696649898075e-07, 5.229611852521678e-06, 1.288822463047749e-06, -5.546125802289809e-08, -5.6386797930165e-07, 1.4898702416391946e-06, 3.2034570782383227e-06], [0.0, 0.0, 0.0, 0.0, 0.0, 0.0, 0.0, 0.0, 0.0, 0.0, 0.0, 0.0, 0.0, 0.0, 0.0, 0.0, 0.0, 0.0, 0.0, 0.0, 0.0, 0.0, 0.0, 0.0, 0.0, 0.0, 0.0, 0.0, 0.0, 0.0, 0.0, 0.0, 0.0], [0.0, 0.0, 0.0, 0.0, 0.0, 0.0, 0.0, 0.0, 0.0, 0.0, 0.0, 0.0, 0.0, 0.0, 0.0, 0.0, 0.0, 0.0, 0.0, 0.0, 0.0, 0.0, 0.0, 0.0, 0.0, 0.0, 0.0, 0.0, 0.0, 0.0, 0.0, 0.0, 0.0], [0.0, 0.0, 0.0, 0.0, 0.0, 0.0, 0.0, 0.0, 0.0, 0.0, 0.0, 0.0, 0.0, 0.0, 0.0, 0.0, 0.0, 0.0, 0.0, 0.0, 0.0, 0.0, 0.0, 0.0, 0.0, 0.0, 0.0, 0.0, 0.0, 0.0, 0.0, 0.0, 0.0], [0.0, 0.0, 0.0, 0.0, 0.0, 0.0, 0.0, 0.0, 0.0, 0.0, 0.0, 0.0, 0.0, 0.0, 0.0, 0.0, 0.0, 0.0, 0.0, 0.0, 0.0, 0.0, 0.0, 0.0, 0.0, 0.0, 0.0, 0.0, 0.0, 0.0, 0.0, 0.0, 0.0], [0.0, 0.0, 0.0, 0.0, 0.0, 0.0, 0.0, 0.0, 0.0, 0.0, 0.0, 0.0, 0.0, 0.0, 0.0, 0.0, 0.0, 0.0, 0.0, 0.0, 0.0, 0.0, 0.0, 0.0, 0.0, 0.0, 0.0, 0.0, 0.0, 0.0, 0.0, 0.0, 0.0], [2.835605572432028e-07, -7.957084296556344e-07, 1.6315527883150763e-08, -3.601514378442614e-07, 5.357367080110345e-07, 1.7981303733123218e-07, 2.3029875497747946e-07, -3.9221354892761574e-08, 2.4758041489720977e-07, 4.699873747631029e-07, 1.8230437714199709e-07, 2.9305106039418244e-08, -4.790728103314634e-08, -1.142252947994974e-06, -1.264881934520665e-06, -2.1616911331338572e-08, 2.635735376911753e-07, -2.638610303417805e-07, -4.2808435695801944e-07, -3.0524401795530717e-07, -1.0944329852617833e-06, 5.873685667043168e-07, -7.755057086792932e-07, -4.080946545828079e-08, 9.877686545930712e-07, -1.3592788772580333e-07, -1.6869241624745187e-07, 1.3074029631304196e-06, 3.2220561576193726e-07, -1.3865314505724523e-08, -1.409669948254125e-07, 3.7246756040979866e-07, 8.008642695595807e-07], [1.5595830648376153e-06, -4.376396363105989e-06, 8.97354033573292e-08, -1.9808329081434375e-06, 2.9465518940606896e-06, 9.88971705321777e-07, 1.266643152376137e-06, -2.1571745191018867e-07, 1.3616922819346537e-06, 2.584930561197066e-06, 1.002674074280984e-06, 1.6117808321680033e-07, -2.634900456823049e-07, -6.282391213972357e-06, -6.956850639863658e-06, -1.1889301232236215e-07, 1.449654457301464e-06, -1.4512356668797928e-06, -2.354463963269107e-06, -1.6788420987541894e-06, -6.019381418939808e-06, 3.2305271168737424e-06, -4.265281397736113e-06, -2.2445206002054434e-07, 5.432727600261891e-06, -7.476033824919183e-07, -9.278082893609853e-07, 7.190716297217308e-06, 1.772130886690655e-06, -7.625922978148487e-08, -7.753184715397688e-07, 2.048571582253893e-06, 4.404753482577694e-06], [1.8431436220808182e-06, -5.172104792761624e-06, 1.0605093124047996e-07, -2.340984345987699e-06, 3.4822886020717243e-06, 1.168784742653009e-06, 1.4969419073536164e-06, -2.549388068029502e-07, 1.6092726968318635e-06, 3.0549179359601687e-06, 1.184978451422981e-06, 1.904831892562186e-07, -3.113973267154512e-07, -7.424644161967331e-06, -8.221732574384323e-06, -1.405099236537007e-07, 1.7132279949926393e-06, -1.7150966972215733e-06, -2.7825483202271264e-06, -1.9840861167094966e-06, -7.113814404201592e-06, 3.817895683578059e-06, -5.040787106415406e-06, -2.6526152547882514e-07, 6.420496254854963e-06, -8.835312702177216e-07, -1.0965007056084372e-06, 8.498119260347727e-06, 2.0943365024525922e-06, -9.01245442872094e-08, -9.162854663651813e-07, 2.421039142663691e-06, 5.205617752137274e-06], [1.417802786216014e-07, -3.978542148278172e-07, 8.157763941575382e-09, -1.800757189221307e-07, 2.6786835400551724e-07, 8.990651866561609e-08, 1.1514937748873973e-07, -1.9610677446380787e-08, 1.2379020744860488e-07, 2.3499368738155144e-07, 9.115218857099854e-08, 1.4652553019709122e-08, -2.395364051657317e-08, -5.71126473997487e-07, -6.324409672603325e-07, -1.0808455665669286e-08, 1.3178676884558764e-07, -1.3193051517089025e-07, -2.1404217847900972e-07, -1.5262200897765358e-07, -5.472164926308917e-07, 2.936842833521584e-07, -3.877528543396466e-07, -2.0404732729140394e-08, 4.938843272965356e-07, -6.796394386290166e-08, -8.434620812372594e-08, 6.537014815652098e-07, 1.6110280788096863e-07, -6.9326572528622615e-09, -7.048349741270625e-08, 1.8623378020489933e-07, 4.0043213477979034e-07], [0.0, 0.0, 0.0, 0.0, 0.0, 0.0, 0.0, 0.0, 0.0, 0.0, 0.0, 0.0, 0.0, 0.0, 0.0, 0.0, 0.0, 0.0, 0.0, 0.0, 0.0, 0.0, 0.0, 0.0, 0.0, 0.0, 0.0, 0.0, 0.0, 0.0, 0.0, 0.0, 0.0], [0.0, 0.0, 0.0, 0.0, 0.0, 0.0, 0.0, 0.0, 0.0, 0.0, 0.0, 0.0, 0.0, 0.0, 0.0, 0.0, 0.0, 0.0, 0.0, 0.0, 0.0, 0.0, 0.0, 0.0, 0.0, 0.0, 0.0, 0.0, 0.0, 0.0, 0.0, 0.0, 0.0], [2.2684844579456223e-06, -6.365667437245075e-06, 1.305242230652061e-07, -2.881211502754091e-06, 4.285893664088276e-06, 1.4385042986498574e-06, 1.8423900398198357e-06, -3.137708391420926e-07, 1.980643319177678e-06, 3.759898998104823e-06, 1.4584350171359767e-06, 2.3444084831534595e-07, -3.832582482651707e-07, -9.138023583959792e-06, -1.011905547616532e-05, -1.7293529065070858e-07, 2.108588301529402e-06, -2.110888242734244e-06, -3.4246748556641555e-06, -2.4419521436424574e-06, -8.755463882094267e-06, 4.698948533634534e-06, -6.2040456694343456e-06, -3.264757236662463e-07, 7.90214923674457e-06, -1.0874231018064266e-06, -1.349539329979615e-06, 1.0459223705043357e-05, 2.577644926095498e-06, -1.1092251604579618e-07, -1.1277359586033e-06, 2.9797404832783893e-06, 6.4069141564766455e-06]]}, {"activ_func_name": "SIGMOID", "is_last": false, "weights": [[1.2904369336715251, -0.03041684127351076, -0.20997480497270174, -0.9021945892303251, -0.7282438738233307, -0.25215374262123763, 1.1019623008821158, 0.9366229353378784, 0.1025413572463755, -0.9398746853776864, 0.1906468832384395, -0.8898903831227787, 0.716603260722395, 0.933059715350824, -0.23016961605966046, -0.1054508194390516, -0.3810719969690992], [0.06710064779993723, 1.1904558650391435, 1.6431255515359833, 0.2978462755096385, -1.2018079911700266, -0.5889171114075181, 0.6912426004778098, 0.28899455910497346, 0.7911407496421833, -0.48443295234377015, -0.3546312309679778, 0.1538631477306223, -1.7436042538813838, 1.638433011456862, -1.5087114476517614, 0.18191736587768828, 0.2221312604401326], [0.4590198004591401, 0.022178371573158478, 0.18520133500135139, -0.22687414912554874, 0.7503499445121912, -2.8686009260051546, 1.1540494578330311, -0.5906829968417644, -0.09106855299322754, -0.5993326325502323, 1.5010071573676411, -2.297305884490003, 0.052143174173149114, 3.0003069429384355, -1.1897195866829968, 0.15088338774976984, -0.8700795689177886], [-0.5779504457595607, -0.2817940016243115, -1.6499685050947015, 1.212885117073923, 0.2845976488812258, -0.009407658962097044, -0.49067107788463105, -0.361256088562766, -0.522867977791445, -0.674922331951982, -0.06305715638719105, -0.39564669821671505, 0.23862132798030944, -1.2225968498894635, 0.2920211947097213, 0.82970408691021, 0.9395341381038521], [-0.9458035865348767, 0.23220020944631797, 1.4536432388997464, -1.1238858430767238, 0.6289678683443459, 1.8128692840637064, -0.32466445005412986, -0.3539015739171188, -0.20319061847329536, 1.3132971494122465, 0.22264552682721914, 1.0409879757076632, 1.146587625172615, -0.3667046268764869, -0.3218356420848222, -1.6353769337490225, -0.4614826337366463], [-0.4120330074047901, 0.0482000298087878, -1.8778738817927214, 0.2381946186888706, -1.1528378181040582, 1.484393621087932, -1.3188321774698923, -0.8914797843966836, -1.8596541327575051, -0.9524993273602085, 0.25015015841406163, 1.195008787488775, 2.7376513809648686, -1.2603898433588205, 2.8837453531420447, 1.2078554797434145, 0.49245247055368346], [-0.7205573045970924, 1.1575685584484885, 1.252406823826905, -1.691065757476434, 0.9231915663079426, -0.9939627287850109, -0.0881296109476255, -1.2186869517450594, 0.06430850820832086, 0.20152592965574917, 1.5020274625794934, -1.8090637013532742, 0.6845645874717653, 0.7372179098483668, 0.20592723947361177, -0.46565256590997256, -1.4089448414870738], [0.4249802376184644, -0.1913372325953246, -2.7351833808350823, 2.8733307553981278, -0.5013773385337997, -0.6594961447983808, -0.1884703425612569, 0.3932201074563279, -0.6190308200987616, -1.4382831575157142, -1.0364579891170103, -2.0436093788176803, 0.5005728814458484, -0.7506730789163689, -0.08811255811699462, 1.1584334090879709, 0.6168178935403487], [-1.929505162198455, 0.8373619954811886, -0.3855107837887554, -0.019275409311444145, 1.1884450670189204, 1.263793654772864, -1.6626932400561305, -1.3086816778920354, 0.39510467853022707, 1.0953905597961502, 0.18659600695293696, 0.8685389155357913, -0.7820067701388451, -2.1177453190629323, 1.004502165158046, -0.4448793252120476, 0.5258738851729065], [1.9422331176533096, -1.1778039883856943, 1.6293548001016818, -1.478524773162523, -1.440201976354073, 0.24334293257343165, 1.0177025266552118, 1.9673293807366183, -0.6934052401988061, 0.46910310386395976, -0.10124550870553081, 0.5061989170290303, 2.1646771584837765, 1.8267187006572736, 0.023747288439459686, -0.33863287226407623, -0.5927021422377989], [1.2214871998866843, 1.6669402003977953, 0.7266592100562208, -1.1402730323618802, -0.380673578022457, -0.20928849861439874, -0.12358454531255661, 0.651902993985047, 0.7333608158586692, -0.16468143338496233, 0.006482141980914033, -0.6936986755621488, -0.5989742041631096, -1.096641383515663, 0.9406208746964605, 0.3094107670204055, 0.1515576218026707], [-0.35950772749224397, -0.2555106931272167, 1.7157997710244164, -0.4839946601278951, 1.9919051103304841, -0.635788947509922, -0.6084446581138989, -0.8652213446496343, 0.8875585262650219, 2.241689660444116, 0.46570871182120255, 0.05123023413733553, -2.5840265187983595, -0.19915063911823108, -0.36480496360014025, -1.3284841752464946, -0.5655420666192591], [-0.9189885457855851, 2.7816986339073844, -0.04162354669444836, 0.12438915172643501, -1.185147957935226, 0.8152996275775249, 0.07877895193334092, 0.13772818492848932, 0.618991594116591, -2.45762868160956, -0.2649966922952442, -1.1254120062699307, -1.0506475829793884, -1.8892938936522323, 0.42864316075271464, 0.6954697796767844, 0.805303041151063], [1.294562828527034, -0.9453593112360654, -1.0826908811518405, 1.8427352784295385, 1.1070563158867863, -1.3634551539417317, 0.22196574712347478, 1.0076675075179744, 0.6567979585961348, 1.1720132954143405, -0.6810395745013269, -2.0433092594901154, -1.4319278868448733, -0.022774132580675763, -1.410987623084885, -0.7088016192637653, 0.2679309460599683], [-0.6455815378688716, 1.3007699900953213, -0.30761884034992054, 0.9370185414100048, -0.9142945770694211, 0.6279844651014969, 0.09518324035383456, -0.010975601314859442, 0.1635060897944058, -1.8018227469635688, -0.9059431679955842, -0.02772229105895063, -1.1145039825019343, -1.4339404717207742, -0.20298972356545933, 1.121096935739298, 0.9601514919769449], [-1.1826496704888763, -0.5269277736855132, -0.07828377777279073, 0.44092018723819926, 1.861924039961731, 0.6852920226720294, -1.4295146512745847, -0.43988092287746416, 0.563951113213375, 0.5919060819358969, -0.14228381101891835, 0.8367196953468962, -1.367184719598499, -1.8868508223095186, 0.6174087246511751, -0.3065779356469302, 0.5421708892500551], [-1.96519376673068, -1.0083821398575936, -1.1122374481912052, 0.6633034286481599, 0.9816107045079041, 0.3745466481828751, -0.6531433082824702, -1.3516427236629054, -0.35404497390541023, -0.17045680896317636, 0.3850971799068145, 0.7605208107198151, 0.7955600436898815, 0.3302253469759382, -0.26223373090790864, -0.08217533927447951, -0.07008343406408395], [0.30720790238236817, 0.4435240964466994, -0.6983107285906993, 1.427008360160552, -1.06786988335142, -0.28473179796169773, 0.8794863929434023, 1.0611570259171852, -0.22269394658910735, -0.809601039071087, -0.7851400785923044, -0.5119536956108461, 0.18345796634355122, 0.20222833977312454, -1.0036640725499453, 0.30832959646268887, 0.24368524339111333], [-1.5174641095580441, 0.5523629211672453, -0.5649494481444793, 1.1214786471779714, 1.2697518446307863, -0.8737102648507725, 0.18704884122313423, -0.40867693453464904, 0.9802838546157989, -0.17623745893753043, 0.28280728678632133, -1.1074865785661945, -1.833446114124132, 0.5354184485361216, -1.32532080344966, -0.4615211333174084, -0.18021889755999385], [2.0605490350579263, -0.678870960980248, -0.6979458410688892, 2.0608154922286346, -0.2071357588763166, -0.9263364669764128, -0.33841721827920535, 1.0890823376852459, -0.0022929345326023246, 1.0028889797579479, -1.5367464536963125, -0.5519376562511974, -1.01287556348189, -0.42781119937230055, 0.530275116550403, 0.32102237100422154, 0.7702920558726946], [1.3237487874136025, 0.7987592879408535, -0.4475806025563644, 1.2575288796968878, -2.1459797636489344, -0.7669203020960893, -0.25080681202805916, 0.6107920820805152, 0.24402297801360923, -2.2028911642501727, -0.9573887439738714, 0.19035803835228715, -1.0969519681790256, -0.9632028755317548, 1.1959367985881697, 2.366370344762693, 1.8930536799700193], [-0.4091969958572311, -1.0795081715409882, 0.3578743512427343, -0.7950133069194224, 2.8169571843070242, -0.016671411164528468, -1.0570109911919174, -1.073382664825669, -0.021908049028279787, 2.4579837754930742, 0.8983422124121047, -0.5777783185866149, 0.29566394103650273, -0.3240585889632732, -0.12397521307791391, -2.1507138740493352, -1.1100578399728713], [-1.488517008393031, 0.42560864786755376, 3.4807966804758146, -0.14009980861637283, 0.021987290201803608, 1.519518559815374, 0.16684933573299018, -0.09717688816658507, 0.9598011492669306, 1.6301025782941467, -0.8776349809355026, 3.095780844459806, -1.7035135762841913, 0.502897847324849, -1.4496795931620554, -1.2005779446376001, -0.6393537438328786], [0.7990048453296063, -1.4970010002814085, -0.6926325823220537, 1.7540230675669453, -0.404220894629201, -1.184762649236, 0.8332804291268412, 0.946920455392829, 0.22514270171376666, -0.021050880241496147, -1.0793402376825523, -1.042985800416772, 0.18848110077161478, 2.22665044194136, -2.216814963003672, -0.4747732819362306, 0.23731134753014568], [-0.20791928571836987, 0.35770154040569135, 0.3332921323641509, -2.3983087245083468, 0.15603451477852343, 0.6646816657542124, -0.026312180399588273, -0.44796940027235255, -0.5572024149306123, -0.45760806569764134, 1.1069533990977347, -0.11853123836539692, 2.029058355594898, -0.17687183971705372, 1.2817999534381608, -0.29340993747156996, -0.9642506372155919], [1.0821959373472199, -1.7466020846352828, 0.10859263027337455, 0.7109857216154475, 1.2374357708401225, -1.5043415091979158, 0.6829802618829967, 0.6990388766976345, 0.2887216503329196, 1.2367836996296195, -0.13213342966811503, -0.41114945733036434, -0.4149461001998734, 1.497258767578446, -0.9199797935530358, -0.4616187512380615, -0.4563915204804775], [0.39641692776208215, 0.07035151694123119, 0.11490424733050747, 0.3967944339825425, 0.22998184638042193, 0.14365483442238505, -0.9914506983563343, 0.21386016324448512, -0.5242439956931101, 0.3309609870323079, -0.4109694750686506, 0.4889124593341595, -0.5648492509059184, -2.20842713072606, 1.4510187300992474, 0.2252920197016262, 0.4847528215966215], [-2.0854627078770043, 1.244850677754618, 0.9853560786931737, -1.3668036868550495, -0.1707901685423861, 0.6844632903778235, 0.03305269301355146, -1.3835548153812725, -0.09581875861826519, -0.8290652184405679, 1.0336201119803516, 0.5906810574708028, 0.38960786130440844, 0.7219999376771158, 0.06307242952250366, 0.1174664775118103, -0.7237262407137695], [1.0020809631362924, -0.9665507783078476, 1.354717160793191, -0.7590069610313505, -0.2608046303826206, 0.42951892167934114, 0.3027053756404905, 0.5280571483570258, -0.48752806859334885, 0.7827531343186919, 0.1693635747051316, 1.0087872592511604, 1.3724905691877438, 1.3292472986452726, 0.21195826002245713, -0.13940454866090737, -0.43858091808914584], [-2.0787610270012618, 1.881151190702337, 1.3977167102199177, -0.436623203612677, -0.7748055097791369, -0.1844480756235429, 0.33513232555066513, -0.6534589176851195, 0.5663341116614149, -2.0534483316408574, 0.4671256819714158, 0.6071961438765915, -1.2660637677969577, 1.1813146051574785, -0.5542956282851125, 0.8966233636314029, -0.06341014097984203], [1.526446452099043, -1.430559659602739, 0.3022691111280511, 1.1320134381653895, 1.371890909887747, -0.7828267999011509, -0.8223343824354691, 0.6515702323699472, -0.07410452002878529, 1.7683287404825427, -1.0824511746837442, 0.4185694447844773, -1.5234116192092126, -0.5454174002562733, 0.2547978991482758, -0.29945556841812027, 0.4877196914054526], [1.131228218359658, 0.13766306400611683, -0.7168047851973429, -1.0364279850866576, -0.4905010497415136, -0.2693791334708255, -0.02214702443483932, 0.656605020892847, -0.2940789146195276, -0.767077988352011, -0.026341932355118173, -0.40994588186263614, 0.9567471659875333, -0.15316732154616836, 1.1742023574116733, 0.4033950592365405, 0.2364521582764376], [0.5159430993715503, -2.1417986852956017, -0.9465196448056953, -0.2263519086820253, -0.0037240583602040317, 0.04833305611984493, 0.3171506638580634, 0.315278559412275, -1.5368535863205555, 0.18673581810232462, 0.7313819141134341, -0.29787869124278643, 2.7444526889391896, 1.4568010547172208, 0.48257077150491456, -0.21512429336291614, -0.25345478152411655]], "outputs": [[0.8828416764442703, 0.9598542470630901, 0.9850150140639212, 0.8911519154885609, 0.11355286574981162, 0.002470533483153889, 0.9598371251320676, 0.8891178311141029, 0.8019035329395805, 0.03202622913237872, 0.42643456825379755, 0.025766640261836633, 0.03432393393354374, 0.9980560230718644, 0.046041556954290436, 0.9244843721793803, 0.4956178603715655]], "delta": [[2.714598687826787e-07, 2.5315410084244574e-07, -2.7088825859000884e-07, -1.1000715533957707e-05, 4.361391227476307e-06, -9.181599041166467e-09, -1.5568686649835536e-06, -3.968062864471562e-06, -5.05738777784711e-06, 4.8308117003791e-07, 1.8486907549532984e-05, -5.572508219033569e-07, 3.4470543388417735e-06, -2.7438433428786557e-08, 4.5001434174397886e-06, -2.306687425029518e-06, -8.560469573569418e-06]], "gradient": [[1.6969594462558904e-07, 1.5825257881006386e-07, -1.6933861765848444e-07, -6.876805851500726e-06, 2.7264081705603996e-06, -5.739633373622128e-09, -9.732351965950024e-07, -2.4805293656842306e-06, -3.1614919735584693e-06, 3.0198539418747675e-07, 1.1556600442975343e-05, -3.48350586922224e-07, 2.154834690035828e-06, -1.7152409675228492e-08, 2.8131454258692944e-06, -1.4419645279491433e-06, -5.351350743812664e-06], [2.1130444511552394e-07, 1.9705522973657919e-07, -2.1085950356624038e-07, -8.562960345485069e-06, 3.3949082690796585e-06, -7.14695950958443e-09, -1.2118670463053265e-06, -3.088741350685354e-06, -3.936672197346191e-06, 3.7603053091555895e-07, 1.4390214506378319e-05, -4.337642106750029e-07, 2.6831881545449878e-06, -2.1358084996167714e-08, 3.5029130163016832e-06, -1.795526199089948e-06, -6.663472141510266e-06], [2.705108341580229e-07, 2.5226906391912277e-07, -2.6994122233758787e-07, -1.096225658978842e-05, 4.346143628245134e-06, -9.149499801456197e-09, -1.5514257894832568e-06, -3.9541903570247645e-06, -5.039706946669334e-06, 4.813922988285444e-07, 1.8422276576837114e-05, -5.553026506065249e-07, 3.435003298165666e-06, -2.734250756141248e-08, 4.484410734969194e-06, -2.298623152971818e-06, -8.530541827471766e-06], [2.0807651191948943e-07, 1.940449706898698e-07, -2.0763836739521136e-07, -8.432150679174421e-06, 3.3430469033934654e-06, -7.037780983599851e-09, -1.1933542986638342e-06, -3.0415570582092024e-06, -3.876534726689704e-06, 3.7028620578883857e-07, 1.4170386423359048e-05, -4.2713793315337264e-07, 2.642199181925282e-06, -2.103181419043448e-08, 3.4494017463330853e-06, -1.76809734581039e-06, -6.5616794749401296e-06], [4.3511274674726845e-08, 4.057711243354143e-08, -4.3419653440944983e-08, -1.7632630464422822e-06, 6.9907088850245e-07, -1.4716837506218314e-09, -2.495445843186716e-07, -6.360257742584687e-07, -8.106295406584724e-07, 7.7431251897257e-08, 2.963196423402005e-06, -8.931962460338957e-08, 5.525152901187272e-07, -4.3980026179115216e-09, 7.213109517438205e-07, -3.697301947034683e-07, -1.3721252597319008e-06], [1.5519003868430676e-08, 1.447248717794152e-08, -1.5486325665088657e-08, -6.288964468028521e-07, 2.4933500349228503e-07, -5.248999481109811e-10, -8.90041350968926e-08, -2.2684893800346374e-07, -2.891242114000879e-07, 2.7617115488205477e-08, 1.0568722038475732e-06, -3.1857296990472055e-08, 1.9706356545100352e-07, -1.5686191717196714e-09, 2.5726728380485067e-07, -1.3187028798334721e-07, -4.893907929137104e-07], [2.643584432908396e-07, 2.4653155662201304e-07, -2.638017864951924e-07, -1.0712935384090108e-05, 4.247296665427141e-06, -8.941407215467973e-09, -1.5161407781156396e-06, -3.864257823581567e-06, -4.925085855471722e-06, 4.7044370376741286e-07, 1.8003287642376e-05, -5.426730678885236e-07, 3.3568789487799643e-06, -2.672064043978564e-08, 4.382419080045656e-06, -2.246344181826512e-06, -8.336526575569494e-06], [1.5176999126055776e-09, 1.415354536371305e-09, -1.514504107850533e-09, -6.150369511101656e-08, 2.4384020792696586e-08, -5.133323067179999e-11, -8.70426795452231e-09, -2.2184968590857143e-08, -2.8275254912894293e-08, 2.7008494951233043e-09, 1.0335810629428809e-07, -3.1155232170954176e-09, 1.9272071751405245e-08, -1.5340502522028955e-10, 2.515976782125643e-08, -1.2896415662008407e-08, -4.7860569527019604e-08], [5.16187364155108e-08, 4.813785132399525e-08, -5.151004338475027e-08, -2.0918120902208694e-06, 8.29328862441363e-07, -1.7459027844675648e-09, -2.96042260728014e-07, -7.545365434671715e-07, -9.616742534592034e-07, 9.185902761725105e-08, 3.515329216861943e-06, -1.0596256243011763e-07, 6.554655394350868e-07, -5.217483045160328e-09, 8.55712919697847e-07, -4.386220722772615e-07, -1.6277935464001646e-06], [1.1701193642742815e-07, 1.0912129180255878e-07, -1.1676554562268087e-07, -4.741824390058112e-06, 1.8799641926194133e-06, -3.957699854954245e-09, -6.710834204327684e-07, -1.7104212188700933e-06, -2.179971351949825e-06, 2.0823064348792008e-07, 7.968724292935795e-06, -2.4020124241233066e-07, 1.4858421061175312e-06, -1.1827251823390904e-08, 1.939772894745366e-06, -9.942904766950375e-07, -3.689963919983125e-06], [1.5493955676773408e-07, 1.4449128099249114e-07, -1.546133021714531e-07, -6.278813868888497e-06, 2.489325684515254e-06, -5.240527420265804e-09, -8.886047944392048e-07, -2.2648279622500093e-06, -2.8865755524603945e-06, 2.7572540539475897e-07, 1.0551663767375572e-05, -3.1805878246880977e-07, 1.9674549826074253e-06, -1.5660873678755843e-08, 2.5685204579817697e-06, -1.3165744492490677e-06, -4.886008997942724e-06], [3.1707735817334823e-09, 2.9569539639810628e-09, -3.1640969171270535e-09, -1.2849331413757725e-07, 5.0943014692006065e-08, -1.072452138445067e-10, -1.8184927500685192e-08, -4.634876218626883e-08, -5.9072568002370716e-08, 5.642605732692532e-09, 2.1593541000690537e-07, -6.508940685832886e-09, 4.026314785096029e-08, -3.204932656539346e-10, 5.256370278972294e-08, -2.694314847125985e-08, -9.999014179453975e-08], [4.1471211651840594e-09, 3.867462009632548e-09, -4.138388615732509e-09, -1.6805909627683452e-07, 6.662943568868764e-08, -1.4026826095734395e-10, -2.378444747991097e-08, -6.062051663041593e-08, -7.726224870035452e-08, 7.380082196864042e-09, 2.824264445469341e-07, -8.513179823577236e-09, 5.2661014205361684e-08, -4.1917985344312994e-10, 6.874916758973655e-08, -3.52395080889917e-08, -1.3077920029824003e-07], [7.548500715480385e-08, 7.039471137687104e-08, -7.532605916858057e-08, -3.0589755108647014e-06, 1.2127746524275731e-06, -2.5531327058506794e-09, -4.329193955717118e-07, -1.1034016006069023e-06, -1.4063108271117156e-06, 1.3433066825010352e-07, 5.140665376818077e-06, -1.5495506745444668e-07, 9.585244500312373e-07, -7.629821501706704e-09, 1.2513575564093143e-06, -6.414219441093295e-07, -2.380414865398329e-06], [1.8982536647713405e-07, 1.7702458261363795e-07, -1.894256531979956e-07, -7.692536164216507e-06, 3.0498161360589087e-06, -6.420471691271731e-09, -1.0886808654721006e-06, -2.774771058537708e-06, -3.5365098076996615e-06, 3.3780705984965187e-07, 1.2927450441775634e-05, -3.8967211603632265e-07, 2.4104423098394523e-06, -1.918703749668282e-08, 3.146842210032328e-06, -1.6130111156686908e-06, -5.986130772501346e-06], [1.0437004119229688e-08, 9.733189679715508e-09, -1.0415027029348072e-08, -4.2295206970098075e-07, 1.6768540562135192e-07, -3.5301124782642044e-10, -5.985799942510616e-08, -1.5256283975811986e-07, -1.9444486327439132e-07, 1.8573353712346887e-08, 7.107788385500236e-07, -2.1425005286161012e-08, 1.3253126694208354e-07, -1.0549443054167124e-09, 1.7302010641780865e-07, -8.868679655953836e-08, -3.2913025635259346e-07], [5.1978788014892014e-08, 4.847362301395804e-08, -5.1869336827262795e-08, -2.1064029217868794e-06, 8.351136065879728e-07, -1.7580808254961473e-09, -2.981072180838381e-07, -7.597995953768517e-07, -9.683821346877273e-07, 9.249976375509376e-08, 3.5398493813366074e-06, -1.0670167370495372e-07, 6.600375501467237e-07, -5.253876092445187e-09, 8.616816982217592e-07, -4.41681553961898e-07, -1.6391477505233733e-06], [2.582902844054943e-07, 2.408726011628601e-07, -2.5774640526823604e-07, -1.046702761874752e-05, 4.149803009926023e-06, -8.736163611493731e-09, -1.4813388515358446e-06, -3.7755565505844587e-06, -4.812034034153161e-06, 4.5964500520672316e-07, 1.7590035058072042e-05, -5.302163959632679e-07, 3.279824194763059e-06, -2.6107287260335972e-08, 4.2818237862133785e-06, -2.194780958663265e-06, -8.145167573818964e-06], [1.670411843307405e-07, 1.5577684102087104e-07, -1.6668944746448743e-07, -6.769223603909447e-06, 2.683755647692373e-06, -5.649841299799157e-09, -9.580096933387512e-07, -2.4417234243592704e-06, -3.1120329049731633e-06, 2.972610689486978e-07, 1.137580647016043e-05, -3.429009145161525e-07, 2.1211239871095385e-06, -1.6884073644763886e-08, 2.7691359664994184e-06, -1.4194061210065054e-06, -5.267633047966562e-06], [2.6046159718405726e-07, 2.4289749249051656e-07, -2.599131459363015e-07, -1.055501850417501e-05, 4.184688256673537e-06, -8.809604018781654e-09, -1.4937917007985445e-06, -3.807295700987813e-06, -4.852486314475224e-06, 4.635090029397589e-07, 1.7737905381514023e-05, -5.346736508639255e-07, 3.30739597974878e-06, -2.6326757716115823e-08, 4.317818863318036e-06, -2.2132313465772392e-06, -8.213639783206464e-06], [2.2763729768596874e-07, 2.1228668411399694e-07, -2.2715796422068483e-07, -9.224837424374301e-06, 3.65731891651657e-06, -7.699386298018352e-09, -1.30553874257023e-06, -3.3274867167915883e-06, -4.240958681155237e-06, 4.050959451337604e-07, 1.550251127733009e-05, -4.672921702946735e-07, 2.8905861414779544e-06, -2.3008965805791575e-08, 3.773671929258145e-06, -1.9343120380725315e-06, -7.178527601110522e-06], [2.3416112545537517e-08, 2.1837058064139572e-08, -2.3366805483452225e-08, -9.489210842830595e-07, 3.7621335446627067e-07, -7.92004201063225e-10, -1.3429540079480733e-07, -3.422848726734628e-07, -4.362499765565725e-07, 4.167055372480691e-08, 1.5946795735960862e-06, -4.8068423595343966e-08, 2.9734270745382735e-07, -2.366837677049307e-09, 3.88182110329502e-07, -1.98974723571788e-07, -7.38425609193183e-07], [1.605383978946928e-07, 1.4971256691446159e-07, -1.6020035387749424e-07, -6.505702870322458e-06, 2.579279078674964e-06, -5.42989726912579e-09, -9.207151035978727e-07, -2.3466689859696032e-06, -2.9908838276119495e-06, 2.8568892130816595e-07, 1.093295496434978e-05, -3.295520423517348e-07, 2.038550241312569e-06, -1.622678948144635e-08, 2.6613356065183113e-06, -1.364149718773098e-06, -5.062568094244908e-06], [1.565996235411382e-09, 1.4603940194769568e-09, -1.5626987335969965e-09, -6.346086878425732e-08, 2.5159970326412857e-08, -5.296675931510984e-11, -8.981255606315818e-09, -2.289093977501647e-08, -2.9175031494119176e-08, 2.7867960633367984e-09, 1.0664717314124842e-07, -3.2146655533056737e-09, 1.988534858611531e-08, -1.5828668763361348e-10, 2.5960403215857183e-08, -1.330680604859075e-08, -4.9383590973056483e-08], [3.31840391832996e-08, 3.0946289186096924e-08, -3.3114163900753455e-08, -1.3447592712697802e-06, 5.331490729561119e-07, -1.122385211905235e-09, -1.9031612670315307e-07, -4.850674767025541e-07, -6.182297034836243e-07, 5.9053238871509773e-08, 2.2598930267400324e-06, -6.811995154897398e-08, 4.2137788823092193e-07, -3.3541534301637042e-09, 5.501105418066067e-07, -2.8197613974787346e-07, -1.0464565500257754e-06], [2.3830299649274408e-07, 2.2223314656310076e-07, -2.3780120437757854e-07, -9.657057181461629e-06, 3.828678629535567e-06, -8.060132696286366e-09, -1.3667083450491674e-06, -3.483392499655889e-06, -4.439664202636082e-06, 4.240762764879091e-07, 1.6228864637317427e-05, -4.891866383532554e-07, 3.026021421519688e-06, -2.408702595513718e-08, 3.950483236553553e-06, -2.0249421316737215e-06, -7.514869729785719e-06], [6.198693347268349e-08, 5.7806873913360496e-08, -6.185640823834876e-08, -2.5119758033230984e-06, 9.959087841538427e-07, -2.0965867680179028e-09, -3.555056399121008e-07, -9.060935964436719e-07, -1.1548372182480577e-06, 1.1030993451565662e-07, 4.22142217016231e-06, -1.272463210854011e-07, 7.871230798743537e-07, -6.265472517805082e-09, 1.0275923726231977e-06, -5.267241916780293e-07, -1.9547539764582603e-06], [9.673783051181738e-08, 9.021436063639132e-08, -9.653413067881705e-08, -3.920230859923781e-06, 1.5542316706013654e-06, -3.2719678818635803e-09, -5.54807963761708e-07, -1.4140646076521643e-06, -1.802258005501283e-06, 1.7215150276223686e-07, 6.588021047951203e-06, -1.985827069157472e-07, 1.2283972577282026e-06, -9.777999725877366e-09, 1.6036776012135859e-06, -8.220144589581573e-07, -3.050621288601937e-06], [2.2874135796853206e-07, 2.1331629261326258e-07, -2.2825969969511476e-07, -9.26957867159911e-06, 3.6750572247702723e-06, 