{"net_structure": [1, 8, 8, 1], "learning_rate": 0.01, "loss_name": "MAE", "layers": [{"activ_func_name": "SIGMOID", "is_last": false, "weights": [[0.5921651566761093, -0.009372435331011503, 1.0701501522340937, 0.9687181886425916, -0.3994242021017746, -0.4124197576427517, 1.336199327328234, 1.1606615485487681, -0.8984765962420861], [0.7713975366012062, -0.21430845653683958, -0.7713218599308436, 0.35089600978737623, -1.8404085524989222, -1.5140739890389072, -0.7351446680649292, -0.969304257348479, 0.6257718683400837]], "outputs": [[0.9055573643629509, 0.4410786777513883, 0.8719214091498655, 0.9419692960894166, 0.05496204842749278, 0.07238932990151047, 0.9324569879140883, 0.875351977581572, 0.1636467222399608]], "delta": [[-0.0010183453814738865, 0.014932026872541315, -0.026506959826543202, -0.001681498638180144, 0.004608690219799084, 0.009754381226608804, -0.0027597368254989835, -0.006951949994895551, 0.0336413711318543]], "gradient": [[-0.002561034922326519, 0.037552526851300866, -0.06666230439640289, -0.004228797824949199, 0.011590386536645575, 0.024531275362465944, -0.0069404570542697195, -0.017483446224724423, 0.08460462223428408], [-0.0010183453814738865, 0.014932026872541315, -0.026506959826543202, -0.001681498638180144, 0.004608690219799084, 0.009754381226608804, -0.0027597368254989835, -0.006951949994895551, 0.0336413711318543]]}, {"activ_func_name": "SIGMOID", "is_last": false, "weights": [[0.3615689477687843, -0.33794408200094644, 1.1575636675136094, 0.5573857909728723, 0.5898914318135854, 0.096257364644619, 0.4589598147109495, 0.8402899457867172, 0.3145024656036711], [0.43652748035766686, 0.10130945548365278, 0.2662963580180809, 0.05725383505164105, 1.019068020530734, 0.22562490762383502, -0.15523955296291106, 0.49127554068535867, -0.14814133272521066], [0.6383281784536586, -0.9764876802606979, -0.12567089271947296, 0.6217086404209752, 0.5297614476585618, 0.6276888000790775, 0.6020937163740885, 0.7315574307184624, 0.12712724416631802], [0.40947521732177994, -0.10120555870656617, 0.9594181878842318, 0.742128460836771, -0.12884413479630813, 0.7016418919675492, 0.5137097156780313, 0.605984210350012, 0.9460995569850683], [0.45024164506129083, 0.4961988617018778, -0.16263170516784758, -0.04130637811785289, 0.25601605969460645, 0.39616723876853244, -0.13287828921104908, -0.05865596635038756, -0.3254361164470365], [-0.3170999778908155, 0.4826650775278882, 0.6396873193781077, 0.06112421442586303, 0.51936952742941, 0.19484775674860638, -0.17588435924502496, 0.14994901693593748, 0.6282033512430281], [0.5794347403658485, 0.2329807055432062, -0.5839764333289875, 0.8733878292447046, 0.28034574976168586, 0.4918222719018087, 0.7186189472914369, 0.2149747014582857, 0.6239448040469542], [0.661584530582593, 0.0821311777088592, 0.058728539033843716, 0.24567458409792103, -0.005575855802479686, 0.8913856202321455, 0.7686930978490761, 0.6722931625023545, 0.8146637689658973], [0.35833326026662754, 1.1280184469119432, 0.3325564151290229, 0.1433956267220345, 0.45410615861677556, -0.3429248719656057, 0.22560164221394727, 0.1046233256777593, 0.24248867874697055]], "outputs": [[0.933502432432711, 0.33983383234513603, 0.8265740343819846, 0.9440563811921974, 0.8466465943502488, 0.9316570011848956, 0.9378882189686197, 0.9525100787046576, 0.9297689014346684]], "delta": [[-0.007389659018487651, 0.18726383334363308, 0.06943255681001584, -0.00851710627660851, 0.04188769141515544, -0.025838088601198017, -0.026899130042615852, -0.03272108186813436, -0.012582482135958046]], "gradient": [[-0.006691760144322588, 0.16957814336316326, 0.0628751631458588, -0.007712728311844748, 0.037931707437156764, -0.02339787141387728, -0.02435870530504748, -0.029630816655612093, -0.011394159360182081], [-0.003259421028908155, 0.08259808400186602, 0.030625220350659937, -0.003756713974754532, 0.01847576754345494, -0.01139662995583964, -0.011864632711859646, -0.014432571524991632, -0.005549864583358839], [-0.006443201904536765, 0.16327934545178613, 0.0605397327746671, -0.007426247306579656, 0.03652277492473706, -0.022528782622895652, -0.023453927371663096, -0.028530211811371827, -0.010970935554587549], [-0.006960831903985622, 0.1763967812777079, 0.06540333666401905, -0.00802285260409567, 0.03945691919714467, -0.024338686131966474, -0.02533815459166053, -0.030822254454610697, -0.01185231184066606], [-0.00040615079683677704, 0.010292403876950698, 0.0038161555498367338, -0.00046811760763705964, 0.002302233324075647, -0.0014201142769728946, -0.0014784312880596782, -0.0017984176862363567, -0.0006915589924945889], [-0.0005349324645489746, 0.013555903410533731, 0.0050261762608256036, -0.0006165476160636389, 0.003032221912664355, -0.0018704019197765803, -0.0019472099987185502, -0.002368657190086711, -0.000910837450319729], [-0.006890539190091173, 0.17461546998484992, 0.06474287278624119, -0.007941835264430546, 0.03905847056765066, -0.024092906270530443, -0.02508228177704694, -0.030511001440050856, -0.011732623392978264], [-0.006468552635486664, 0.16392176684685514, 0.06077792591219221, -0.007455465822501679, 0.036666473516582955, -0.02261742195398656, -0.023546206678027662, -0.028642463721879934, -0.011014100620595678], [-0.00120929347684647, 0.03064511252077583, 0.011362410338698961, -0.0013937965251363796, 0.006854783402289133, -0.004228318508531749, -0.004401954462580541, -0.005354697795865601, -0.002059081959192395]]}, {"activ_func_name": "LINEAR", "is_last": true, "weights": [[0.11904281438783096], [-0.834706955465395], [-0.484358893565889], [0.1612662838118989], [-0.3226196639751983], [0.40579837160839893], [0.46175666337196825], [0.7233635564101719], [0.1926911837583225]], "outputs": [[0.9175410488404163]], "delta": [[-1.0]], "gradient": [[-0.933502432432711], [-0.33983383234513603], [-0.8265740343819846], [-0.9440563811921974], [-0.8466465943502488], [-0.9316570011848956], [-0.9378882189686197], [-0.9525100787046576], [-0.9297689014346684]]}]}