{"net_structure": [1, 8, 8, 1], "learning_rate": 0.01, "loss_name": "MSE", "layers": [{"activ_func_name": "SIGMOID", "is_last": false, "weights": [[0.6195885461275693, -0.16507166625287054, 0.9362056971804231, 1.495348873815618, -0.342350551116025, -0.3295872134345556, 1.5412992459613921, 0.9072855768407573, -0.6444660982599402], [0.5325470448776172, -0.46630882221061465, -0.43899767852551524, 0.21526547723050954, -1.8984357205620708, -1.7125446636881811, -0.5746288385078437, -0.9754080113099067, 0.287829396721287]], "outputs": [[0.8900000585752711, 0.2928811528047753, 0.8716291419903106, 0.9815833426900112, 0.05955756744175711, 0.07300529495188572, 0.9644829166061228, 0.7868944207849194, 0.20867670725421109]], "delta": [[-0.00010160037666299694, 0.00021029846113990123, -0.0003231335741844661, -5.765357585639944e-05, 7.39651455742941e-05, 9.635281374375863e-05, -4.746287965136255e-05, -0.00022455050931318975, 0.00022944863601201878]], "gradient": [[-0.0002555145999472831, 0.000528879212189587, -0.0008126480299491845, -0.00014499287162429803, 0.00018601480823388945, 0.00024231751363671915, -0.00011936430852702525, -0.0005647216618638262, 0.0005770399516679449], [-0.00010160037666299694, 0.00021029846113990123, -0.0003231335741844661, -5.765357585639944e-05, 7.39651455742941e-05, 9.635281374375863e-05, -4.746287965136255e-05, -0.00022455050931318975, 0.00022944863601201878]]}, {"activ_func_name": "SIGMOID", "is_last": false, "weights": [[-0.3141325642948526, -0.6735998178422508, 0.4818363614585436, -0.05105583289141027, -0.07507043618820491, -0.4517980249230014, -0.05662898626021088, 0.34426642854257833, -0.3399123862082704], [0.12887976550019847, -0.18470499413203076, -0.0901040581538642, -0.2209989763770471, 0.6658026353587525, -0.011565763312729007, -0.38697339265266395, 0.2606048847440885, -0.4387886134045936], [0.08470641093286865, -0.9262226317661734, -0.5270716800051446, 0.11523960394576116, 0.12807346284946444, 0.13357540412084967, 0.14099221059355121, 0.2942578713805057, -0.4323311929511302], [-0.2430560435850086, -0.4643269992285244, 0.2933627725338132, 0.18516283716328177, -0.8010121034767778, 0.2141164143304234, 0.10400232229834595, 0.28265967450897106, 0.3366405634825353], [0.36265161422638614, 0.3663890686638419, -0.28266403591352324, -0.11884341981948904, 0.1377281679355754, 0.33364344073257457, -0.19433468277448976, -0.11880827982833639, -0.40347297169847507], [-0.4251087561471992, 0.3264370462059925, 0.4942303575092358, -0.03542223818281482, 0.376124046339325, 0.11616880689204151, -0.2540377968547987, 0.07194345228775334, 0.530861274372592], [-3.452786303704945e-05, 0.22300826495258907, -1.0187365532409551, 0.36407650535219327, -0.16617228682566393, 0.005588482764577861, 0.29786388084128024, -0.13275850272276699, 0.0550607376814434], [0.14064968653278975, 0.30537432573731615, -0.2301605138673895, -0.2475295323540578, -0.29343064412599706, 0.38747065663609404, 0.28202404826962396, 0.18941372885199276, 0.2652216372225319], [0.02387277816678436, 0.4803430843804325, -0.20070908294851272, -0.14989095293115304, -0.06661958698971651, -0.5587382627317198, 0.010828310958814683, -0.11372346834846667, -0.046027932364507945]], "outputs": [[0.42546402190496035, 0.2115931169872462, 0.2778274830853788, 0.5713658246633704, 0.28581773901791435, 0.5357204543630292, 0.6323995218443612, 0.713410294530153, 0.4475619719627345]], "delta": [[0.00019272754745333553, 0.0017924805108042647, 0.0010803126276154222, -0.0007170790658636815, 0.0015413385288628929, -0.0007798281614417827, -0.001555563204727672, -0.0025276705065555827, -0.0006428122148802882]], "gradient": [[0.00017152752852253695, 0.0015953077596108274, 0.0009614783018573308, -0.0006382004106217773, 0.001371791380972297, -0.0006940471093618326, -0.0013844513433251644, -0.002249626898893454, -0.0005721029088963563], [5.644626627536994e-05, 0.0005249837583844455, 0.00031640320776556076, -0.00021001894346232643, 0.0004514290051957805, -0.00022839697091269772, -0.0004555951446613312, -0.0007403070518706294, -0.00018826758253112974], [0.00016798694682464772, 0.001562378249666675, 0.0009416319686897284, -0.0006250270109179741, 0.001343475579429371, -0.0006797209512573824, -0.0013558742214484787, -0.0022031912748632565, -0.0005602938593169968], [0.00018917815025769284, 0.001759469011501949, 0.0010604168801649754, -0.0007038728664435032, 0.0015129522253781427, -0.0007654663334318308, -0.0015269149302621745, -0.002481119265043783, -0.0006309737626041631], [1.1478383905336473e-05, 0.00010675577891026023, 6.434079217738734e-05, -4.27074848262484e-05, 9.179837338333043e-05, -4.644466831805042e-05, -9.264556047548414e-05, -0.00015054190666472447, -3.828433184011803e-05], [1.4070131447184311e-05, 0.00013086056838677211, 7.886854201931058e-05, -5.2350568707200756e-05, 0.00011252587392034112, -5.69315849378441e-05, -0.00011356435057744428, -0.0001845333308722727, -4.692869534601039e-05], [0.000185882427078138, 0.00172881683102013, 0.0010419430739289468, -0.0006916105088813976, 0.0014865946797950737, -0.000752130939598961, -0.0015003141366609124, -0.0024378950223820045, -0.0006199813998377822], [0.00015165623182259054, 0.0014104929133175784, 0.000850091979374072, -0.0005642655161897927, 0.001212870688903046, -0.0006136424294095002, -0.0012240640069785145, -0.001989009819191179, -0.0005058253455016956], [4.021774999974177e-05, 0.0003740489308119803, 0.00022543608193593102, -0.00014963769830535862, 0.00032164144896715827, -0.00016273197295377654, -0.0003246098074883788, -0.0005274659583316027, -0.00013413993638400495]]}, {"activ_func_name": "LINEAR", "is_last": true, "weights": [[-0.06389460267224902], [-0.8707689791766258], [-0.43634875500301873], [0.23728289871208905], [-0.6119278882673185], [0.2540864967093341], [0.5422761591057452], [1.001892101882086], [0.21069189328249394]], "outputs": [[0.9158645419503297]], "delta": [[-0.012339556474657343]], "gradient": [[-0.005250037326231107], [-0.002610965216712902], [-0.0034282679177439395], [-0.007050400861122824], [-0.0035268641320704277], [-0.00661055280124169], [-0.007803529614344795], [-0.008803166618956752], [-0.005522716228943169]]}]}